{"learner":{"attributes":{"best_iteration":"466","best_score":"9.45135634825754"},"feature_names":["gender","age","hr_count","sbp_count","spo2_count","temperature_count","hr_max","sbp_max","spo2_max","temperature_max","hr_mean","sbp_mean","spo2_mean","temperature_mean","hr_min","sbp_min","spo2_min","temperature_min","albumin_max","alt_max","anion_gap_max","ast_max","bicarbonate_max","bilirubin_total_max","bun_max","calcium_max","chloride_max","creatinine_max","glucose_max","hematocrit_max","hemoglobin_max","inr_max","lactate_max","magnesium_max","phosphate_max","platelet_max","potassium_max","pt_max","ptt_max","sodium_max","wbc_max","albumin_mean","alt_mean","anion_gap_mean","ast_mean","bicarbonate_mean","bilirubin_total_mean","bun_mean","calcium_mean","chloride_mean","creatinine_mean","glucose_mean","hematocrit_mean","hemoglobin_mean","inr_mean","lactate_mean","magnesium_mean","phosphate_mean","platelet_mean","potassium_mean","pt_mean","ptt_mean","sodium_mean","wbc_mean","albumin_min","alt_min","anion_gap_min","ast_min","bicarbonate_min","bilirubin_total_min","bun_min","calcium_min","chloride_min","creatinine_min","glucose_min","hematocrit_min","hemoglobin_min","inr_min","lactate_min","magnesium_min","phosphate_min","platelet_min","potassium_min","pt_min","ptt_min","sodium_min","wbc_min","icd10_chap_01_infectious_parasitic","icd10_chap_02_neoplasms","icd10_chap_03_blood_diseases","icd10_chap_04_endocrine_metabolic","icd10_chap_05_mental_disorders","icd10_chap_06_nervous_system","icd10_chap_07_eye_diseases","icd10_chap_08_ear_diseases","icd10_chap_09_circulatory","icd10_chap_10_respiratory","icd10_chap_11_digestive","icd10_chap_12_skin_diseases","icd10_chap_13_musculoskeletal","icd10_chap_14_genitourinary","icd10_chap_15_pregnancy_childbirth","icd10_chap_16_perinatal","icd10_chap_17_congenital","icd10_chap_18_symptoms_signs","icd10_chap_19_injury_poisoning","icd10_chap_20_external_causes","icd10_chap_21_health_status_factors"],"feature_types":["float","float","float","float","float","float","float","float","float","float","float","float","float","float","float","float","float","float","float","float","float","float","float","float","float","float","float","float","float","float","float","float","float","float","float","float","float","float","float","float","float","float","float","float","float","float","float","float","float","float","float","float","float","float","float","float","float","float","float","float","float","float","float","float","float","float","float","float","float","float","float","float","float","float","float","float","float","float","float","float","float","float","float","float","float","float","float","float","float","float","float","float","float","float","float","float","float","float","float","float","float","float","float","float","float","float","float","float"],"gradient_booster":{"model":{"cats":{"enc":[],"feature_segments":[],"sorted_idx":[]},"gbtree_model_param":{"num_parallel_tree":"1","num_trees":"497"},"iteration_indptr":[0,1,2,3,4,5,6,7,8,9,10,11,12,13,14,15,16,17,18,19,20,21,22,23,24,25,26,27,28,29,30,31,32,33,34,35,36,37,38,39,40,41,42,43,44,45,46,47,48,49,50,51,52,53,54,55,56,57,58,59,60,61,62,63,64,65,66,67,68,69,70,71,72,73,74,75,76,77,78,79,80,81,82,83,84,85,86,87,88,89,90,91,92,93,94,95,96,97,98,99,100,101,102,103,104,105,106,107,108,109,110,111,112,113,114,115,116,117,118,119,120,121,122,123,124,125,126,127,128,129,130,131,132,133,134,135,136,137,138,139,140,141,142,143,144,145,146,147,148,149,150,151,152,153,154,155,156,157,158,159,160,161,162,163,164,165,166,167,168,169,170,171,172,173,174,175,176,177,178,179,180,181,182,183,184,185,186,187,188,189,190,191,192,193,194,195,196,197,198,199,200,201,202,203,204,205,206,207,208,209,210,211,212,213,214,215,216,217,218,219,220,221,222,223,224,225,226,227,228,229,230,231,232,233,234,235,236,237,238,239,240,241,242,243,244,245,246,247,248,249,250,251,252,253,254,255,256,257,258,259,260,261,262,263,264,265,266,267,268,269,270,271,272,273,274,275,276,277,278,279,280,281,282,283,284,285,286,287,288,289,290,291,292,293,294,295,296,297,298,299,300,301,302,303,304,305,306,307,308,309,310,311,312,313,314,315,316,317,318,319,320,321,322,323,324,325,326,327,328,329,330,331,332,333,334,335,336,337,338,339,340,341,342,343,344,345,346,347,348,349,350,351,352,353,354,355,356,357,358,359,360,361,362,363,364,365,366,367,368,369,370,371,372,373,374,375,376,377,378,379,380,381,382,383,384,385,386,387,388,389,390,391,392,393,394,395,396,397,398,399,400,401,402,403,404,405,406,407,408,409,410,411,412,413,414,415,416,417,418,419,420,421,422,423,424,425,426,427,428,429,430,431,432,433,434,435,436,437,438,439,440,441,442,443,444,445,446,447,448,449,450,451,452,453,454,455,456,457,458,459,460,461,462,463,464,465,466,467,468,469,470,471,472,473,474,475,476,477,478,479,480,481,482,483,484,485,486,487,488,489,490,491,492,493,494,495,496,497],"tree_info":[0,0,0,0,0,0,0,0,0,0,0,0,0,0,0,0,0,0,0,0,0,0,0,0,0,0,0,0,0,0,0,0,0,0,0,0,0,0,0,0,0,0,0,0,0,0,0,0,0,0,0,0,0,0,0,0,0,0,0,0,0,0,0,0,0,0,0,0,0,0,0,0,0,0,0,0,0,0,0,0,0,0,0,0,0,0,0,0,0,0,0,0,0,0,0,0,0,0,0,0,0,0,0,0,0,0,0,0,0,0,0,0,0,0,0,0,0,0,0,0,0,0,0,0,0,0,0,0,0,0,0,0,0,0,0,0,0,0,0,0,0,0,0,0,0,0,0,0,0,0,0,0,0,0,0,0,0,0,0,0,0,0,0,0,0,0,0,0,0,0,0,0,0,0,0,0,0,0,0,0,0,0,0,0,0,0,0,0,0,0,0,0,0,0,0,0,0,0,0,0,0,0,0,0,0,0,0,0,0,0,0,0,0,0,0,0,0,0,0,0,0,0,0,0,0,0,0,0,0,0,0,0,0,0,0,0,0,0,0,0,0,0,0,0,0,0,0,0,0,0,0,0,0,0,0,0,0,0,0,0,0,0,0,0,0,0,0,0,0,0,0,0,0,0,0,0,0,0,0,0,0,0,0,0,0,0,0,0,0,0,0,0,0,0,0,0,0,0,0,0,0,0,0,0,0,0,0,0,0,0,0,0,0,0,0,0,0,0,0,0,0,0,0,0,0,0,0,0,0,0,0,0,0,0,0,0,0,0,0,0,0,0,0,0,0,0,0,0,0,0,0,0,0,0,0,0,0,0,0,0,0,0,0,0,0,0,0,0,0,0,0,0,0,0,0,0,0,0,0,0,0,0,0,0,0,0,0,0,0,0,0,0,0,0,0,0,0,0,0,0,0,0,0,0,0,0,0,0,0,0,0,0,0,0,0,0,0,0,0,0,0,0,0,0,0,0,0,0,0,0,0,0,0,0,0,0,0,0,0,0,0,0,0,0,0,0,0,0,0,0,0,0,0,0,0,0,0,0,0,0,0,0,0,0,0,0,0,0,0,0,0,0,0,0,0,0,0,0,0,0,0,0,0,0,0,0,0,0,0,0,0,0,0,0,0,0,0],"trees":[{"base_weights":[5.2127186E-3,1.6612133E-1,-2.4285042E-1,4.825431E-1,2.7332323E-2,-1.7513055E-1,-5.8476263E-1,6.456901E-1,1.8150587E-1,9.154038E-2,-4.5968163E-1,-4.3652087E-2,-3.2250392E-1,-4.8300794E-1,-6.203406E-1,7.987405E-1,3.4598508E-1,8.153157E-2,5.971719E-1,-3.303431E-1,1.4430422E-1,-3.765922E-1,-5.696871E-1,2.646897E-1,-1.2221514E-1,-1.5408388E-1,-3.905754E-1,-7.141772E-2,-5.269049E-1,-6.5670633E-1,-5.686529E-1,6.155326E-1,1.1110709E0,6.2348694E-1,1.7752053E-1,5.7327602E-2,1.1840087E0,4.55631E-1,1.5637624E0,-1.23956665E-1,-3.9993334E-1,6.5610014E-2,4.1187394E-1,-4.0459064E-1,9.1196425E-2,-5.808008E-1,2.36797E-2,4.725242E-1,1.4464685E-1,-5.2695613E-2,-2.579954E-1,1.2736738E-1,-2.3107834E-1,-2.7382654E-1,-4.5156997E-1,-3.2077608E-1,4.7338027E-1,-5.490837E-1,7.290543E-2,-7.566347E-1,-6.146836E-1,-5.838002E-1,-1.694447E-1,3.8431212E-2,1.5280244E-2,8.855952E-2,4.3270085E-2,2.3757968E-2,7.334089E-2,1.1648699E-2,-2.242944E-2,6.4488812E-3,-1.12340655E-2,1.5497483E-2,1.0757523E-1,4.6874058E-2,1.396105E-2,4.3468956E-2,1.1143444E-1,-3.8403444E-4,-2.1336617E-2,2.94862E-2,-2.0723281E-2,2.470004E-3,2.9288188E-2,4.6695083E-2,1.5350443E-2,-9.419936E-3,-2.2501592E-2,-7.6418407E-3,4.2654537E-2,-2.6819786E-2,-3.807408E-2,4.745019E-2,1.5073969E-2,2.1800514E-2,-1.0368479E-3,1.165386E-2,-4.70209E-3,-2.1832898E-2,-9.762079E-3,-2.5371325E-4,3.2249883E-2,-9.905069E-3,-3.0557338E-2,-8.771838E-3,-1.8139942E-2,-1.2723994E-2,-2.3712978E-2,2.4499437E-2,-2.3560595E-2,-1.9486129E-4,6.9532305E-2,-2.8609032E-2,-1.7348027E-3,3.403149E-2,-2.2857908E-2,-1.51538765E-2,-3.957181E-2,-2.8674046E-2,-3.9628666E-2,-2.200061E-2,-3.1273324E-2,3.563173E-2,-2.3147231E-2],"categories":[],"categories_nodes":[],"categories_segments":[],"categories_sizes":[],"default_left":[0,0,0,0,0,0,0,0,0,0,0,0,0,0,0,0,0,0,0,0,0,0,0,0,0,0,0,0,0,0,0,0,0,0,0,0,0,0,0,0,0,0,0,0,0,0,0,0,0,0,0,0,0,0,0,0,0,0,0,0,0,0,0,0,0,0,0,0,0,0,0,0,0,0,0,0,0,0,0,0,0,0,0,0,0,0,0,0,0,0,0,0,0,0,0,0,0,0,0,0,0,0,0,0,0,0,0,0,0,0,0,0,0,0,0,0,0,0,0,0,0,0,0,0,0],"id":0,"left_children":[1,3,5,7,9,11,13,15,17,19,21,23,25,27,29,31,33,35,37,39,41,43,45,47,49,51,53,55,57,59,61,63,65,67,69,71,73,75,77,79,81,83,85,87,89,91,-1,93,95,97,99,101,103,105,107,109,111,113,115,117,119,121,123,-1,-1,-1,-1,-1,-1,-1,-1,-1,-1,-1,-1,-1,-1,-1,-1,-1,-1,-1,-1,-1,-1,-1,-1,-1,-1,-1,-1,-1,-1,-1,-1,-1,-1,-1,-1,-1,-1,-1,-1,-1,-1,-1,-1,-1,-1,-1,-1,-1,-1,-1,-1,-1,-1,-1,-1,-1,-1,-1,-1,-1,-1],"loss_changes":[1.3639755E3,9.1022485E2,3.111996E2,3.1024646E2,4.505996E2,2.1745667E2,7.7453613E0,1.8769397E2,9.230737E1,2.834422E2,1.5127594E1,1.4374934E2,6.0607117E1,1.0445526E1,2.7148438E0,1.5449304E2,6.47316E1,4.776945E1,5.821788E1,2.0281052E1,2.3825456E2,1.2599808E1,8.626923E0,2.9995148E1,4.462307E1,3.3072342E1,2.6707703E1,7.905434E0,7.0127716E0,3.5578003E0,4.049362E0,8.0970825E1,1.6086133E2,6.479382E1,3.0118885E1,3.54955E1,3.1857738E1,3.1795692E1,2.3275192E1,1.2614059E1,1.5462662E1,7.371268E1,1.4049252E2,8.808029E0,1.0353492E1,5.3134613E0,0E0,3.563337E1,3.6884567E1,3.6990036E1,1.7865013E1,2.2501583E1,1.4889481E1,1.1277397E1,1.093985E1,5.079088E0,8.027871E0,5.986725E0,6.616145E0,4.1683044E0,4.527527E0,3.6821136E0,7.1871777E0,0E0,0E0,0E0,0E0,0E0,0E0,0E0,0E0,0E0,0E0,0E0,0E0,0E0,0E0,0E0,0E0,0E0,0E0,0E0,0E0,0E0,0E0,0E0,0E0,0E0,0E0,0E0,0E0,0E0,0E0,0E0,0E0,0E0,0E0,0E0,0E0,0E0,0E0,0E0,0E0,0E0,0E0,0E0,0E0,0E0,0E0,0E0,0E0,0E0,0E0,0E0,0E0,0E0,0E0,0E0,0E0,0E0,0E0,0E0,0E0,0E0,0E0],"parents":[2147483647,0,0,1,1,2,2,3,3,4,4,5,5,6,6,7,7,8,8,9,9,10,10,11,11,12,12,13,13,14,14,15,15,16,16,17,17,18,18,19,19,20,20,21,21,22,22,23,23,24,24,25,25,26,26,27,27,28,28,29,29,30,30,31,31,32,32,33,33,34,34,35,35,36,36,37,37,38,38,39,39,40,40,41,41,42,42,43,43,44,44,45,45,47,47,48,48,49,49,50,50,51,51,52,52,53,53,54,54,55,55,56,56,57,57,58,58,59,59,60,60,61,61,62,62],"right_children":[2,4,6,8,10,12,14,16,18,20,22,24,26,28,30,32,34,36,38,40,42,44,46,48,50,52,54,56,58,60,62,64,66,68,70,72,74,76,78,80,82,84,86,88,90,92,-1,94,96,98,100,102,104,106,108,110,112,114,116,118,120,122,124,-1,-1,-1,-1,-1,-1,-1,-1,-1,-1,-1,-1,-1,-1,-1,-1,-1,-1,-1,-1,-1,-1,-1,-1,-1,-1,-1,-1,-1,-1,-1,-1,-1,-1,-1,-1,-1,-1,-1,-1,-1,-1,-1,-1,-1,-1,-1,-1,-1,-1,-1,-1,-1,-1,-1,-1,-1,-1,-1,-1,-1,-1],"split_conditions":[1E0,7.4E0,2.4E1,3.5E1,3.7166668E1,1E0,1E0,1E0,1E0,3.711111E1,1E0,6.0333333E0,1E0,1.3414285E2,2.3E1,1E0,1E0,4E0,4E0,9.2E0,1E0,3.1E0,5.48E2,1E0,7.3E1,6.4E0,7.6E0,1.44E1,3.4E0,1.29E1,4E0,1E0,5E-1,1.6E0,2.4E1,3.6E0,4.8E0,1E0,9.2E0,1.4066667E2,1.3E0,4.0333333E0,5E-1,9E0,2.575E1,1E0,2.36797E-2,2.81E1,6E1,5E-1,1.31E1,3.3E1,3.693611E1,6.2E1,1E0,7.2E0,1.12125E2,2.3333333E0,1.27E2,2.1E1,2.25E0,3.665873E1,9.1E1,3.8431212E-2,1.5280244E-2,8.855952E-2,4.3270085E-2,2.3757968E-2,7.334089E-2,1.1648699E-2,-2.242944E-2,6.4488812E-3,-1.12340655E-2,1.5497483E-2,1.0757523E-1,4.6874058E-2,1.396105E-2,4.3468956E-2,1.1143444E-1,-3.8403444E-4,-2.1336617E-2,2.94862E-2,-2.0723281E-2,2.470004E-3,2.9288188E-2,4.6695083E-2,1.5350443E-2,-9.419936E-3,-2.2501592E-2,-7.6418407E-3,4.2654537E-2,-2.6819786E-2,-3.807408E-2,4.745019E-2,1.5073969E-2,2.1800514E-2,-1.0368479E-3,1.165386E-2,-4.70209E-3,-2.1832898E-2,-9.762079E-3,-2.5371325E-4,3.2249883E-2,-9.905069E-3,-3.0557338E-2,-8.771838E-3,-1.8139942E-2,-1.2723994E-2,-2.3712978E-2,2.4499437E-2,-2.3560595E-2,-1.9486129E-4,6.9532305E-2,-2.8609032E-2,-1.7348027E-3,3.403149E-2,-2.2857908E-2,-1.51538765E-2,-3.957181E-2,-2.8674046E-2,-3.9628666E-2,-2.200061E-2,-3.1273324E-2,3.563173E-2,-2.3147231E-2],"split_indices":[105,40,3,52,9,87,104,87,88,9,107,63,104,62,45,88,100,27,64,40,88,27,81,104,1,40,40,83,50,83,73,107,69,46,2,18,80,90,71,62,79,50,69,40,45,106,0,52,1,69,83,42,13,1,90,40,11,54,51,44,56,13,28,0,0,0,0,0,0,0,0,0,0,0,0,0,0,0,0,0,0,0,0,0,0,0,0,0,0,0,0,0,0,0,0,0,0,0,0,0,0,0,0,0,0,0,0,0,0,0,0,0,0,0,0,0,0,0,0,0,0,0,0,0,0],"split_type":[0,0,0,0,0,0,0,0,0,0,0,0,0,0,0,0,0,0,0,0,0,0,0,0,0,0,0,0,0,0,0,0,0,0,0,0,0,0,0,0,0,0,0,0,0,0,0,0,0,0,0,0,0,0,0,0,0,0,0,0,0,0,0,0,0,0,0,0,0,0,0,0,0,0,0,0,0,0,0,0,0,0,0,0,0,0,0,0,0,0,0,0,0,0,0,0,0,0,0,0,0,0,0,0,0,0,0,0,0,0,0,0,0,0,0,0,0,0,0,0,0,0,0,0,0],"sum_hessian":[3.4169566E4,2.0725861E4,1.3443704E4,6.318343E3,1.4407518E4,1.122247E4,2.2212349E3,4.0968906E3,2.2214524E3,1.2730003E4,1.6775153E3,5.9317676E3,5.290702E3,5.792189E2,1.6420159E3,2.7108667E3,1.3860238E3,1.791713E3,4.2973935E2,1.414537E3,1.1315466E4,9.581945E2,7.1932074E2,1.2039954E3,4.7277725E3,1.5238094E3,3.7668926E3,5.6074627E1,5.231442E2,9.569986E2,6.850173E2,1.7104912E3,1.0003755E3,5.2255255E2,8.634713E2,1.7542518E3,3.746114E1,3.7613245E2,5.3606895E1,3.5739066E2,1.0571462E3,8.744801E3,2.5706646E3,9.0421014E2,5.3984375E1,7.121775E2,7.1432176E0,4.3973325E2,7.642621E2,3.1277512E3,1.6000212E3,3.2717514E2,1.1966343E3,1.2945337E3,2.472359E3,3.8749756E1,1.732487E1,5.045716E2,1.8572657E1,2.782723E2,6.7872626E2,6.5953015E2,2.548717E1,1.1439476E3,5.665436E2,2.6963895E2,7.307366E2,4.457212E2,7.683134E1,7.937942E2,6.967711E1,1.3992794E3,3.5497235E2,2.03746E1,1.7086542E1,9.964518E1,2.7648727E2,2.7351341E1,2.6255554E1,2.5896487E2,9.84258E1,1.472585E1,1.0424204E3,8.481578E3,2.6322275E2,4.2869186E2,2.141973E3,1.5793953E2,7.462706E2,4.1493492E1,1.2490885E1,5.748647E2,1.3731285E2,1.1495496E2,3.247783E2,2.7613953E2,4.881226E2,3.9474576E2,2.7330054E3,4.1436102E2,1.1856602E3,2.6130695E2,6.586819E1,1.1024965E3,9.4137825E1,6.1614417E2,6.783896E2,2.56502E2,2.215857E3,5.711396E0,3.303836E1,1.2050453E1,5.274416E0,4.827815E2,2.1790115E1,8.520148E0,1.0052508E1,2.0522137E1,2.5775018E2,5.5451385E2,1.242124E2,1.5077484E2,5.0875528E2,6.0066957E0,1.9480473E1],"tree_param":{"num_deleted":"0","num_feature":"108","num_nodes":"125","size_leaf_vector":"1"}},{"base_weights":[1.0669819E-3,7.5039506E-2,-4.810055E-1,3.1936085E-1,-2.4128975E-2,-3.107342E-1,-5.6580746E-1,4.826986E-1,6.08679E-2,7.2178304E-2,-2.237928E-1,1.3919559E-1,-3.4325334E-1,-4.771268E-1,-6.3340354E-1,3.3520955E-1,7.90469E-1,2.691229E-1,-1.9824083E-1,3.598554E-4,3.2993844E-1,-7.518561E-2,-3.6738533E-1,5.269297E-1,-1.8657447E-1,-9.4739206E-2,-3.9949426E-1,-3.3627614E-1,-5.3305125E-1,-4.6601406E-1,-6.511858E-1,5.441558E-1,1.441897E-1,1.3126736E0,4.809304E-1,7.612215E-1,2.0153615E-1,6.880351E-2,-2.886518E-1,-3.2574433E-1,3.6774095E-2,1.0623393E0,2.3970705E-1,7.2665303E-3,-1.9634177E-1,-2.2261898E-1,-4.478713E-1,1.1112565E0,-1.5841722E-1,4.1504943E-1,-3.7812924E-1,-3.05975E-1,6.017466E-2,1.22863606E-1,-4.214565E-1,-5.2349836E-1,-2.0097655E-1,-2.161393E-1,-5.5796957E-1,-3.374952E-1,-6.967327E-1,-5.9769315E-1,-7.072848E-1,3.616632E-2,1.2314426E-2,5.5918396E-3,5.585598E-2,1.1299523E-1,5.297015E-2,3.6236055E-2,6.4367466E-3,4.1349497E-2,-2.437693E-2,1.53898215E-2,1.9169953E-3,8.137566E-2,-1.1739352E-3,2.722534E-3,-1.6667685E-2,-2.3405857E-2,-8.859125E-3,3.7046701E-3,-1.6139247E-2,7.7982284E-2,1.9896956E-2,-1.5241565E-2,1.5579643E-2,6.0787285E-3,-6.136805E-3,-5.549125E-3,-1.6322171E-2,-8.207075E-3,-2.6782567E-2,-1.1894724E-2,-2.5165537E-2,1.01014696E-1,1.6715756E-2,-2.2738567E-2,2.7795045E-2,-4.900621E-3,5.3757574E-2,-3.1871006E-2,3.4523525E-3,-8.035453E-3,-3.3845197E-2,-4.4969358E-2,6.322605E-3,-2.054467E-2,1.8340278E-2,-1.6514255E-2,-2.5281265E-2,-2.7969291E-2,8.089171E-3,1.3709979E-2,-1.3255271E-2,-1.6880818E-2,1.9173313E-2,-1.3255526E-2,-2.9238317E-2,-4.708474E-3,-2.6830176E-2,-9.527824E-3,-3.9103553E-2,-2.605089E-2,-3.5226088E-2,-3.5649132E-2,-1.1785938E-2],"categories":[],"categories_nodes":[],"categories_segments":[],"categories_sizes":[],"default_left":[0,0,0,0,0,0,0,0,0,0,0,0,0,0,0,0,0,0,0,0,0,0,0,0,0,0,0,0,0,0,0,0,0,0,0,0,0,0,0,0,0,0,0,0,0,0,0,0,0,0,0,0,0,0,0,0,0,0,0,0,0,0,0,0,0,0,0,0,0,0,0,0,0,0,0,0,0,0,0,0,0,0,0,0,0,0,0,0,0,0,0,0,0,0,0,0,0,0,0,0,0,0,0,0,0,0,0,0,0,0,0,0,0,0,0,0,0,0,0,0,0,0,0,0,0,0,0],"id":1,"left_children":[1,3,5,7,9,11,13,15,17,19,21,23,25,27,29,31,33,35,37,39,41,43,45,47,49,51,53,55,57,59,61,63,65,67,69,71,73,75,77,79,81,83,85,87,89,91,93,95,97,99,101,103,105,107,109,111,113,115,117,119,121,123,125,-1,-1,-1,-1,-1,-1,-1,-1,-1,-1,-1,-1,-1,-1,-1,-1,-1,-1,-1,-1,-1,-1,-1,-1,-1,-1,-1,-1,-1,-1,-1,-1,-1,-1,-1,-1,-1,-1,-1,-1,-1,-1,-1,-1,-1,-1,-1,-1,-1,-1,-1,-1,-1,-1,-1,-1,-1,-1,-1,-1,-1,-1,-1,-1],"loss_changes":[1.2181912E3,7.175873E2,6.5444824E1,3.6099255E2,4.0511426E2,2.21866E1,1.7875732E1,2.3757434E2,1.787738E2,2.631034E2,1.4625699E2,1.3070799E1,1.9688965E1,1.0184662E1,4.8095093E0,1.4136746E2,2.7363013E2,6.0932053E1,3.5665882E1,1.3201938E2,2.044172E2,3.3667187E1,4.0520508E1,1.9059181E1,6.673867E0,8.58471E0,1.3251999E1,9.435547E0,7.3031006E0,4.7603836E0,4.229431E0,9.0130646E1,5.8193085E1,1.4895435E2,9.1508606E1,1.8589005E1,2.8015358E1,5.3868565E1,1.6937912E1,2.3537369E1,1.3421997E2,1.1152557E2,1.0808153E2,2.9829502E1,1.5120037E1,2.275103E1,2.5950958E1,1.7388838E1,5.0319085E0,4.8919992E0,5.0779867E0,5.8679705E0,9.771556E0,6.2964215E0,8.308182E0,3.9609566E0,6.784629E0,5.2398543E0,6.679657E0,5.285589E0,2.4139194E0,6.1860046E0,1.8504639E0,0E0,0E0,0E0,0E0,0E0,0E0,0E0,0E0,0E0,0E0,0E0,0E0,0E0,0E0,0E0,0E0,0E0,0E0,0E0,0E0,0E0,0E0,0E0,0E0,0E0,0E0,0E0,0E0,0E0,0E0,0E0,0E0,0E0,0E0,0E0,0E0,0E0,0E0,0E0,0E0,0E0,0E0,0E0,0E0,0E0,0E0,0E0,0E0,0E0,0E0,0E0,0E0,0E0,0E0,0E0,0E0,0E0,0E0,0E0,0E0,0E0,0E0,0E0,0E0],"parents":[2147483647,0,0,1,1,2,2,3,3,4,4,5,5,6,6,7,7,8,8,9,9,10,10,11,11,12,12,13,13,14,14,15,15,16,16,17,17,18,18,19,19,20,20,21,21,22,22,23,23,24,24,25,25,26,26,27,27,28,28,29,29,30,30,31,31,32,32,33,33,34,34,35,35,36,36,37,37,38,38,39,39,40,40,41,41,42,42,43,43,44,44,45,45,46,46,47,47,48,48,49,49,50,50,51,51,52,52,53,53,54,54,55,55,56,56,57,57,58,58,59,59,60,60,61,61,62,62],"right_children":[2,4,6,8,10,12,14,16,18,20,22,24,26,28,30,32,34,36,38,40,42,44,46,48,50,52,54,56,58,60,62,64,66,68,70,72,74,76,78,80,82,84,86,88,90,92,94,96,98,100,102,104,106,108,110,112,114,116,118,120,122,124,126,-1,-1,-1,-1,-1,-1,-1,-1,-1,-1,-1,-1,-1,-1,-1,-1,-1,-1,-1,-1,-1,-1,-1,-1,-1,-1,-1,-1,-1,-1,-1,-1,-1,-1,-1,-1,-1,-1,-1,-1,-1,-1,-1,-1,-1,-1,-1,-1,-1,-1,-1,-1,-1,-1,-1,-1,-1,-1,-1,-1,-1,-1,-1,-1],"split_conditions":[2.4E1,7E0,1E0,1E0,1E0,5.3E0,1E0,1E0,1E0,1E0,1E0,1.01E2,1.3E2,9E0,3.677778E1,1.08E1,1E0,4.8E1,1E0,2.3E1,4E-1,1E0,1E0,1E0,2.52E1,2.18E1,7.5E1,3.01E1,8.025E0,9E-1,1.17E2,1E0,3.9E0,4E-1,1E0,9.746667E1,1E0,7.1E1,1E0,1.93E2,1E0,1E0,2.3E1,1E0,1E0,3.7166668E1,1E0,2.6E1,3E1,2.3E1,4.2E0,4.9E0,9E1,3.12E1,1E0,8.533334E0,9.5666664E1,1.3204347E2,1.35E2,1.002E1,2.81E1,1E0,1.15E1,3.616632E-2,1.2314426E-2,5.5918396E-3,5.585598E-2,1.1299523E-1,5.297015E-2,3.6236055E-2,6.4367466E-3,4.1349497E-2,-2.437693E-2,1.53898215E-2,1.9169953E-3,8.137566E-2,-1.1739352E-3,2.722534E-3,-1.6667685E-2,-2.3405857E-2,-8.859125E-3,3.7046701E-3,-1.6139247E-2,7.7982284E-2,1.9896956E-2,-1.5241565E-2,1.5579643E-2,6.0787285E-3,-6.136805E-3,-5.549125E-3,-1.6322171E-2,-8.207075E-3,-2.6782567E-2,-1.1894724E-2,-2.5165537E-2,1.01014696E-1,1.6715756E-2,-2.2738567E-2,2.7795045E-2,-4.900621E-3,5.3757574E-2,-3.1871006E-2,3.4523525E-3,-8.035453E-3,-3.3845197E-2,-4.4969358E-2,6.322605E-3,-2.054467E-2,1.8340278E-2,-1.6514255E-2,-2.5281265E-2,-2.7969291E-2,8.089171E-3,1.3709979E-2,-1.3255271E-2,-1.6880818E-2,1.9173313E-2,-1.3255526E-2,-2.9238317E-2,-4.708474E-3,-2.6830176E-2,-9.527824E-3,-3.9103553E-2,-2.605089E-2,-3.5226088E-2,-3.5649132E-2,-1.1785938E-2],"split_indices":[2,40,96,96,87,40,87,88,87,88,96,74,7,40,9,76,89,1,89,2,69,99,89,87,29,45,74,84,53,69,74,107,27,69,87,12,107,81,90,81,101,96,4,89,107,9,104,4,47,22,82,36,72,38,92,63,49,11,39,53,84,107,23,0,0,0,0,0,0,0,0,0,0,0,0,0,0,0,0,0,0,0,0,0,0,0,0,0,0,0,0,0,0,0,0,0,0,0,0,0,0,0,0,0,0,0,0,0,0,0,0,0,0,0,0,0,0,0,0,0,0,0,0,0,0,0,0],"split_type":[0,0,0,0,0,0,0,0,0,0,0,0,0,0,0,0,0,0,0,0,0,0,0,0,0,0,0,0,0,0,0,0,0,0,0,0,0,0,0,0,0,0,0,0,0,0,0,0,0,0,0,0,0,0,0,0,0,0,0,0,0,0,0,0,0,0,0,0,0,0,0,0,0,0,0,0,0,0,0,0,0,0,0,0,0,0,0,0,0,0,0,0,0,0,0,0,0,0,0,0,0,0,0,0,0,0,0,0,0,0,0,0,0,0,0,0,0,0,0,0,0,0,0,0,0,0,0],"sum_hessian":[3.4159156E4,2.9615582E4,4.543575E3,8.549634E3,2.106595E4,1.5121134E3,3.0314617E3,5.238585E3,3.311049E3,1.4211642E4,6.8543066E3,1.0170181E2,1.4104116E3,1.3147174E3,1.7167444E3,3.5428684E3,1.6957163E3,1.8356403E3,1.4754088E3,1.1115567E4,3.096075E3,3.369086E3,3.4852207E3,4.6152843E1,5.5548965E1,2.6077936E2,1.1496322E3,3.7564227E2,9.3907513E2,1.6747356E2,1.5492708E3,1.6911561E3,1.8517123E3,6.298658E2,1.0658506E3,2.204298E2,1.6152104E3,3.732347E2,1.1021741E3,1.1157382E3,9.999829E3,3.3841492E2,2.75766E3,2.0053181E3,1.363768E3,1.2466661E3,2.2385547E3,2.4577023E1,2.1575823E1,1.3133452E1,4.2415512E1,1.099203E2,1.5085907E2,4.6199947E1,1.1034323E3,1.5638025E2,2.1926201E2,6.916075E1,8.699144E2,1.0914085E2,5.8332706E1,7.990235E2,7.5024725E2,1.0550829E3,6.360732E2,1.793198E3,5.8514385E1,1.3121169E2,4.9865408E2,6.292348E2,4.3661575E2,2.097221E2,1.0707681E1,9.77715E2,6.374955E2,1.9932077E1,3.5330264E2,1.27021675E2,9.7515247E2,5.686381E2,5.4710004E2,9.060243E3,9.395857E2,1.9277477E2,1.4564015E2,3.2121326E2,2.4364468E3,1.0671047E3,9.3821344E2,8.246022E2,5.391658E2,1.0517191E3,1.9494693E2,4.6868845E2,1.7698661E3,1.0588243E1,1.398878E1,1.5506063E1,6.069759E0,7.868899E0,5.2645535E0,2.6578684E1,1.583683E1,8.00168E1,2.9903507E1,8.934581E0,1.4192448E2,1.4276931E1,3.1923018E1,5.32046E2,5.713862E2,1.4877289E2,7.6073575E0,2.5682974E1,1.9357904E2,5.7872925E1,1.1287825E1,7.383813E1,7.960763E2,4.977946E1,5.9361385E1,8.882135E0,4.945057E1,4.685808E2,3.3044272E2,7.4078455E2,9.462714E0],"tree_param":{"num_deleted":"0","num_feature":"108","num_nodes":"127","size_leaf_vector":"1"}},{"base_weights":[-1.5274111E-4,7.09229E-2,-4.7716925E-1,1.8567252E-1,-1.0604158E-1,-3.0487457E-1,-5.6215525E-1,8.006811E-2,5.107355E-1,3.9797362E-2,-3.1203136E-1,-4.2353985E-3,-3.498611E-1,-4.5974985E-1,-6.3611656E-1,3.524546E-1,7.585315E-3,9.698901E-1,3.8755274E-1,1.1494438E-1,-3.072155E-1,-1.21211134E-1,-3.8968506E-1,7.353114E-2,-6.213186E-2,-3.0388382E-1,-5.450908E-1,-3.796466E-1,-5.6994E-1,-5.9745383E-1,-7.379432E-1,5.679494E-1,1.7515206E-1,4.653017E-2,-2.331281E-1,1.5837268E0,5.690155E-1,-2.3070619E-1,4.3826216E-1,-2.989027E-1,1.7795593E-1,-2.1093479E-1,-4.3751982E-1,-1.3132483E-3,-3.0516195E-1,-2.2335294E-1,-4.5187578E-1,-2.7309626E-1,2.3316671E-1,7.920833E-3,-3.421734E-1,-6.005541E-1,-2.0046635E-1,-2.2539134E-1,-4.6065918E-1,-5.9390956E-1,8.404874E-2,1.13967955E-2,-6.012896E-1,-7.519064E-1,-3.663293E-1,3.3825748E-2,4.942076E-3,1.5239078E-2,-6.475448E-3,4.2070504E-3,-1.4957048E-2,-1.3517678E-2,2.7138041E-3,1.1903828E-1,6.394797E-2,6.353257E-2,1.7617961E-2,3.7173703E-2,-1.4616849E-2,2.9517869E-2,1.1981483E-2,-6.4609605E-3,-2.0913554E-2,1.4326257E-2,3.1043295E-4,8.1271315E-3,-1.3039114E-2,-1.6712807E-2,-2.7891282E-2,3.3359167E-3,-1.0228195E-2,-2.3183426E-2,-7.679989E-3,-1.2147284E-2,3.106687E-2,-1.3388767E-2,-2.4856994E-2,-4.7725267E-3,-3.557166E-2,4.4384208E-2,1.7777368E-3,1.4461951E-2,-9.98827E-3,-1.3688956E-2,-2.3393579E-2,-3.1890325E-2,-1.1974081E-2,2.8578326E-2,-2.6194585E-2,-2.1844426E-2,-2.7908906E-3,-2.9552732E-2,-1.631575E-2,-4.3601733E-2,-2.846833E-2,-1.6599571E-2,2.0237396E-2,-2.3380158E-2,-3.1235054E-2,-2.3087977E-2,-3.8459662E-2,8.133473E-3,-2.8444787E-2],"categories":[],"categories_nodes":[],"categories_segments":[],"categories_sizes":[],"default_left":[0,0,0,0,0,0,0,0,0,0,0,0,0,0,0,0,0,0,0,0,0,0,0,0,0,0,0,0,0,0,0,0,0,0,0,0,0,0,0,0,0,0,0,0,0,0,0,0,0,0,0,0,0,0,0,0,0,0,0,0,0,0,0,0,0,0,0,0,0,0,0,0,0,0,0,0,0,0,0,0,0,0,0,0,0,0,0,0,0,0,0,0,0,0,0,0,0,0,0,0,0,0,0,0,0,0,0,0,0,0,0,0,0,0,0,0,0,0,0],"id":2,"left_children":[1,3,5,7,9,11,13,15,17,19,21,23,25,27,29,31,33,35,37,39,41,43,45,-1,47,49,51,53,55,57,59,61,63,65,67,69,71,73,75,77,79,81,83,85,87,89,91,93,95,97,99,101,103,105,107,109,111,-1,113,115,117,-1,-1,-1,-1,-1,-1,-1,-1,-1,-1,-1,-1,-1,-1,-1,-1,-1,-1,-1,-1,-1,-1,-1,-1,-1,-1,-1,-1,-1,-1,-1,-1,-1,-1,-1,-1,-1,-1,-1,-1,-1,-1,-1,-1,-1,-1,-1,-1,-1,-1,-1,-1,-1,-1,-1,-1,-1,-1],"loss_changes":[1.1584717E3,6.038966E2,6.4709656E1,6.1925476E2,3.514496E2,1.9823563E1,2.2173096E1,2.6886118E2,2.4981946E2,1.7866617E2,7.180951E1,1.6469458E1,1.1279221E1,1.0794678E1,6.3291016E0,1.0925604E2,1.0085124E2,2.2918896E2,1.09502075E2,1.4690656E2,1.520903E1,3.0966896E1,3.5548096E1,0E0,1.1621097E1,1.2350555E1,4.5009766E0,8.96067E0,8.250397E0,4.0997925E0,2.1581116E0,6.570654E1,6.210887E1,1.20410065E2,1.6042984E1,8.6551575E1,8.5775986E1,1.6137833E1,9.729889E1,1.502594E1,9.1141846E1,1.3136009E1,6.2403107E0,1.1781297E1,1.3238804E1,1.5705212E1,2.0761383E1,8.394285E0,1.003724E1,6.723783E0,7.791168E0,2.6417923E0,9.043337E0,9.003684E0,8.12159E0,2.9489899E0,2.7189922E0,0E0,3.6080017E0,1.9072266E0,2.121469E0,0E0,0E0,0E0,0E0,0E0,0E0,0E0,0E0,0E0,0E0,0E0,0E0,0E0,0E0,0E0,0E0,0E0,0E0,0E0,0E0,0E0,0E0,0E0,0E0,0E0,0E0,0E0,0E0,0E0,0E0,0E0,0E0,0E0,0E0,0E0,0E0,0E0,0E0,0E0,0E0,0E0,0E0,0E0,0E0,0E0,0E0,0E0,0E0,0E0,0E0,0E0,0E0,0E0,0E0,0E0,0E0,0E0,0E0],"parents":[2147483647,0,0,1,1,2,2,3,3,4,4,5,5,6,6,7,7,8,8,9,9,10,10,11,11,12,12,13,13,14,14,15,15,16,16,17,17,18,18,19,19,20,20,21,21,22,22,24,24,25,25,26,26,27,27,28,28,29,29,30,30,31,31,32,32,33,33,34,34,35,35,36,36,37,37,38,38,39,39,40,40,41,41,42,42,43,43,44,44,45,45,46,46,47,47,48,48,49,49,50,50,51,51,52,52,53,53,54,54,55,55,56,56,58,58,59,59,60,60],"right_children":[2,4,6,8,10,12,14,16,18,20,22,24,26,28,30,32,34,36,38,40,42,44,46,-1,48,50,52,54,56,58,60,62,64,66,68,70,72,74,76,78,80,82,84,86,88,90,92,94,96,98,100,102,104,106,108,110,112,-1,114,116,118,-1,-1,-1,-1,-1,-1,-1,-1,-1,-1,-1,-1,-1,-1,-1,-1,-1,-1,-1,-1,-1,-1,-1,-1,-1,-1,-1,-1,-1,-1,-1,-1,-1,-1,-1,-1,-1,-1,-1,-1,-1,-1,-1,-1,-1,-1,-1,-1,-1,-1,-1,-1,-1,-1,-1,-1,-1,-1],"split_conditions":[3.7166668E1,1E0,1E0,1E0,1E0,6.5E0,1E0,6.4E0,5E-1,1E0,1E0,2.7E1,1E0,2.5E1,1E0,1.07E1,1E0,1E0,3.711111E1,3.711111E1,7.2E1,9.5E0,1E0,7.353114E-2,1.38E2,2.75E1,1E0,8.1E0,4.3E2,2E-1,4.6E1,1E0,1E0,1E0,4.7E0,5.4E1,1E0,3.9E0,1E0,9.3E0,8.9E0,5.1E0,1.11E1,1E0,8.5E0,4.5E0,1E0,1.05E2,1.58E2,1.03E1,9.826667E1,2.6E0,1.9E1,8.2E0,2.12E2,9.325E1,2.945E1,1.13967955E-2,1.25E2,2.43E1,8.1E0,3.3825748E-2,4.942076E-3,1.5239078E-2,-6.475448E-3,4.2070504E-3,-1.4957048E-2,-1.3517678E-2,2.7138041E-3,1.1903828E-1,6.394797E-2,6.353257E-2,1.7617961E-2,3.7173703E-2,-1.4616849E-2,2.9517869E-2,1.1981483E-2,-6.4609605E-3,-2.0913554E-2,1.4326257E-2,3.1043295E-4,8.1271315E-3,-1.3039114E-2,-1.6712807E-2,-2.7891282E-2,3.3359167E-3,-1.0228195E-2,-2.3183426E-2,-7.679989E-3,-1.2147284E-2,3.106687E-2,-1.3388767E-2,-2.4856994E-2,-4.7725267E-3,-3.557166E-2,4.4384208E-2,1.7777368E-3,1.4461951E-2,-9.98827E-3,-1.3688956E-2,-2.3393579E-2,-3.1890325E-2,-1.1974081E-2,2.8578326E-2,-2.6194585E-2,-2.1844426E-2,-2.7908906E-3,-2.9552732E-2,-1.631575E-2,-4.3601733E-2,-2.846833E-2,-1.6599571E-2,2.0237396E-2,-2.3380158E-2,-3.1235054E-2,-2.3087977E-2,-3.8459662E-2,8.133473E-3,-2.8444787E-2],"split_indices":[9,96,96,88,87,40,87,40,46,106,100,1,106,3,106,30,106,89,9,9,1,40,89,0,35,29,88,86,35,23,2,106,107,101,82,1,104,40,100,40,40,40,30,98,71,73,104,58,35,40,12,33,4,71,81,51,61,0,7,29,25,0,0,0,0,0,0,0,0,0,0,0,0,0,0,0,0,0,0,0,0,0,0,0,0,0,0,0,0,0,0,0,0,0,0,0,0,0,0,0,0,0,0,0,0,0,0,0,0,0,0,0,0,0,0,0,0,0,0],"split_type":[0,0,0,0,0,0,0,0,0,0,0,0,0,0,0,0,0,0,0,0,0,0,0,0,0,0,0,0,0,0,0,0,0,0,0,0,0,0,0,0,0,0,0,0,0,0,0,0,0,0,0,0,0,0,0,0,0,0,0,0,0,0,0,0,0,0,0,0,0,0,0,0,0,0,0,0,0,0,0,0,0,0,0,0,0,0,0,0,0,0,0,0,0,0,0,0,0,0,0,0,0,0,0,0,0,0,0,0,0,0,0,0,0,0,0,0,0,0,0],"sum_hessian":[3.4166918E4,2.9736951E4,4.4299663E3,1.8039498E4,1.1697454E4,1.4648397E3,2.9651267E3,1.3616954E4,4.4225435E3,6.8491343E3,4.84832E3,1.9080542E2,1.2740343E3,1.2464846E3,1.718642E3,2.8611274E3,1.0755827E4,9.340539E2,3.4884895E3,5.6304966E3,1.2186377E3,1.4030742E3,3.4452456E3,6.285567E0,1.8451985E2,1.0332556E3,2.4077863E2,7.243559E2,5.221287E2,1.2506486E3,4.6799344E2,1.2904733E3,1.570654E3,9.258679E3,1.4971483E3,3.678442E2,5.662097E2,2.6416696E2,3.2243225E3,7.4351263E2,4.886984E3,7.02319E2,5.163187E2,8.5003455E2,5.530396E2,9.3884625E2,2.5063994E3,1.076726E2,7.684725E1,1.1309326E2,9.201624E2,2.0676031E2,3.4018314E1,2.5072842E2,4.7362747E2,5.037572E2,1.8371511E1,5.5148997E0,1.2451337E3,4.5005936E2,1.7934082E1,1.047588E3,2.4288525E2,1.101836E3,4.6881793E2,8.350821E3,9.078568E2,1.3255221E3,1.7162625E2,9.986414E1,2.6798004E2,1.324403E2,4.337694E2,1.505967E1,2.491073E2,1.8249587E3,1.3993638E3,3.079049E2,4.3560776E2,2.9937998E3,1.8931844E3,8.243346E1,6.1988556E2,2.7987137E2,2.3644733E2,6.37368E2,2.1266658E2,2.693202E2,2.8371942E2,9.1825946E2,2.0586794E1,4.9599167E2,2.0104077E3,7.748703E1,3.0185572E1,1.7011341E1,5.983591E1,4.7865334E1,6.522793E1,5.979738E2,3.2218857E2,1.8672882E2,2.0031494E1,9.81712E0,2.4201195E1,1.1087073E2,1.398577E2,2.386208E2,2.3500667E2,3.8048977E1,4.6570822E2,7.981706E0,1.0389806E1,1.8868143E2,1.0564523E3,2.6864824E1,4.2319452E2,5.0203876E0,1.2913695E1],"tree_param":{"num_deleted":"0","num_feature":"108","num_nodes":"119","size_leaf_vector":"1"}},{"base_weights":[-1.8439086E-3,1.4253582E-1,-2.3243196E-1,3.939599E-1,2.5338804E-2,-9.706386E-2,-3.7569174E-1,2.7078134E-1,6.437255E-1,8.279123E-2,-4.2716736E-1,-4.395523E-2,-4.7828096E-1,-3.144178E-1,-5.77044E-1,4.242925E-1,6.88029E-2,9.0577215E-1,3.2591838E-1,-3.0199122E-1,1.2689044E-1,-3.4524408E-1,-5.482307E-1,3.1300646E-1,-9.4706565E-2,-4.949892E-1,7.612378E-2,-1.730175E-1,-3.865175E-1,-3.9750603E-1,-5.9706604E-1,5.6582665E-1,1.5489672E-1,-2.0505051E-1,1.6227145E-1,1.1673838E0,6.6735256E-1,5.027514E-1,5.831407E-2,-6.0802117E-2,-3.8895577E-1,1.6830222E-1,-2.870063E-1,6.233683E-2,-3.773944E-1,-4.4445616E-1,-6.2187594E-1,6.674122E-1,2.253097E-1,-3.7636645E-2,-2.623774E-1,-3.938709E-1,-5.893151E-1,-4.5128763E-1,7.3751384E-1,-2.3757102E-2,-2.9456475E-1,-1.5353476E-1,-4.2200923E-1,-4.4827747E-1,1.6558966E-2,-4.7895202E-1,-6.274339E-1,2.6152303E-2,7.0312366E-2,-1.2730761E-2,1.0787029E-2,-1.8833807E-2,1.8582033E-3,1.3497691E-2,-5.4565025E-3,4.788985E-2,1.0277164E-1,4.1905846E-2,1.6430477E-2,5.1162302E-2,1.9826634E-2,1.8489797E-2,-2.6515736E-3,2.4527652E-2,-6.8268264E-3,-2.1717798E-2,-3.8639673E-3,1.1933803E-2,-1.8950526E-3,-6.324004E-3,-3.0863667E-2,2.1093275E-2,-1.1432066E-2,-1.198181E-2,-2.2623712E-2,-2.593585E-2,7.1290196E-3,-3.903809E-2,-2.7563795E-2,1.2064288E-2,5.5436667E-2,1.9471355E-2,1.255048E-4,8.833742E-3,-5.0592963E-3,-2.998212E-2,-1.1542182E-2,-1.1704083E-2,-2.6129523E-2,-3.278506E-2,-1.9281464E-2,-3.942264E-2,7.1336827E-3,5.7726838E-2,8.209152E-3,2.5568817E-2,-4.1633616E-3,-1.5486143E-2,3.9882693E-2,8.889708E-4,-1.525687E-2,-1.959583E-2,-2.9727537E-2,-2.4592608E-2,2.6635933E-3,-1.681985E-2,-3.2867562E-2,-8.766461E-3,-3.1708386E-2],"categories":[],"categories_nodes":[],"categories_segments":[],"categories_sizes":[],"default_left":[0,0,0,0,0,0,0,0,0,0,0,0,0,0,0,0,0,0,0,0,0,0,0,0,0,0,0,0,0,0,0,0,0,0,0,0,0,0,0,0,0,0,0,0,0,0,0,0,0,0,0,0,0,0,0,0,0,0,0,0,0,0,0,0,0,0,0,0,0,0,0,0,0,0,0,0,0,0,0,0,0,0,0,0,0,0,0,0,0,0,0,0,0,0,0,0,0,0,0,0,0,0,0,0,0,0,0,0,0,0,0,0,0,0,0,0,0,0,0,0,0,0,0,0,0],"id":3,"left_children":[1,3,5,7,9,11,13,15,17,19,21,23,25,27,29,31,33,35,37,39,41,43,45,47,49,51,53,55,57,59,61,63,65,67,69,71,73,75,77,79,81,83,85,87,89,91,93,95,97,99,101,103,105,107,109,111,113,115,117,119,-1,121,123,-1,-1,-1,-1,-1,-1,-1,-1,-1,-1,-1,-1,-1,-1,-1,-1,-1,-1,-1,-1,-1,-1,-1,-1,-1,-1,-1,-1,-1,-1,-1,-1,-1,-1,-1,-1,-1,-1,-1,-1,-1,-1,-1,-1,-1,-1,-1,-1,-1,-1,-1,-1,-1,-1,-1,-1,-1,-1,-1,-1,-1,-1],"loss_changes":[1.1385817E3,6.196987E2,2.5533582E2,2.0553955E2,3.7299E2,1.3708513E2,7.874707E1,1.388692E2,1.8356451E2,2.1605501E2,1.5841705E1,1.0773215E2,7.70726E0,4.995941E1,5.12381E0,9.695203E1,4.958021E1,7.465839E1,4.7257553E1,2.7438377E1,1.9582542E2,1.2691284E1,4.6961823E0,2.285717E1,4.9804268E1,7.435379E0,9.084657E0,3.0089355E1,2.6801666E1,5.7950153E0,4.5050354E0,5.923889E1,2.1930325E1,2.0507845E1,4.222137E1,1.05115906E2,3.6462524E1,3.285173E1,1.3848153E1,1.46049385E1,1.3580612E1,1.5069238E2,5.5019173E1,7.580464E0,9.160645E0,1.2000488E1,3.8104706E0,2.725129E1,2.1752874E1,5.2929375E1,1.3918991E1,7.919506E0,5.343796E0,3.0321095E0,2.5625267E0,2.3788845E1,1.5383377E1,1.1201593E1,1.4403717E1,3.153801E0,0E0,6.854908E0,3.1235657E0,0E0,0E0,0E0,0E0,0E0,0E0,0E0,0E0,0E0,0E0,0E0,0E0,0E0,0E0,0E0,0E0,0E0,0E0,0E0,0E0,0E0,0E0,0E0,0E0,0E0,0E0,0E0,0E0,0E0,0E0,0E0,0E0,0E0,0E0,0E0,0E0,0E0,0E0,0E0,0E0,0E0,0E0,0E0,0E0,0E0,0E0,0E0,0E0,0E0,0E0,0E0,0E0,0E0,0E0,0E0,0E0,0E0,0E0,0E0,0E0,0E0,0E0],"parents":[2147483647,0,0,1,1,2,2,3,3,4,4,5,5,6,6,7,7,8,8,9,9,10,10,11,11,12,12,13,13,14,14,15,15,16,16,17,17,18,18,19,19,20,20,21,21,22,22,23,23,24,24,25,25,26,26,27,27,28,28,29,29,30,30,31,31,32,32,33,33,34,34,35,35,36,36,37,37,38,38,39,39,40,40,41,41,42,42,43,43,44,44,45,45,46,46,47,47,48,48,49,49,50,50,51,51,52,52,53,53,54,54,55,55,56,56,57,57,58,58,59,59,61,61,62,62],"right_children":[2,4,6,8,10,12,14,16,18,20,22,24,26,28,30,32,34,36,38,40,42,44,46,48,50,52,54,56,58,60,62,64,66,68,70,72,74,76,78,80,82,84,86,88,90,92,94,96,98,100,102,104,106,108,110,112,114,116,118,120,-1,122,124,-1,-1,-1,-1,-1,-1,-1,-1,-1,-1,-1,-1,-1,-1,-1,-1,-1,-1,-1,-1,-1,-1,-1,-1,-1,-1,-1,-1,-1,-1,-1,-1,-1,-1,-1,-1,-1,-1,-1,-1,-1,-1,-1,-1,-1,-1,-1,-1,-1,-1,-1,-1,-1,-1,-1,-1,-1,-1,-1,-1,-1,-1],"split_conditions":[1E0,7.4E0,1E0,1E0,2.4E1,2.4E1,3.7166668E1,1.15E1,1E0,2.3E1,1E0,5E0,3.92E2,1E0,8.3E0,1E0,2.85E1,1E0,1E0,9.3E0,1E0,8.233334E0,1E0,1E0,7.7E1,1E0,9.5E-1,6.2E1,1E0,9E0,1.74E0,5.45E0,8E0,1E0,1E0,3.7E0,6.8E1,1E0,1E0,9.3E0,3.22E2,1E0,1.14E1,1.3833333E2,3.62E1,1.3558824E2,6.3E1,1E0,1.01E1,1E1,1.4E0,1.18E1,2.55E1,3.76E1,2.8E1,1.31E2,6.05E0,7.7E0,3.67E1,4.0333333E0,1.6558966E-2,6.6E1,8E0,2.6152303E-2,7.0312366E-2,-1.2730761E-2,1.0787029E-2,-1.8833807E-2,1.8582033E-3,1.3497691E-2,-5.4565025E-3,4.788985E-2,1.0277164E-1,4.1905846E-2,1.6430477E-2,5.1162302E-2,1.9826634E-2,1.8489797E-2,-2.6515736E-3,2.4527652E-2,-6.8268264E-3,-2.1717798E-2,-3.8639673E-3,1.1933803E-2,-1.8950526E-3,-6.324004E-3,-3.0863667E-2,2.1093275E-2,-1.1432066E-2,-1.198181E-2,-2.2623712E-2,-2.593585E-2,7.1290196E-3,-3.903809E-2,-2.7563795E-2,1.2064288E-2,5.5436667E-2,1.9471355E-2,1.255048E-4,8.833742E-3,-5.0592963E-3,-2.998212E-2,-1.1542182E-2,-1.1704083E-2,-2.6129523E-2,-3.278506E-2,-1.9281464E-2,-3.942264E-2,7.1336827E-3,5.7726838E-2,8.209152E-3,2.5568817E-2,-4.1633616E-3,-1.5486143E-2,3.9882693E-2,8.889708E-4,-1.525687E-2,-1.959583E-2,-2.9727537E-2,-2.4592608E-2,2.6635933E-3,-1.681985E-2,-3.2867562E-2,-8.766461E-3,-3.1708386E-2],"split_indices":[105,40,87,88,2,3,9,30,100,3,107,63,81,89,30,107,44,89,87,40,101,53,92,95,1,92,50,1,95,71,56,50,71,97,89,18,1,95,89,30,81,87,30,62,17,11,14,88,30,30,78,40,45,9,2,81,50,40,29,50,0,1,2,0,0,0,0,0,0,0,0,0,0,0,0,0,0,0,0,0,0,0,0,0,0,0,0,0,0,0,0,0,0,0,0,0,0,0,0,0,0,0,0,0,0,0,0,0,0,0,0,0,0,0,0,0,0,0,0,0,0,0,0,0,0],"split_type":[0,0,0,0,0,0,0,0,0,0,0,0,0,0,0,0,0,0,0,0,0,0,0,0,0,0,0,0,0,0,0,0,0,0,0,0,0,0,0,0,0,0,0,0,0,0,0,0,0,0,0,0,0,0,0,0,0,0,0,0,0,0,0,0,0,0,0,0,0,0,0,0,0,0,0,0,0,0,0,0,0,0,0,0,0,0,0,0,0,0,0,0,0,0,0,0,0,0,0,0,0,0,0,0,0,0,0,0,0,0,0,0,0,0,0,0,0,0,0,0,0,0,0,0,0],"sum_hessian":[3.419761E4,2.1030203E4,1.3167408E4,6.6854565E3,1.4344746E4,6.7710386E3,6.3963696E3,4.478734E3,2.206723E3,1.2729378E4,1.615368E3,5.9440664E3,8.269725E2,4.9059814E3,1.4903878E3,2.544056E3,1.934678E3,1.20845E3,9.982729E2,1.3082806E3,1.1421098E4,9.6571967E2,6.496483E2,7.3926276E2,5.2048037E3,8.02883E2,2.4089472E1,1.6579152E3,3.2480664E3,1.5162434E2,1.3387634E3,1.6671003E3,8.7695557E2,4.919934E2,1.4426846E3,5.743425E2,6.341074E2,6.005503E2,3.977226E2,3.4716E2,9.6112067E2,1.0382851E4,1.0382466E3,7.053859E1,8.951811E2,2.7258298E2,3.7706534E2,1.4533107E2,5.9393164E2,3.8840266E3,1.3207769E3,3.899879E2,4.128951E2,1.3578919E1,1.0510552E1,7.4466266E2,9.1325244E2,4.3009137E2,2.817975E3,1.4210774E2,9.5166025E0,2.772367E2,1.0615267E3,1.587893E3,7.920741E1,1.1302844E2,7.639271E2,2.876316E2,2.0436182E2,1.0328801E3,4.0980438E2,4.66357E2,1.0798553E2,4.206025E2,2.1350493E2,1.0032124E2,5.0022903E2,1.04123314E2,2.9359927E2,4.1265457E1,3.0589453E2,8.3857635E2,1.2254435E2,7.740863E3,2.6419883E3,6.9959265E2,3.3865393E2,3.13514E1,3.9187187E1,3.172589E2,5.779222E2,2.420764E2,3.0506573E1,1.12907455E2,2.6415787E2,7.4725296E1,7.060578E1,3.4157483E2,2.5235683E2,8.879051E2,2.9961216E3,1.113913E2,1.2093856E3,1.7525246E2,2.1473546E2,3.097281E2,1.03167015E2,8.453053E0,5.125866E0,5.4978514E0,5.0127006E0,7.376369E1,6.708989E2,9.014582E2,1.1794248E1,2.0233327E2,2.277581E2,2.402271E3,4.1570422E2,1.307661E2,1.1341644E1,1.557032E2,1.215335E2,1.5975564E1,1.0455511E3],"tree_param":{"num_deleted":"0","num_feature":"108","num_nodes":"125","size_leaf_vector":"1"}},{"base_weights":[4.7509672E-4,1.3862047E-1,-2.2384642E-1,3.7625387E-1,2.6460875E-2,-4.6732068E-2,-4.021872E-1,4.867842E-1,1.253325E-1,7.8847125E-2,-4.2069128E-1,1.8546288E-1,-1.14162244E-1,-3.3326066E-1,-5.9843314E-1,7.359761E-1,3.3582616E-1,1.5339853E-1,-5.2418905E-1,-2.8818268E-1,1.1968706E-1,-3.4015408E-1,-5.408041E-1,3.9034232E-1,-6.586766E-2,-8.1792854E-2,-3.5445336E-1,-2.17647E-1,-4.3477187E-1,-5.121159E-1,-6.4006114E-1,2.1636755E0,6.918092E-1,4.8749956E-1,1.18507124E-1,1.3804081E-1,1.0843364E0,6.2177056E-3,-6.078248E-1,-1.0241225E-1,-3.7518057E-1,1.5817365E-1,-2.7421683E-1,-4.2016324E-1,-1.735487E-1,-4.0044588E-1,-6.039601E-1,1.2244656E0,3.511628E-1,2.4649936E-1,-1.8703704E-1,1.2320475E-1,-1.3173108E-1,-2.6730838E-1,-4.9995977E-1,-1.1711292E-1,-3.6067533E-1,-2.76506E-1,-4.8070914E-1,-5.9870815E-1,-3.7093738E-1,6.2159114E-3,-6.4492655E-1,1.2715103E-1,1.4748937E-2,4.601793E-2,2.3628114E-2,3.3079095E-2,1.7581934E-2,1.41448295E-2,-5.687268E-3,1.0836723E-2,-3.1715014E-3,1.1643968E-1,2.2911172E-2,-5.707331E-3,-3.463425E-2,2.1975941E-3,-1.848525E-2,-2.4002712E-2,-1.2691425E-2,1.1355309E-2,-2.304253E-3,4.9220014E-2,-1.6057258E-2,-2.1928966E-2,9.850705E-3,5.042681E-2,-1.0809534E-2,2.3528606E-2,-2.1354703E-2,-1.5815401E-2,-3.2204524E-2,8.2919896E-2,1.59467E-2,1.9260904E-2,-2.2172201E-2,1.8771397E-2,-1.198317E-2,2.9013876E-3,-1.4734471E-2,1.0594464E-2,-1.2097232E-2,-2.9381644E-3,-1.3264387E-2,-1.2420432E-3,-1.8319419E-2,-2.6482467E-2,2.5256586E-3,-2.5088236E-2,-3.674386E-3,-1.603215E-2,-3.0951789E-2,-1.0631046E-2,-2.3802418E-2,-7.013686E-3,-2.5557855E-2,9.801681E-3,-3.0739024E-2,-3.2731432E-2,-1.2014811E-2,-2.4571773E-4,-3.2447416E-2],"categories":[],"categories_nodes":[],"categories_segments":[],"categories_sizes":[],"default_left":[0,0,0,0,0,0,0,0,0,0,0,0,0,0,0,0,0,0,0,0,0,0,0,0,0,0,0,0,0,0,0,0,0,0,0,0,0,0,0,0,0,0,0,0,0,0,0,0,0,0,0,0,0,0,0,0,0,0,0,0,0,0,0,0,0,0,0,0,0,0,0,0,0,0,0,0,0,0,0,0,0,0,0,0,0,0,0,0,0,0,0,0,0,0,0,0,0,0,0,0,0,0,0,0,0,0,0,0,0,0,0,0,0,0,0,0,0,0,0,0,0,0,0],"id":4,"left_children":[1,3,5,7,9,11,13,15,17,19,21,23,25,27,29,31,33,35,37,39,41,43,45,47,49,51,53,55,57,59,61,63,65,67,69,71,73,-1,75,77,79,81,83,85,87,89,91,93,95,97,99,101,103,105,107,109,111,113,115,117,119,-1,121,-1,-1,-1,-1,-1,-1,-1,-1,-1,-1,-1,-1,-1,-1,-1,-1,-1,-1,-1,-1,-1,-1,-1,-1,-1,-1,-1,-1,-1,-1,-1,-1,-1,-1,-1,-1,-1,-1,-1,-1,-1,-1,-1,-1,-1,-1,-1,-1,-1,-1,-1,-1,-1,-1,-1,-1,-1,-1,-1,-1],"loss_changes":[1.0588739E3,5.636062E2,4.1132922E2,1.8799152E2,3.365766E2,1.0233943E2,8.757178E1,1.7680664E2,3.790268E1,1.9281786E2,1.4392395E1,7.577495E1,3.9366447E1,5.6290466E1,5.7281494E0,1.10415344E2,9.661548E1,2.8296062E1,4.7493E0,2.0779198E1,1.7550795E2,1.1986801E1,5.1044464E0,2.6060013E1,2.5083454E1,4.5724777E1,7.48703E0,3.2284973E1,1.8458984E1,6.542694E0,4.2939453E0,3.6669144E1,8.590192E1,4.061319E1,4.6110954E1,3.1064354E1,2.397876E1,0E0,3.125475E0,1.614252E1,1.1037933E1,1.4847906E2,6.1186554E1,7.025223E0,1.5098927E1,4.6141186E0,4.5751495E0,1.3602425E1,2.1159286E1,1.1705552E1,1.26061325E1,2.83908E1,3.497802E1,9.07247E0,3.687107E0,2.2141861E1,9.394371E0,7.2622375E0,2.0458405E1,4.480797E0,7.7368336E0,0E0,2.895172E0,0E0,0E0,0E0,0E0,0E0,0E0,0E0,0E0,0E0,0E0,0E0,0E0,0E0,0E0,0E0,0E0,0E0,0E0,0E0,0E0,0E0,0E0,0E0,0E0,0E0,0E0,0E0,0E0,0E0,0E0,0E0,0E0,0E0,0E0,0E0,0E0,0E0,0E0,0E0,0E0,0E0,0E0,0E0,0E0,0E0,0E0,0E0,0E0,0E0,0E0,0E0,0E0,0E0,0E0,0E0,0E0,0E0,0E0,0E0,0E0],"parents":[2147483647,0,0,1,1,2,2,3,3,4,4,5,5,6,6,7,7,8,8,9,9,10,10,11,11,12,12,13,13,14,14,15,15,16,16,17,17,18,18,19,19,20,20,21,21,22,22,23,23,24,24,25,25,26,26,27,27,28,28,29,29,30,30,31,31,32,32,33,33,34,34,35,35,36,36,38,38,39,39,40,40,41,41,42,42,43,43,44,44,45,45,46,46,47,47,48,48,49,49,50,50,51,51,52,52,53,53,54,54,55,55,56,56,57,57,58,58,59,59,60,60,62,62],"right_children":[2,4,6,8,10,12,14,16,18,20,22,24,26,28,30,32,34,36,38,40,42,44,46,48,50,52,54,56,58,60,62,64,66,68,70,72,74,-1,76,78,80,82,84,86,88,90,92,94,96,98,100,102,104,106,108,110,112,114,116,118,120,-1,122,-1,-1,-1,-1,-1,-1,-1,-1,-1,-1,-1,-1,-1,-1,-1,-1,-1,-1,-1,-1,-1,-1,-1,-1,-1,-1,-1,-1,-1,-1,-1,-1,-1,-1,-1,-1,-1,-1,-1,-1,-1,-1,-1,-1,-1,-1,-1,-1,-1,-1,-1,-1,-1,-1,-1,-1,-1,-1,-1,-1],"split_conditions":[1E0,7.4E0,1E0,3.5525E1,2.4E1,6E0,3.7166668E1,1E0,3.6808083E1,2.3E1,1E0,1E0,3.6808083E1,1E0,1E0,6.475E1,1E0,4.9E0,1.4E1,9.9E0,1E0,2.55E1,1E0,2.185E1,1E0,9.5E0,1E0,7.2E1,1E0,2.06E2,6E-1,1.86E2,3.2E1,4.7E0,1E0,1E0,1.19E1,6.2177056E-3,4.5E0,3.3833332E1,2.03E2,1E0,4E0,3.2E0,3.9E1,3.4E1,1.35E2,4E0,1.8166667E0,7.2E1,5.5E1,1.6666666E0,1E0,1.04E2,5.8E0,9.4E1,5.08E1,3.5E1,1E0,2.8E0,7.9833336E1,6.2159114E-3,2.95E0,1.2715103E-1,1.4748937E-2,4.601793E-2,2.3628114E-2,3.3079095E-2,1.7581934E-2,1.41448295E-2,-5.687268E-3,1.0836723E-2,-3.1715014E-3,1.1643968E-1,2.2911172E-2,-5.707331E-3,-3.463425E-2,2.1975941E-3,-1.848525E-2,-2.4002712E-2,-1.2691425E-2,1.1355309E-2,-2.304253E-3,4.9220014E-2,-1.6057258E-2,-2.1928966E-2,9.850705E-3,5.042681E-2,-1.0809534E-2,2.3528606E-2,-2.1354703E-2,-1.5815401E-2,-3.2204524E-2,8.2919896E-2,1.59467E-2,1.9260904E-2,-2.2172201E-2,1.8771397E-2,-1.198317E-2,2.9013876E-3,-1.4734471E-2,1.0594464E-2,-1.2097232E-2,-2.9381644E-3,-1.3264387E-2,-1.2420432E-3,-1.8319419E-2,-2.6482467E-2,2.5256586E-3,-2.5088236E-2,-3.674386E-3,-1.603215E-2,-3.0951789E-2,-1.0631046E-2,-2.3802418E-2,-7.013686E-3,-2.5557855E-2,9.801681E-3,-3.0739024E-2,-3.2731432E-2,-1.2014811E-2,-2.4571773E-4,-3.2447416E-2],"split_indices":[105,40,96,52,4,63,9,89,13,4,107,87,13,87,87,58,96,73,4,40,101,47,96,52,104,30,106,1,104,81,78,51,29,40,87,89,30,0,86,52,81,87,82,23,1,1,39,86,55,1,1,54,99,74,34,15,38,38,90,82,10,0,59,0,0,0,0,0,0,0,0,0,0,0,0,0,0,0,0,0,0,0,0,0,0,0,0,0,0,0,0,0,0,0,0,0,0,0,0,0,0,0,0,0,0,0,0,0,0,0,0,0,0,0,0,0,0,0,0,0,0,0,0],"split_type":[0,0,0,0,0,0,0,0,0,0,0,0,0,0,0,0,0,0,0,0,0,0,0,0,0,0,0,0,0,0,0,0,0,0,0,0,0,0,0,0,0,0,0,0,0,0,0,0,0,0,0,0,0,0,0,0,0,0,0,0,0,0,0,0,0,0,0,0,0,0,0,0,0,0,0,0,0,0,0,0,0,0,0,0,0,0,0,0,0,0,0,0,0,0,0,0,0,0,0,0,0,0,0,0,0,0,0,0,0,0,0,0,0,0,0,0,0,0,0,0,0,0,0],"sum_hessian":[3.4167367E4,2.114555E4,1.3021818E4,6.779473E3,1.4366077E4,6.5340073E3,6.4878115E3,4.7056875E3,2.0737852E3,1.2860254E4,1.5058235E3,1.4700743E3,5.0639326E3,4.803425E3,1.6843866E3,1.7737761E3,2.9319116E3,1.9886202E3,8.516504E1,1.2870886E3,1.1573165E4,9.037075E2,6.021159E2,8.0957367E2,6.6050073E2,4.46394E3,5.9999274E2,2.2471892E3,2.5562356E3,5.523566E2,1.13203E3,5.1786434E1,1.7219896E3,1.7260244E3,1.2058872E3,1.957476E3,3.1144253E1,9.672672E0,7.549237E1,4.1120395E2,8.7588464E2,1.0543596E4,1.0295696E3,6.094895E2,2.9421802E2,1.8913103E2,4.1298486E2,3.4963154E1,7.746105E2,1.843147E2,4.7618604E2,8.7413354E2,3.5898066E3,3.770259E2,2.2296683E2,1.3206958E3,9.2649347E2,5.7662665E2,1.9796089E3,3.4035696E2,2.1199966E2,7.00469E0,1.1250253E3,4.2747787E1,9.038645E0,8.4154285E2,8.804468E2,7.548916E2,9.711329E2,7.059759E2,4.999113E2,1.4075984E3,5.4987756E2,9.514287E0,2.1629965E1,1.1417226E1,6.407514E1,2.6624765E2,1.449563E2,4.682567E2,4.0762793E2,7.883117E3,2.6604785E3,3.6290222E1,9.932793E2,5.921108E2,1.737874E1,9.455287E0,2.8476273E2,5.1200233E0,1.84011E2,5.1649082E1,3.613358E2,2.3074436E1,1.1888719E1,7.4327057E2,3.1339914E1,1.4586073E2,3.845396E1,1.4547687E2,3.3070917E2,7.036552E2,1.7047835E2,2.322412E3,1.2673944E3,1.09734795E2,2.6729114E2,2.115925E2,1.1374324E1,1.3345915E2,1.1872367E3,8.0413556E2,1.22357925E2,4.3835065E2,1.3827599E2,1.6297786E2,1.8166311E3,6.5247774E0,3.3383218E2,6.557993E1,1.4641972E2,7.039279E0,1.117986E3],"tree_param":{"num_deleted":"0","num_feature":"108","num_nodes":"123","size_leaf_vector":"1"}},{"base_weights":[1.6676445E-4,1.3217932E-1,-2.1801156E-1,1.8015553E-1,-3.7462217E-1,-4.9782716E-2,-3.902662E-1,3.6164016E-1,5.798624E-2,-2.2882044E-1,-4.4880575E-1,3.2294206E-2,-1.769552E-1,-3.232579E-1,-5.814034E-1,4.7981662E-1,1.3945222E-1,-2.9983732E-1,9.7090036E-2,6.6656303E-1,-2.4957308E-1,-3.4275177E-1,-5.447831E-1,3.3076534E-1,-3.7361793E-2,-8.453466E-2,-2.6671162E-1,-2.1010472E-1,-4.2241874E-1,-4.9872282E-1,-6.199424E-1,7.2024804E-1,3.2887912E-1,-7.059224E-2,2.0212173E-1,2.0198796E-2,-3.7437817E-1,1.322669E-1,-2.4634908E-1,-8.923859E-3,8.0810525E-2,2.0242202E-1,-2.8712654E-1,-1.4620782E-1,-4.3740824E-1,-4.690581E-1,-6.69564E-1,4.3728444E-1,6.737703E-2,2.3559709E-1,-8.3961986E-2,-4.7891274E-2,-5.053509E-1,-2.2092612E-1,-5.43064E-1,-1.0201701E-1,-3.6424243E-1,-2.530198E-1,-4.7170088E-1,1.3822898E-1,-5.251966E-1,-5.375276E-1,-6.6128206E-1,5.2103084E-2,2.7988786E-2,2.3851858E-2,5.3038555E-3,1.9585803E-2,-6.582287E-3,1.0762279E-2,-3.3893865E-2,4.30127E-3,-3.601252E-2,-2.5575204E-2,-1.2145023E-2,9.802427E-3,-3.012207E-3,9.860205E-2,-1.3619921E-2,4.233415E-2,-1.8825034E-2,-1.5441394E-2,2.2414662E-2,3.506079E-2,-1.1399443E-2,-2.9928789E-2,-1.6438862E-2,-2.4399085E-2,5.480493E-3,-3.482963E-2,-6.5667504E-3,3.4637112E-2,1.4929314E-2,6.578807E-2,1.4446748E-3,1.6008329E-2,-2.1718508E-2,-1.1282443E-2,-6.707927E-5,-3.547815E-5,-1.1806182E-2,1.4830067E-2,-2.827828E-2,-1.53355E-2,-6.0932753E-3,-1.3614583E-2,-3.2475274E-2,-3.3655714E-3,-2.7766705E-2,-1.612121E-2,-3.2146387E-2,-8.111296E-3,-2.283535E-2,-9.3169315E-3,-2.4857258E-2,-2.0459702E-2,3.546062E-2,-3.7643116E-2,-2.4056835E-2,-3.3787247E-2,-2.0645743E-2,-3.3883188E-2,-1.6808243E-2],"categories":[],"categories_nodes":[],"categories_segments":[],"categories_sizes":[],"default_left":[0,0,0,0,0,0,0,0,0,0,0,0,0,0,0,0,0,0,0,0,0,0,0,0,0,0,0,0,0,0,0,0,0,0,0,0,0,0,0,0,0,0,0,0,0,0,0,0,0,0,0,0,0,0,0,0,0,0,0,0,0,0,0,0,0,0,0,0,0,0,0,0,0,0,0,0,0,0,0,0,0,0,0,0,0,0,0,0,0,0,0,0,0,0,0,0,0,0,0,0,0,0,0,0,0,0,0,0,0,0,0,0,0,0,0,0,0,0,0,0,0,0,0],"id":5,"left_children":[1,3,5,7,9,11,13,15,17,19,21,23,25,27,29,31,33,35,37,39,41,43,45,47,49,51,53,55,57,59,61,63,65,67,69,71,73,75,77,-1,-1,79,81,83,85,87,89,91,93,95,97,99,101,103,105,107,109,111,113,115,117,119,121,-1,-1,-1,-1,-1,-1,-1,-1,-1,-1,-1,-1,-1,-1,-1,-1,-1,-1,-1,-1,-1,-1,-1,-1,-1,-1,-1,-1,-1,-1,-1,-1,-1,-1,-1,-1,-1,-1,-1,-1,-1,-1,-1,-1,-1,-1,-1,-1,-1,-1,-1,-1,-1,-1,-1,-1,-1,-1,-1,-1],"loss_changes":[9.853228E2,5.182972E2,3.736895E2,4.3169128E2,1.9836731E1,6.811832E1,8.1419556E1,2.0562476E2,1.6287834E2,1.1755768E1,1.223941E1,8.24823E1,2.121138E1,5.2871674E1,4.9570312E0,1.8532764E2,3.583582E1,2.7366013E1,1.26795944E2,1.1844954E1,1.0417404E1,1.0775703E1,5.725235E0,2.103151E1,4.094072E1,1.9445553E1,1.6305092E1,3.6723488E1,2.0873077E1,9.019012E0,3.4710693E0,1.0121423E2,1.0370471E2,1.7723436E1,2.4354958E1,1.0668051E1,1.6646835E1,1.1688605E2,5.6892555E1,0E0,0E0,1.7999077E1,9.138073E0,1.3389505E1,6.6794205E0,4.445694E0,3.3860474E0,1.8725296E1,1.0403911E1,2.6734533E1,3.21763E1,1.0324899E1,5.046585E0,9.440285E0,5.1209984E0,2.038932E1,1.038752E1,1.0445774E1,1.4042206E1,7.155191E0,4.7493896E0,6.2749786E0,3.7326965E0,0E0,0E0,0E0,0E0,0E0,0E0,0E0,0E0,0E0,0E0,0E0,0E0,0E0,0E0,0E0,0E0,0E0,0E0,0E0,0E0,0E0,0E0,0E0,0E0,0E0,0E0,0E0,0E0,0E0,0E0,0E0,0E0,0E0,0E0,0E0,0E0,0E0,0E0,0E0,0E0,0E0,0E0,0E0,0E0,0E0,0E0,0E0,0E0,0E0,0E0,0E0,0E0,0E0,0E0,0E0,0E0,0E0,0E0,0E0,0E0],"parents":[2147483647,0,0,1,1,2,2,3,3,4,4,5,5,6,6,7,7,8,8,9,9,10,10,11,11,12,12,13,13,14,14,15,15,16,16,17,17,18,18,19,19,20,20,21,21,22,22,23,23,24,24,25,25,26,26,27,27,28,28,29,29,30,30,31,31,32,32,33,33,34,34,35,35,36,36,37,37,38,38,41,41,42,42,43,43,44,44,45,45,46,46,47,47,48,48,49,49,50,50,51,51,52,52,53,53,54,54,55,55,56,56,57,57,58,58,59,59,60,60,61,61,62,62],"right_children":[2,4,6,8,10,12,14,16,18,20,22,24,26,28,30,32,34,36,38,40,42,44,46,48,50,52,54,56,58,60,62,64,66,68,70,72,74,76,78,-1,-1,80,82,84,86,88,90,92,94,96,98,100,102,104,106,108,110,112,114,116,118,120,122,-1,-1,-1,-1,-1,-1,-1,-1,-1,-1,-1,-1,-1,-1,-1,-1,-1,-1,-1,-1,-1,-1,-1,-1,-1,-1,-1,-1,-1,-1,-1,-1,-1,-1,-1,-1,-1,-1,-1,-1,-1,-1,-1,-1,-1,-1,-1,-1,-1,-1,-1,-1,-1,-1,-1,-1,-1,-1,-1,-1],"split_conditions":[1E0,2.4E1,1E0,8E0,1E0,1E0,3.7166668E1,3.51E1,2.3E1,3.638889E1,3.33E1,5.733333E0,6.2E1,1E0,1.15E2,1E0,2.4E1,9.3E0,1E0,1.1E0,5.8E0,1E0,7.2E1,3.47E1,2.87E1,1.19E2,3.74E1,7.2E1,1E0,3.527778E1,1E0,5.05E0,1E0,2.7333334E1,1E0,1.44E2,1.96E2,1E0,5E0,-8.923859E-3,8.0810525E-2,1.1625E2,5.5E0,6.1E1,2.3E1,7.1E1,2.44E1,3.6E0,1.1513636E2,3.6808083E1,2.1E2,3.1E2,1.16E1,1.05E0,3E0,2.4E1,5.08E1,1.06E2,1E0,2.02E1,7.2E0,1.72E2,4.5E1,5.2103084E-2,2.7988786E-2,2.3851858E-2,5.3038555E-3,1.9585803E-2,-6.582287E-3,1.0762279E-2,-3.3893865E-2,4.30127E-3,-3.601252E-2,-2.5575204E-2,-1.2145023E-2,9.802427E-3,-3.012207E-3,9.860205E-2,-1.3619921E-2,4.233415E-2,-1.8825034E-2,-1.5441394E-2,2.2414662E-2,3.506079E-2,-1.1399443E-2,-2.9928789E-2,-1.6438862E-2,-2.4399085E-2,5.480493E-3,-3.482963E-2,-6.5667504E-3,3.4637112E-2,1.4929314E-2,6.578807E-2,1.4446748E-3,1.6008329E-2,-2.1718508E-2,-1.1282443E-2,-6.707927E-5,-3.547815E-5,-1.1806182E-2,1.4830067E-2,-2.827828E-2,-1.53355E-2,-6.0932753E-3,-1.3614583E-2,-3.2475274E-2,-3.3655714E-3,-2.7766705E-2,-1.612121E-2,-3.2146387E-2,-8.111296E-3,-2.283535E-2,-9.3169315E-3,-2.4857258E-2,-2.0459702E-2,3.546062E-2,-3.7643116E-2,-2.4056835E-2,-3.3787247E-2,-2.0645743E-2,-3.3883188E-2,-1.6808243E-2],"split_indices":[105,4,96,63,104,87,9,52,3,9,29,63,1,87,51,89,19,40,101,50,40,96,1,29,29,6,29,1,104,17,87,63,96,61,101,39,81,87,47,0,0,51,27,81,22,24,40,86,11,13,81,81,83,50,80,3,38,26,90,45,71,81,2,0,0,0,0,0,0,0,0,0,0,0,0,0,0,0,0,0,0,0,0,0,0,0,0,0,0,0,0,0,0,0,0,0,0,0,0,0,0,0,0,0,0,0,0,0,0,0,0,0,0,0,0,0,0,0,0,0,0,0,0],"split_type":[0,0,0,0,0,0,0,0,0,0,0,0,0,0,0,0,0,0,0,0,0,0,0,0,0,0,0,0,0,0,0,0,0,0,0,0,0,0,0,0,0,0,0,0,0,0,0,0,0,0,0,0,0,0,0,0,0,0,0,0,0,0,0,0,0,0,0,0,0,0,0,0,0,0,0,0,0,0,0,0,0,0,0,0,0,0,0,0,0,0,0,0,0,0,0,0,0,0,0,0,0,0,0,0,0,0,0,0,0,0,0,0,0,0,0,0,0,0,0,0,0,0,0],"sum_hessian":[3.4207895E4,2.1312682E4,1.2895212E4,1.9470186E4,1.8424948E3,6.524493E3,6.3707188E3,7.832665E3,1.1637521E4,6.227048E2,1.21979E3,3.9657502E3,2.5587432E3,4.7190273E3,1.6516912E3,5.1123623E3,2.7203027E3,1.1458281E3,1.0491693E4,1.3400795E1,6.0930396E2,5.8164716E2,6.381429E2,7.49679E2,3.216071E3,1.2616191E3,1.297124E3,2.205469E3,2.5135583E3,5.295504E2,1.1221407E3,1.9702072E3,3.142155E3,6.25095E2,2.0952078E3,2.165999E2,9.292283E2,9.517478E3,9.742156E2,7.520641E0,5.8801546E0,4.6403152E1,5.629008E2,1.8989505E2,3.917521E2,4.0009735E2,2.3804553E2,5.3333014E2,2.1634885E2,4.683971E2,2.747674E3,1.1615856E3,1.0003349E2,1.1143073E3,1.8281667E2,1.297365E3,9.0810394E2,5.6783966E2,1.9457186E3,2.096307E1,5.0858734E2,3.7952402E2,7.4261676E2,6.537245E2,1.3164827E3,1.8865216E3,1.2556333E3,7.228953E1,5.528054E2,2.0651646E3,3.0043377E1,1.9972774E2,1.6872156E1,4.5342944E2,4.7579883E2,7.14892E3,2.3685576E3,1.0439883E1,9.637757E2,2.1743322E1,2.465983E1,5.4732983E2,1.5570972E1,1.6046389E1,1.7384866E2,1.559181E2,2.3583398E2,3.8757944E2,1.2517905E1,2.2638287E2,1.1662657E1,1.8626608E2,3.470641E2,5.4773235E0,2.1087152E2,4.1636212E2,5.2034966E1,1.01142914E3,1.7362449E3,9.2958307E2,2.3200252E2,6.7122746E0,9.332122E1,5.960487E2,5.182586E2,5.259087E1,1.302258E2,1.2061702E3,9.11949E1,7.914931E2,1.1661084E2,3.9400693E2,1.7383278E2,1.5996844E2,1.7857502E3,1.0847E1,1.0116069E1,7.985813E1,4.2872922E2,1.778427E2,2.0168132E2,7.0596106E2,3.6655693E1],"tree_param":{"num_deleted":"0","num_feature":"108","num_nodes":"123","size_leaf_vector":"1"}},{"base_weights":[-9.967949E-5,5.9971154E-2,-4.417055E-1,1.6878574E-1,-1.4384367E-1,-2.8087473E-1,-5.248884E-1,3.3167958E-1,5.66245E-2,-8.511459E-3,-3.118933E-1,-1.4426313E-1,-3.4742576E-1,-4.3139634E-1,-5.912596E-1,2.284516E-1,5.49837E-1,-3.1723613E-1,9.665459E-2,7.5680956E-2,-1.4289518E-1,-1.9530508E-1,-4.1515467E-1,-2.516292E-1,8.238554E-2,2.4391761E-1,-3.668674E-1,-4.478369E-1,1.6604571E-1,-5.555321E-1,-6.8423134E-1,3.565249E-1,4.5458976E-2,7.6132697E-1,2.7791706E-1,1.1798028E-2,-3.877027E-1,1.3026035E-1,-2.3956892E-1,4.1332948E-1,1.4417457E-2,4.661826E-2,-1.9428588E-1,-1.3180467E-1,-3.5036668E-1,-2.6374596E-1,-4.595423E-1,1.7058522E-1,-3.157278E-1,5.250542E-1,-1.1407176E-1,6.0724627E-2,-2.134828E-1,-1.5130565E-1,-4.032302E-1,-5.2668244E-1,-3.289824E-1,7.796885E-1,-2.930589E-1,-4.127551E-1,-5.81055E-1,-7.4201244E-1,-5.676382E-1,2.3442542E-2,6.044853E-3,-1.0430133E-2,6.368901E-3,5.4727178E-2,2.8599499E-2,2.3928497E-2,7.504067E-5,4.939753E-3,-2.2919182E-2,-1.2071882E-2,-2.4006581E-2,1.0228864E-2,-1.2936542E-3,5.383116E-2,-1.4084731E-2,1.669857E-2,4.098159E-2,-2.0670777E-3,1.1834837E-2,1.4333874E-2,-4.9066367E-3,-3.9114696E-3,-1.2806009E-2,-1.1919221E-3,-1.1476847E-2,-2.0599604E-2,3.6532592E-3,-1.4969653E-2,1.5420685E-2,-2.1107502E-2,-3.176619E-2,3.7479956E-2,-1.5851557E-2,-2.2026042E-2,-1.4120524E-3,8.5771745E-3,6.098197E-2,1.3334629E-2,-1.7484155E-2,1.7363722E-2,-4.068851E-2,-2.3379963E-2,2.7262655E-3,-2.118585E-2,-1.1900753E-3,-3.0571342E-2,-1.890032E-2,-1.7713802E-2,3.1507082E-2,3.2262467E-3,7.194314E-2,1.9834395E-2,-3.3649836E-2,-2.2656787E-2,2.463469E-2,-2.3698412E-2,-3.073217E-2,-3.792988E-2,6.8311356E-3,5.2528543E-4,-3.0906236E-2],"categories":[],"categories_nodes":[],"categories_segments":[],"categories_sizes":[],"default_left":[0,0,0,0,0,0,0,0,0,0,0,0,0,0,0,0,0,0,0,0,0,0,0,0,0,0,0,0,0,0,0,0,0,0,0,0,0,0,0,0,0,0,0,0,0,0,0,0,0,0,0,0,0,0,0,0,0,0,0,0,0,0,0,0,0,0,0,0,0,0,0,0,0,0,0,0,0,0,0,0,0,0,0,0,0,0,0,0,0,0,0,0,0,0,0,0,0,0,0,0,0,0,0,0,0,0,0,0,0,0,0,0,0,0,0,0,0,0,0,0,0,0,0,0,0],"id":6,"left_children":[1,3,5,7,9,11,13,15,17,19,21,23,25,27,29,31,33,35,37,39,41,43,45,47,49,51,53,55,57,59,61,63,65,67,69,71,73,75,77,79,81,83,85,87,89,91,93,95,97,99,101,-1,103,105,107,109,111,113,115,117,119,121,123,-1,-1,-1,-1,-1,-1,-1,-1,-1,-1,-1,-1,-1,-1,-1,-1,-1,-1,-1,-1,-1,-1,-1,-1,-1,-1,-1,-1,-1,-1,-1,-1,-1,-1,-1,-1,-1,-1,-1,-1,-1,-1,-1,-1,-1,-1,-1,-1,-1,-1,-1,-1,-1,-1,-1,-1,-1,-1,-1,-1,-1,-1],"loss_changes":[9.085972E2,6.686864E2,5.4720154E1,3.5910785E2,2.3866983E2,1.268029E1,1.651123E1,1.8037524E2,1.7426202E2,6.579295E1,5.6278137E1,1.1224076E1,1.0906052E1,1.1129288E1,4.859741E0,1.27535E2,1.4779956E2,2.6116875E1,1.1886159E2,7.395088E1,2.1823814E1,2.162278E1,1.6557343E1,8.515198E0,1.2995328E1,1.3820884E1,7.0820923E0,1.0093979E1,8.925868E0,3.932251E0,2.4999237E0,8.4677795E1,4.6686554E1,9.06756E1,6.2538673E1,8.210603E0,1.2424316E1,1.1095488E2,5.3309223E1,1.7429321E1,3.752972E1,1.6659897E1,1.2626389E1,1.6485966E1,1.6698456E1,1.16150055E1,1.2336792E1,1.2055708E1,9.738438E0,1.106109E1,9.409231E0,0E0,7.5581036E0,8.693092E0,6.0465317E0,8.046829E0,1.0888149E1,6.2644014E0,5.0853095E0,6.6976223E0,3.1933594E0,4.2810516E0,4.3244743E0,0E0,0E0,0E0,0E0,0E0,0E0,0E0,0E0,0E0,0E0,0E0,0E0,0E0,0E0,0E0,0E0,0E0,0E0,0E0,0E0,0E0,0E0,0E0,0E0,0E0,0E0,0E0,0E0,0E0,0E0,0E0,0E0,0E0,0E0,0E0,0E0,0E0,0E0,0E0,0E0,0E0,0E0,0E0,0E0,0E0,0E0,0E0,0E0,0E0,0E0,0E0,0E0,0E0,0E0,0E0,0E0,0E0,0E0,0E0,0E0,0E0,0E0],"parents":[2147483647,0,0,1,1,2,2,3,3,4,4,5,5,6,6,7,7,8,8,9,9,10,10,11,11,12,12,13,13,14,14,15,15,16,16,17,17,18,18,19,19,20,20,21,21,22,22,23,23,24,24,25,25,26,26,27,27,28,28,29,29,30,30,31,31,32,32,33,33,34,34,35,35,36,36,37,37,38,38,39,39,40,40,41,41,42,42,43,43,44,44,45,45,46,46,47,47,48,48,49,49,50,50,52,52,53,53,54,54,55,55,56,56,57,57,58,58,59,59,60,60,61,61,62,62],"right_children":[2,4,6,8,10,12,14,16,18,20,22,24,26,28,30,32,34,36,38,40,42,44,46,48,50,52,54,56,58,60,62,64,66,68,70,72,74,76,78,80,82,84,86,88,90,92,94,96,98,100,102,-1,104,106,108,110,112,114,116,118,120,122,124,-1,-1,-1,-1,-1,-1,-1,-1,-1,-1,-1,-1,-1,-1,-1,-1,-1,-1,-1,-1,-1,-1,-1,-1,-1,-1,-1,-1,-1,-1,-1,-1,-1,-1,-1,-1,-1,-1,-1,-1,-1,-1,-1,-1,-1,-1,-1,-1,-1,-1,-1,-1,-1,-1,-1,-1,-1,-1,-1,-1,-1,-1],"split_conditions":[3.7166668E1,1E0,1E0,8E0,1E0,1.04E2,1E0,1E0,3.711111E1,1E0,1E0,2.4E1,1E0,2.45E2,1E0,3.5E1,1E0,9.2E0,1E0,5E0,1E0,1.13E1,1E0,5.5E0,1.125E1,9.7E1,5E0,2.1E2,2.4E1,1.25E2,2.8166666E1,1E0,2.9E1,6E-1,1E0,1E0,1E0,1E0,4E0,4.4E1,1E0,3.425E0,1E0,1E0,3.78E2,1.91E2,2E0,2.7E1,8.2E1,1.402E2,1.69E2,6.0724627E-2,1.9E0,1.3333333E1,3.911111E1,2.44E1,9.7E0,1.93E2,2.74E2,2.9E1,1.6E0,2.525E0,1.3E1,2.3442542E-2,6.044853E-3,-1.0430133E-2,6.368901E-3,5.4727178E-2,2.8599499E-2,2.3928497E-2,7.504067E-5,4.939753E-3,-2.2919182E-2,-1.2071882E-2,-2.4006581E-2,1.0228864E-2,-1.2936542E-3,5.383116E-2,-1.4084731E-2,1.669857E-2,4.098159E-2,-2.0670777E-3,1.1834837E-2,1.4333874E-2,-4.9066367E-3,-3.9114696E-3,-1.2806009E-2,-1.1919221E-3,-1.1476847E-2,-2.0599604E-2,3.6532592E-3,-1.4969653E-2,1.5420685E-2,-2.1107502E-2,-3.176619E-2,3.7479956E-2,-1.5851557E-2,-2.2026042E-2,-1.4120524E-3,8.5771745E-3,6.098197E-2,1.3334629E-2,-1.7484155E-2,1.7363722E-2,-4.068851E-2,-2.3379963E-2,2.7262655E-3,-2.118585E-2,-1.1900753E-3,-3.0571342E-2,-1.890032E-2,-1.7713802E-2,3.1507082E-2,3.2262467E-3,7.194314E-2,1.9834395E-2,-3.3649836E-2,-2.2656787E-2,2.463469E-2,-2.3698412E-2,-3.073217E-2,-3.792988E-2,6.8311356E-3,5.2528543E-4,-3.0906236E-2],"split_indices":[9,105,96,63,96,74,87,88,9,87,87,68,32,74,106,52,100,40,101,86,95,40,104,40,47,6,5,81,47,7,47,107,21,69,96,98,104,107,36,19,88,57,104,100,81,74,32,19,14,62,58,0,79,43,9,45,71,35,74,68,32,56,20,0,0,0,0,0,0,0,0,0,0,0,0,0,0,0,0,0,0,0,0,0,0,0,0,0,0,0,0,0,0,0,0,0,0,0,0,0,0,0,0,0,0,0,0,0,0,0,0,0,0,0,0,0,0,0,0,0,0,0,0,0,0],"split_type":[0,0,0,0,0,0,0,0,0,0,0,0,0,0,0,0,0,0,0,0,0,0,0,0,0,0,0,0,0,0,0,0,0,0,0,0,0,0,0,0,0,0,0,0,0,0,0,0,0,0,0,0,0,0,0,0,0,0,0,0,0,0,0,0,0,0,0,0,0,0,0,0,0,0,0,0,0,0,0,0,0,0,0,0,0,0,0,0,0,0,0,0,0,0,0,0,0,0,0,0,0,0,0,0,0,0,0,0,0,0,0,0,0,0,0,0,0,0,0,0,0,0,0,0,0],"sum_hessian":[3.4248977E4,3.0148762E4,4.100217E3,1.9655219E4,1.0493542E4,1.3992329E3,2.700984E3,8.0141553E3,1.1641063E4,5.813178E3,4.6803643E3,4.593916E2,9.3984125E2,1.1244946E3,1.5764894E3,5.441423E3,2.5727324E3,1.125214E3,1.051585E4,3.5742932E3,2.238885E3,2.1996821E3,2.4806821E3,3.1164944E2,1.4774216E2,2.95482E1,9.102931E2,1.0946229E3,2.987172E1,1.1438875E3,4.3260187E2,3.2005002E3,2.2409224E3,1.4461593E3,1.126573E3,1.9861949E2,9.265945E2,9.56085E3,9.550006E2,5.480448E2,3.0262483E3,4.7762836E2,1.7612566E3,1.561905E3,6.377771E2,5.639523E2,1.91673E3,4.085805E1,2.707914E2,4.4899487E1,1.0284267E2,8.934514E0,2.0613686E1,1.3213664E2,7.7815643E2,6.5600916E2,4.386138E2,1.2485381E1,1.7386337E1,1.7607619E2,9.678113E2,2.8566724E2,1.4693465E2,2.1666494E3,1.033851E3,5.460062E2,1.6949163E3,5.2225525E2,9.239041E2,6.5231836E2,4.742547E2,1.682739E2,3.0345596E1,3.6020163E2,5.663928E2,6.4774023E3,3.083447E3,2.8855967E1,9.261446E2,4.600172E2,8.802757E1,2.4200022E3,6.0624634E2,1.7929683E2,2.983315E2,6.129947E2,1.1482618E3,7.426894E2,8.192157E2,5.567726E2,8.100452E1,5.31326E2,3.2626305E1,1.5833263E3,3.3340366E2,1.8432882E1,2.2425167E1,1.8845433E2,8.2337074E1,3.0581789E1,1.4317698E1,3.926147E1,6.35812E1,1.0875679E1,9.738007E0,5.158931E1,8.054734E1,7.381824E2,3.997408E1,4.1585947E2,2.4014969E2,4.2795847E2,1.0655319E1,6.51495E0,5.970432E0,6.159738E0,1.12266E1,1.6903712E2,7.0390635E0,2.3468808E2,7.331232E2,2.8050894E2,5.158287E0,1.1864196E1,1.3507045E2],"tree_param":{"num_deleted":"0","num_feature":"108","num_nodes":"125","size_leaf_vector":"1"}},{"base_weights":[-1.2487648E-3,5.5439554E-2,-4.2368177E-1,1.5729721E-1,-1.3797459E-1,-2.6223496E-1,-5.061018E-1,7.917972E-2,3.6562777E-1,-3.5192354E-3,-3.0649424E-1,-8.781948E-2,-3.3252463E-1,-6.595981E-1,-4.6745616E-1,2.3415911E-1,3.868575E-4,5.43092E-1,9.9684246E-2,7.7740684E-2,-1.3186085E-1,-1.6159199E-1,-3.8429898E-1,4.333256E-1,-1.5599509E-1,-2.8260264E-1,-5.557052E-1,-7.033083E-1,-4.9085647E-1,-3.4062344E-1,-5.1330256E-1,3.66328E-1,9.901641E-3,2.9585252E-2,-3.0704767E-1,9.40683E-1,4.2431468E-1,3.3162808E-1,-1.3546515E-1,3.4622085E-1,6.8550706E-3,-5.8476835E-2,-2.695841E-1,-4.1714615E-1,-1.128122E-1,-2.8519362E-1,-4.5261067E-1,6.6502506E-1,-1.8214626E-2,5.3905535E-2,-1.778923E-1,-3.412249E-1,-9.311631E-2,-6.017632E-1,-1.1581194E-1,-7.263832E-1,-2.8165272E-1,-1.6955672E-1,-6.1170083E-1,-3.9641622E-1,-6.861747E-2,-4.663038E-1,-6.2561476E-1,2.1376595E-2,-5.2970536E-3,7.1311616E-3,-7.686984E-3,-1.011449E-2,3.8561248E-3,-6.5942924E-3,-2.9069338E-2,6.8376526E-2,2.7510405E-2,2.6269594E-2,1.0845439E-2,-1.6291494E-2,1.9862944E-2,2.3856419E-5,-1.5262756E-2,1.3577287E-2,3.681662E-2,-1.8907929E-3,9.837773E-3,3.96997E-3,-6.871816E-3,-1.12023605E-2,-2.5593529E-2,-1.6495641E-2,-3.374019E-2,4.651978E-2,-6.2387167E-3,-9.588361E-3,-2.0043436E-2,-1.3654939E-2,-2.4729807E-2,6.382269E-2,1.3102005E-2,-2.875706E-3,-1.897866E-2,-1.3570922E-2,-2.5894532E-2,7.1009668E-3,-1.6692422E-2,-3.1732995E-2,3.3978869E-3,-2.862958E-2,1.6716765E-2,-3.69361E-2,-1.4392251E-2,-3.423617E-2,8.4260255E-3,-3.4649327E-2,8.580658E-3,-1.0820481E-2,-3.703866E-2,-1.3911681E-2,-2.5788128E-2,4.842649E-2,-6.768696E-3,-1.9875644E-2,-2.7306939E-2,-3.3974912E-2,-2.3019837E-2],"categories":[],"categories_nodes":[],"categories_segments":[],"categories_sizes":[],"default_left":[0,0,0,0,0,0,0,0,0,0,0,0,0,0,0,0,0,0,0,0,0,0,0,0,0,0,0,0,0,0,0,0,0,0,0,0,0,0,0,0,0,0,0,0,0,0,0,0,0,0,0,0,0,0,0,0,0,0,0,0,0,0,0,0,0,0,0,0,0,0,0,0,0,0,0,0,0,0,0,0,0,0,0,0,0,0,0,0,0,0,0,0,0,0,0,0,0,0,0,0,0,0,0,0,0,0,0,0,0,0,0,0,0,0,0,0,0,0,0,0,0,0,0],"id":7,"left_children":[1,3,5,7,9,11,13,15,17,19,21,23,25,27,29,31,33,35,37,39,41,43,45,47,49,51,53,55,57,59,61,63,65,67,69,71,73,75,77,79,81,83,85,87,89,91,93,95,-1,-1,97,99,101,103,105,107,109,111,113,115,117,119,121,-1,-1,-1,-1,-1,-1,-1,-1,-1,-1,-1,-1,-1,-1,-1,-1,-1,-1,-1,-1,-1,-1,-1,-1,-1,-1,-1,-1,-1,-1,-1,-1,-1,-1,-1,-1,-1,-1,-1,-1,-1,-1,-1,-1,-1,-1,-1,-1,-1,-1,-1,-1,-1,-1,-1,-1,-1,-1,-1,-1],"loss_changes":[8.209837E2,5.95516E2,5.3842407E1,3.2220657E2,2.3627422E2,1.6803146E1,1.5614929E1,1.7586464E2,2.5477716E2,6.0509926E1,5.211032E1,1.4128005E1,1.0742271E1,3.618988E0,1.2314575E1,1.438722E2,8.5723946E1,1.5252582E2,1.179772E2,6.7610504E1,2.2718002E1,2.0128159E1,2.0250183E1,8.75191E0,9.668772E0,8.87101E0,3.5323486E0,3.9263916E0,4.3183002E0,8.6721115E0,8.025238E0,8.8323425E1,3.9137844E1,9.614891E1,3.9726723E1,1.2326105E2,5.21951E1,4.711212E1,2.479942E1,2.1417374E1,2.385872E1,1.6000536E1,8.509132E0,5.5996017E0,1.7092472E1,1.3226334E1,1.3282379E1,8.544397E0,0E0,0E0,8.364723E0,7.4034576E0,1.084437E1,3.5835419E0,3.9107983E0,1.9621124E0,4.4089894E0,5.924716E0,4.0427322E0,6.562607E0,6.9699483E0,5.9048615E0,3.7992554E0,0E0,0E0,0E0,0E0,0E0,0E0,0E0,0E0,0E0,0E0,0E0,0E0,0E0,0E0,0E0,0E0,0E0,0E0,0E0,0E0,0E0,0E0,0E0,0E0,0E0,0E0,0E0,0E0,0E0,0E0,0E0,0E0,0E0,0E0,0E0,0E0,0E0,0E0,0E0,0E0,0E0,0E0,0E0,0E0,0E0,0E0,0E0,0E0,0E0,0E0,0E0,0E0,0E0,0E0,0E0,0E0,0E0,0E0,0E0,0E0],"parents":[2147483647,0,0,1,1,2,2,3,3,4,4,5,5,6,6,7,7,8,8,9,9,10,10,11,11,12,12,13,13,14,14,15,15,16,16,17,17,18,18,19,19,20,20,21,21,22,22,23,23,24,24,25,25,26,26,27,27,28,28,29,29,30,30,31,31,32,32,33,33,34,34,35,35,36,36,37,37,38,38,39,39,40,40,41,41,42,42,43,43,44,44,45,45,46,46,47,47,50,50,51,51,52,52,53,53,54,54,55,55,56,56,57,57,58,58,59,59,60,60,61,61,62,62],"right_children":[2,4,6,8,10,12,14,16,18,20,22,24,26,28,30,32,34,36,38,40,42,44,46,48,50,52,54,56,58,60,62,64,66,68,70,72,74,76,78,80,82,84,86,88,90,92,94,96,-1,-1,98,100,102,104,106,108,110,112,114,116,118,120,122,-1,-1,-1,-1,-1,-1,-1,-1,-1,-1,-1,-1,-1,-1,-1,-1,-1,-1,-1,-1,-1,-1,-1,-1,-1,-1,-1,-1,-1,-1,-1,-1,-1,-1,-1,-1,-1,-1,-1,-1,-1,-1,-1,-1,-1,-1,-1,-1,-1,-1,-1,-1,-1,-1,-1,-1,-1,-1,-1,-1],"split_conditions":[3.7166668E1,1E0,1E0,1E0,1E0,8.4E0,7.4E0,1.1E1,1E0,1E0,1E0,3.6055557E1,1E0,1E0,1E0,1E0,1E0,5E-1,1E0,9.5E0,1E0,3.711111E1,1E0,2E0,5E0,1.5133333E1,1.62E2,4.5E1,1E0,1.525E0,1E0,1.38E1,1E0,2.85E1,1.14E1,1E0,9E0,3.711111E1,1E0,3E1,1E0,1E0,3.68E1,2.7E1,6E0,1.07E1,1E0,1.02E1,-1.8214626E-2,5.3905535E-2,2.4E1,9.8681816E1,3.7E0,3.2E2,1.04E2,1.17E2,3E1,8.1E1,2.56E1,2.4E1,5.2E0,3.43E1,2.46E1,2.1376595E-2,-5.2970536E-3,7.1311616E-3,-7.686984E-3,-1.011449E-2,3.8561248E-3,-6.5942924E-3,-2.9069338E-2,6.8376526E-2,2.7510405E-2,2.6269594E-2,1.0845439E-2,-1.6291494E-2,1.9862944E-2,2.3856419E-5,-1.5262756E-2,1.3577287E-2,3.681662E-2,-1.8907929E-3,9.837773E-3,3.96997E-3,-6.871816E-3,-1.12023605E-2,-2.5593529E-2,-1.6495641E-2,-3.374019E-2,4.651978E-2,-6.2387167E-3,-9.588361E-3,-2.0043436E-2,-1.3654939E-2,-2.4729807E-2,6.382269E-2,1.3102005E-2,-2.875706E-3,-1.897866E-2,-1.3570922E-2,-2.5894532E-2,7.1009668E-3,-1.6692422E-2,-3.1732995E-2,3.3978869E-3,-2.862958E-2,1.6716765E-2,-3.69361E-2,-1.4392251E-2,-3.423617E-2,8.4260255E-3,-3.4649327E-2,8.580658E-3,-1.0820481E-2,-3.703866E-2,-1.3911681E-2,-2.5788128E-2,4.842649E-2,-6.768696E-3,-1.9875644E-2,-2.7306939E-2,-3.3974912E-2,-2.3019837E-2],"split_indices":[9,105,96,88,96,40,71,30,96,87,89,17,106,88,104,107,101,69,100,30,98,9,87,32,24,60,42,2,100,50,106,40,96,44,30,89,40,9,87,42,88,104,29,3,24,30,104,30,0,0,3,12,34,28,6,72,24,15,29,3,40,29,45,0,0,0,0,0,0,0,0,0,0,0,0,0,0,0,0,0,0,0,0,0,0,0,0,0,0,0,0,0,0,0,0,0,0,0,0,0,0,0,0,0,0,0,0,0,0,0,0,0,0,0,0,0,0,0,0,0,0,0,0],"split_type":[0,0,0,0,0,0,0,0,0,0,0,0,0,0,0,0,0,0,0,0,0,0,0,0,0,0,0,0,0,0,0,0,0,0,0,0,0,0,0,0,0,0,0,0,0,0,0,0,0,0,0,0,0,0,0,0,0,0,0,0,0,0,0,0,0,0,0,0,0,0,0,0,0,0,0,0,0,0,0,0,0,0,0,0,0,0,0,0,0,0,0,0,0,0,0,0,0,0,0,0,0,0,0,0,0,0,0,0,0,0,0,0,0,0,0,0,0,0,0,0,0,0,0],"sum_hessian":[3.428136E4,3.022605E4,4.0553105E3,1.9799322E4,1.0426728E4,1.3719921E3,2.6833184E3,1.4400837E4,5.3984863E3,5.800084E3,4.626643E3,3.9474036E2,9.772518E2,5.364655E2,2.1468528E3,4.8531323E3,9.547704E3,3.2372354E3,2.1612507E3,3.5517048E3,2.2483794E3,1.6174354E3,3.0092078E3,4.5045956E1,3.496944E2,8.004662E2,1.7678555E2,4.2357596E2,1.1288953E2,5.7222845E2,1.5746244E3,3.0531108E3,1.8000217E3,8.720395E3,8.2731E2,7.430516E2,2.4941838E3,1.087835E3,1.0734158E3,7.410572E2,2.8106477E3,1.4677386E3,7.806407E2,2.5803824E2,1.3593972E3,1.2299679E3,1.7792399E3,3.5034924E1,1.0011032E1,5.2556586E0,3.4443875E2,6.107231E2,1.897431E2,1.5969688E2,1.708868E1,4.0091345E2,2.2662504E1,3.1511137E1,8.1378395E1,4.744531E2,9.777533E1,1.1137223E3,4.609021E2,2.7029197E3,3.5019122E2,9.9398047E2,8.060412E2,1.4830725E3,7.237322E3,5.05827E2,3.2148303E2,3.5379663E2,3.8925494E2,1.6759117E3,8.182721E2,9.837697E1,9.8945795E2,5.966808E2,4.7673502E2,6.234185E2,1.17638626E2,2.2760461E3,5.3460144E2,5.3446655E2,9.332721E2,6.5875476E2,1.21885895E2,1.944762E2,6.3562035E1,1.4540653E1,1.3448566E3,6.8188934E2,5.480785E2,3.3868246E2,1.4405574E3,1.3056881E1,2.197804E1,2.1650037E2,1.2793838E2,4.3957056E2,1.7115253E2,9.619474E1,9.354837E1,1.5226974E2,7.4271417E0,8.346844E0,8.741836E0,3.8927618E2,1.1637284E1,1.1681891E1,1.0980614E1,1.2027339E1,1.9483799E1,2.0690195E1,6.0688198E1,2.4006262E2,2.3439047E2,5.0958796E0,9.267945E1,6.0145197E2,5.122703E2,3.4520557E2,1.15696526E2],"tree_param":{"num_deleted":"0","num_feature":"108","num_nodes":"123","size_leaf_vector":"1"}},{"base_weights":[3.3539874E-3,5.3462446E-2,-4.5557177E-1,1.5157111E-1,-1.3197832E-1,-3.0137387E-1,-5.343929E-1,3.9595142E-1,9.220726E-2,-2.4794922E-3,-2.955086E-1,-3.1289986E-1,5.598747E-1,-4.0690553E-1,-5.7547843E-1,5.787058E-1,2.6779065E-1,1.7303635E-1,-6.894903E-2,1.9114664E-1,-6.1044175E-2,-1.8252864E-1,-3.9642274E-1,-3.9063177E-1,-1.7788044E-1,7.264476E-2,-2.4439808E-2,-4.477035E-1,1.3901529E-1,-6.236036E-1,-4.9899438E-1,9.177961E-1,3.5857955E-1,3.8812345E-1,6.972249E-2,1.11787714E-1,3.6795583E-1,-3.6365408E-1,-2.3452533E-2,3.3451217E-1,-3.93652E-3,5.198367E-3,-1.7805849E-1,-1.08355865E-1,-3.007824E-1,-2.4916185E-1,-4.4839382E-1,-4.068079E-1,4.6962595E-1,-9.8324075E-2,-5.762448E-1,-3.4043333E-1,-5.488383E-1,-3.525386E-1,5.6426114E-1,-6.399226E-1,-2.6377526E-1,-5.116362E-1,4.0477615E-2,5.715927E-2,3.2064278E-2,1.5457675E-2,6.668983E-2,2.392273E-2,5.5091484E-3,1.2738334E-2,-8.675155E-3,4.2584105E-3,4.298011E-2,-8.905805E-3,2.0956611E-2,-1.9573743E-2,9.43971E-3,4.5056306E-3,-5.7263435E-3,2.5130386E-2,7.6979743E-3,1.3851449E-2,-6.080154E-3,1.2303864E-3,-1.9988239E-2,-4.8339777E-4,-1.2126364E-2,-3.5280816E-3,-2.1740202E-2,-1.2954845E-2,-3.241062E-2,-1.047521E-2,-2.899406E-2,-2.0585496E-2,-2.8430033E-2,-4.7616414E-3,-2.2179935E-2,6.627244E-2,-1.3229258E-2,-7.4111074E-3,2.6748052E-2,-3.7752002E-2,-1.1274408E-2,-2.3802938E-2,-6.835868E-3,-3.0998016E-2,-1.52070075E-2,-3.5135906E-2,2.950889E-3,-7.097049E-3,6.491935E-2,-2.8804595E-2,-3.594656E-2,1.3701379E-2,-2.6178693E-2,-2.9651193E-2,-2.136234E-2],"categories":[],"categories_nodes":[],"categories_segments":[],"categories_sizes":[],"default_left":[0,0,0,0,0,0,0,0,0,0,0,0,0,0,0,0,0,0,0,0,0,0,0,0,0,0,0,0,0,0,0,0,0,0,0,0,0,0,0,0,0,0,0,0,0,0,0,0,0,0,0,0,0,0,0,0,0,0,0,0,0,0,0,0,0,0,0,0,0,0,0,0,0,0,0,0,0,0,0,0,0,0,0,0,0,0,0,0,0,0,0,0,0,0,0,0,0,0,0,0,0,0,0,0,0,0,0,0,0,0,0,0,0],"id":8,"left_children":[1,3,5,7,9,11,13,15,17,19,21,23,25,27,29,31,33,35,37,39,41,43,45,47,49,-1,-1,51,53,55,57,59,61,63,65,67,69,71,73,75,77,79,81,83,85,87,89,91,93,95,97,99,101,103,105,107,109,111,-1,-1,-1,-1,-1,-1,-1,-1,-1,-1,-1,-1,-1,-1,-1,-1,-1,-1,-1,-1,-1,-1,-1,-1,-1,-1,-1,-1,-1,-1,-1,-1,-1,-1,-1,-1,-1,-1,-1,-1,-1,-1,-1,-1,-1,-1,-1,-1,-1,-1,-1,-1,-1,-1,-1],"loss_changes":[7.842662E2,5.594132E2,4.0642334E1,2.916923E2,2.2530328E2,1.1470764E1,1.1395447E1,9.1888794E1,2.1077733E2,6.735055E1,5.35336E1,1.1722084E1,1.5118643E1,1.2190781E1,5.8605347E0,1.2051935E2,5.5072235E1,1.286076E2,7.246608E1,3.857698E1,3.5347633E1,1.9440506E1,1.888858E1,1.0101517E1,1.301097E1,0E0,0E0,5.3126526E0,8.2736025E0,5.850952E0,1.1209305E1,3.894519E1,4.698696E1,3.604756E1,3.9421623E1,1.631772E2,7.2064514E1,1.1183067E1,4.845118E1,2.4051773E1,1.9381903E1,2.2903927E1,1.7892353E1,1.6821747E1,1.2217789E1,8.401821E0,7.852234E0,7.977028E0,8.901797E0,1.0977874E1,4.1213417E0,6.8044376E0,4.3239822E0,2.7124324E0,1.1121328E1,4.528015E0,6.5953813E0,4.189987E0,0E0,0E0,0E0,0E0,0E0,0E0,0E0,0E0,0E0,0E0,0E0,0E0,0E0,0E0,0E0,0E0,0E0,0E0,0E0,0E0,0E0,0E0,0E0,0E0,0E0,0E0,0E0,0E0,0E0,0E0,0E0,0E0,0E0,0E0,0E0,0E0,0E0,0E0,0E0,0E0,0E0,0E0,0E0,0E0,0E0,0E0,0E0,0E0,0E0,0E0,0E0,0E0,0E0,0E0,0E0],"parents":[2147483647,0,0,1,1,2,2,3,3,4,4,5,5,6,6,7,7,8,8,9,9,10,10,11,11,12,12,13,13,14,14,15,15,16,16,17,17,18,18,19,19,20,20,21,21,22,22,23,23,24,24,27,27,28,28,29,29,30,30,31,31,32,32,33,33,34,34,35,35,36,36,37,37,38,38,39,39,40,40,41,41,42,42,43,43,44,44,45,45,46,46,47,47,48,48,49,49,50,50,51,51,52,52,53,53,54,54,55,55,56,56,57,57],"right_children":[2,4,6,8,10,12,14,16,18,20,22,24,26,28,30,32,34,36,38,40,42,44,46,48,50,-1,-1,52,54,56,58,60,62,64,66,68,70,72,74,76,78,80,82,84,86,88,90,92,94,96,98,100,102,104,106,108,110,112,-1,-1,-1,-1,-1,-1,-1,-1,-1,-1,-1,-1,-1,-1,-1,-1,-1,-1,-1,-1,-1,-1,-1,-1,-1,-1,-1,-1,-1,-1,-1,-1,-1,-1,-1,-1,-1,-1,-1,-1,-1,-1,-1,-1,-1,-1,-1,-1,-1,-1,-1,-1,-1,-1,-1],"split_conditions":[2.4E1,1E0,1E0,5.5E0,1E0,1.54E2,1E0,1E0,1E0,5.7E0,1E0,3.1633333E1,2.3E1,2.8E0,2.3E1,1.065E1,1E0,1E0,2.3E1,1E0,1E0,7.2E1,1E0,7.1E0,8.27E1,7.264476E-2,-2.4439808E-2,1.062E1,2.1166666E1,4E2,1.04E2,1E0,2.2E0,3.26E1,1E0,4.0333333E0,2.3E1,2.54E2,1E0,1.0125E1,1E0,9.840909E1,1.042E2,4.01E1,3.6E0,1.46E2,3.84E1,5.7E0,2E1,4.8E0,9.826667E1,2E2,1.1166667E0,1.1857143E2,1E0,1E0,1.7E1,1E0,4.0477615E-2,5.715927E-2,3.2064278E-2,1.5457675E-2,6.668983E-2,2.392273E-2,5.5091484E-3,1.2738334E-2,-8.675155E-3,4.2584105E-3,4.298011E-2,-8.905805E-3,2.0956611E-2,-1.9573743E-2,9.43971E-3,4.5056306E-3,-5.7263435E-3,2.5130386E-2,7.6979743E-3,1.3851449E-2,-6.080154E-3,1.2303864E-3,-1.9988239E-2,-4.8339777E-4,-1.2126364E-2,-3.5280816E-3,-2.1740202E-2,-1.2954845E-2,-3.241062E-2,-1.047521E-2,-2.899406E-2,-2.0585496E-2,-2.8430033E-2,-4.7616414E-3,-2.2179935E-2,6.627244E-2,-1.3229258E-2,-7.4111074E-3,2.6748052E-2,-3.7752002E-2,-1.1274408E-2,-2.3802938E-2,-6.835868E-3,-3.0998016E-2,-1.52070075E-2,-3.5135906E-2,2.950889E-3,-7.097049E-3,6.491935E-2,-2.8804595E-2,-3.594656E-2,1.3701379E-2,-2.6178693E-2,-2.9651193E-2,-2.136234E-2],"split_indices":[3,105,96,86,96,6,104,89,107,86,87,61,24,73,68,53,96,88,3,87,99,1,100,27,38,0,0,53,45,81,70,100,69,75,87,50,3,51,104,53,104,12,51,52,18,7,38,86,66,82,12,81,50,11,0,107,68,27,0,0,0,0,0,0,0,0,0,0,0,0,0,0,0,0,0,0,0,0,0,0,0,0,0,0,0,0,0,0,0,0,0,0,0,0,0,0,0,0,0,0,0,0,0,0,0,0,0,0,0,0,0,0,0],"split_type":[0,0,0,0,0,0,0,0,0,0,0,0,0,0,0,0,0,0,0,0,0,0,0,0,0,0,0,0,0,0,0,0,0,0,0,0,0,0,0,0,0,0,0,0,0,0,0,0,0,0,0,0,0,0,0,0,0,0,0,0,0,0,0,0,0,0,0,0,0,0,0,0,0,0,0,0,0,0,0,0,0,0,0,0,0,0,0,0,0,0,0,0,0,0,0,0,0,0,0,0,0,0,0,0,0,0,0,0,0,0,0,0,0],"sum_hessian":[3.410231E4,3.074613E4,3.3561763E3,2.010803E4,1.0638103E4,1.1368936E3,2.2192827E3,3.928811E3,1.6179218E4,5.937355E3,4.7007476E3,1.1225079E3,1.4385702E1,5.435537E2,1.6757291E3,1.6180266E3,2.3107844E3,1.0774911E4,5.404307E3,1.3782688E3,4.559086E3,2.2191145E3,2.4816333E3,7.111813E2,4.1132663E2,7.561265E0,6.824437E0,5.0592465E2,3.7629055E1,1.0241573E3,6.515718E2,6.356615E2,9.8236505E2,1.436876E3,8.7390845E2,8.199876E3,2.575035E3,7.2180414E2,4.682503E3,7.940276E2,5.842412E2,2.9117063E3,1.6473798E3,1.3649119E3,8.542027E2,6.48863E2,1.8327704E3,6.985725E2,1.2608723E1,3.4389502E2,6.743161E1,2.4763405E2,2.582906E2,1.7533064E1,2.0095993E1,9.7898004E2,4.5177265E1,6.4594037E2,5.631404E0,3.4847678E2,2.8718472E2,9.362319E2,4.6133198E1,1.0838889E3,3.529871E2,4.9628848E2,3.7761996E2,7.919098E3,2.8077762E2,2.2043439E2,2.3546003E3,6.874749E2,3.4329185E1,2.083942E3,2.598561E3,4.1027533E2,3.8375223E2,1.7205412E2,4.1218707E2,2.779431E3,1.322753E2,4.5640735E2,1.1909724E3,1.2243768E3,1.4053496E2,7.642516E2,8.995108E1,5.8084534E2,6.80176E1,1.4076257E3,4.2514456E2,7.4155E1,6.2441754E2,5.4503407E0,7.1583815E0,3.1948776E2,2.4407267E1,4.3900894E1,2.3530716E1,1.4785898E2,9.977508E1,1.9893594E2,5.935465E1,9.09066E0,8.442403E0,1.0653944E1,9.442049E0,5.4608875E2,4.328913E2,1.4697518E1,3.0479746E1,3.2575015E2,3.2019025E2],"tree_param":{"num_deleted":"0","num_feature":"108","num_nodes":"113","size_leaf_vector":"1"}},{"base_weights":[3.197455E-3,5.4901388E-2,-3.9979348E-1,1.325948E-1,-1.1074236E-1,-2.5620192E-1,-4.766923E-1,2.9019687E-1,4.171875E-2,2.3138795E-2,-2.6221666E-1,-9.339603E-2,-3.372455E-1,-6.3351077E-1,-4.376216E-1,3.3114037E-1,-2.5380048E-1,7.8430906E-2,-2.0943129E-1,1.098773E-1,-1.8936774E-1,-1.1059176E-1,-3.269451E-1,3.834874E-1,-1.5213174E-1,3.851306E-2,-3.4732226E-1,-6.520413E-1,-7.924985E-2,-3.5405126E-1,-5.1606655E-1,-1.1010376E-1,3.7460965E-1,3.308786E-1,-2.8665152E-1,1.0411347E-1,-2.7871373E-1,-1.2812385E-1,-3.6359683E-1,1.748345E-1,-2.0757154E-1,-9.123811E-2,-2.8342038E-1,-1.9152848E-2,-2.9647657E-1,-2.9159012E-1,-5.229924E-1,8.197525E-1,-4.381686E-2,-1.7082061E-1,4.225935E-2,-2.4285099E-1,-4.4607693E-1,-6.063386E-1,-4.006843E-2,-2.3855185E-2,2.967456E-2,-3.0019006E-1,-5.0782853E-1,-4.3464586E-1,-6.020139E-1,-7.453792E-3,2.2261223E-2,2.1466006E-2,3.7832942E-3,5.525135E-2,-4.0861805E-6,-8.96818E-3,-2.2733474E-2,-1.0849129E-2,6.5773013E-3,8.518296E-2,-1.5472214E-2,-8.1062205E-3,1.1768644E-2,-1.4572397E-2,-2.5697786E-2,1.9510029E-2,4.2797136E-3,-5.4773656E-3,-2.2824422E-2,-2.2840893E-2,-2.9520122E-3,-7.0440355E-3,-1.8095287E-2,-5.1411875E-3,9.6463775E-3,-2.920835E-3,-2.1738654E-2,-1.2355674E-2,-2.1352764E-2,-2.9645387E-2,-1.630344E-2,7.3749915E-2,6.80354E-3,2.3300087E-2,-2.7783355E-2,2.500536E-4,-1.4132144E-2,-1.3417854E-2,5.0561137E-2,-3.0511033E-4,-2.4703143E-2,-1.2194061E-2,-3.152532E-2,-5.7976565E-4,-1.7164912E-2,-2.7654788E-2,-3.0702592E-3,-2.4076706E-2,-1.0775469E-2,-7.817722E-3,-3.1191131E-2],"categories":[],"categories_nodes":[],"categories_segments":[],"categories_sizes":[],"default_left":[0,0,0,0,0,0,0,0,0,0,0,0,0,0,0,0,0,0,0,0,0,0,0,0,0,0,0,0,0,0,0,0,0,0,0,0,0,0,0,0,0,0,0,0,0,0,0,0,0,0,0,0,0,0,0,0,0,0,0,0,0,0,0,0,0,0,0,0,0,0,0,0,0,0,0,0,0,0,0,0,0,0,0,0,0,0,0,0,0,0,0,0,0,0,0,0,0,0,0,0,0,0,0,0,0,0,0,0,0,0,0,0,0],"id":9,"left_children":[1,3,5,7,9,11,13,15,17,19,21,23,25,27,29,31,33,35,37,39,41,43,45,47,49,-1,51,53,55,57,59,61,63,65,67,69,71,73,75,77,79,81,83,85,87,89,91,93,95,97,-1,99,101,103,-1,-1,-1,105,107,109,111,-1,-1,-1,-1,-1,-1,-1,-1,-1,-1,-1,-1,-1,-1,-1,-1,-1,-1,-1,-1,-1,-1,-1,-1,-1,-1,-1,-1,-1,-1,-1,-1,-1,-1,-1,-1,-1,-1,-1,-1,-1,-1,-1,-1,-1,-1,-1,-1,-1,-1,-1,-1],"loss_changes":[7.115479E2,3.89525E2,4.2756165E1,2.9507303E2,1.9598904E2,1.7866333E1,1.5210205E1,1.6791394E2,1.20517715E2,9.459546E1,4.446454E1,1.2724738E1,1.0370369E1,5.103485E0,1.3104279E1,1.344602E2,1.0236145E1,1.04623215E2,2.0849365E1,7.5183395E1,1.3703617E1,2.3077253E1,2.186914E1,9.333136E0,7.662052E0,0E0,9.154221E0,2.8278198E0,4.933972E0,8.001968E0,7.0390015E0,1.3685014E1,1.0431171E2,7.3154635E0,8.939514E0,9.3741E1,4.714697E1,1.3546179E1,6.0887375E0,5.812014E1,1.5065481E1,8.559773E0,8.441261E0,1.6191607E1,1.4714359E1,1.6125824E1,6.4726257E0,1.0877146E1,7.081369E0,7.801792E0,0E0,1.4296316E1,9.715706E0,3.1388245E0,0E0,0E0,0E0,9.097504E0,5.0977097E0,5.437889E0,4.810013E0,0E0,0E0,0E0,0E0,0E0,0E0,0E0,0E0,0E0,0E0,0E0,0E0,0E0,0E0,0E0,0E0,0E0,0E0,0E0,0E0,0E0,0E0,0E0,0E0,0E0,0E0,0E0,0E0,0E0,0E0,0E0,0E0,0E0,0E0,0E0,0E0,0E0,0E0,0E0,0E0,0E0,0E0,0E0,0E0,0E0,0E0,0E0,0E0,0E0,0E0,0E0,0E0],"parents":[2147483647,0,0,1,1,2,2,3,3,4,4,5,5,6,6,7,7,8,8,9,9,10,10,11,11,12,12,13,13,14,14,15,15,16,16,17,17,18,18,19,19,20,20,21,21,22,22,23,23,24,24,26,26,27,27,28,28,29,29,30,30,31,31,32,32,33,33,34,34,35,35,36,36,37,37,38,38,39,39,40,40,41,41,42,42,43,43,44,44,45,45,46,46,47,47,48,48,49,49,51,51,52,52,53,53,57,57,58,58,59,59,60,60],"right_children":[2,4,6,8,10,12,14,16,18,20,22,24,26,28,30,32,34,36,38,40,42,44,46,48,50,-1,52,54,56,58,60,62,64,66,68,70,72,74,76,78,80,82,84,86,88,90,92,94,96,98,-1,100,102,104,-1,-1,-1,106,108,110,112,-1,-1,-1,-1,-1,-1,-1,-1,-1,-1,-1,-1,-1,-1,-1,-1,-1,-1,-1,-1,-1,-1,-1,-1,-1,-1,-1,-1,-1,-1,-1,-1,-1,-1,-1,-1,-1,-1,-1,-1,-1,-1,-1,-1,-1,-1,-1,-1,-1,-1,-1,-1],"split_conditions":[3.7166668E1,1E0,1E0,3.31E1,1E0,1.04E2,7.4E0,1.9E0,1E0,1E0,1E0,3.6705555E1,7E0,1.1775E2,2.4E1,1.6666666E0,3.4E0,1E0,7.2E1,1E0,1E0,1.04E1,2E0,1.07E2,3.05E1,3.851306E-2,9.746667E1,1E0,1.69E2,1E0,3.4E1,2.49E2,1E0,8.3E0,1.0675E2,3.71E1,3.8E0,3.18E2,1.2133333E1,5.8E0,7.3E1,3.3E0,1.12E2,1.2E2,5.8E1,1E0,2.22E2,8.2E0,1.07666664E2,8.5E0,4.225935E-2,9.6E1,2.61E1,7.6E0,-4.006843E-2,-2.3855185E-2,2.967456E-2,2.54E1,2.3E0,3.1333334E1,3.651852E1,-7.453792E-3,2.2261223E-2,2.1466006E-2,3.7832942E-3,5.525135E-2,-4.0861805E-6,-8.96818E-3,-2.2733474E-2,-1.0849129E-2,6.5773013E-3,8.518296E-2,-1.5472214E-2,-8.1062205E-3,1.1768644E-2,-1.4572397E-2,-2.5697786E-2,1.9510029E-2,4.2797136E-3,-5.4773656E-3,-2.2824422E-2,-2.2840893E-2,-2.9520122E-3,-7.0440355E-3,-1.8095287E-2,-5.1411875E-3,9.6463775E-3,-2.920835E-3,-2.1738654E-2,-1.2355674E-2,-2.1352764E-2,-2.9645387E-2,-1.630344E-2,7.3749915E-2,6.80354E-3,2.3300087E-2,-2.7783355E-2,2.500536E-4,-1.4132144E-2,-1.3417854E-2,5.0561137E-2,-3.0511033E-4,-2.4703143E-2,-1.2194061E-2,-3.152532E-2,-5.7976565E-4,-1.7164912E-2,-2.7654788E-2,-3.0702592E-3,-2.4076706E-2,-1.0775469E-2,-7.817722E-3,-3.1191131E-2],"split_indices":[9,87,96,29,96,74,71,32,106,98,100,13,25,49,3,55,86,101,1,106,99,40,32,28,45,0,12,106,81,106,29,28,106,25,49,9,36,35,53,86,1,82,28,51,1,106,81,40,49,40,0,16,29,53,0,0,0,75,79,52,13,0,0,0,0,0,0,0,0,0,0,0,0,0,0,0,0,0,0,0,0,0,0,0,0,0,0,0,0,0,0,0,0,0,0,0,0,0,0,0,0,0,0,0,0,0,0,0,0,0,0,0,0],"split_type":[0,0,0,0,0,0,0,0,0,0,0,0,0,0,0,0,0,0,0,0,0,0,0,0,0,0,0,0,0,0,0,0,0,0,0,0,0,0,0,0,0,0,0,0,0,0,0,0,0,0,0,0,0,0,0,0,0,0,0,0,0,0,0,0,0,0,0,0,0,0,0,0,0,0,0,0,0,0,0,0,0,0,0,0,0,0,0,0,0,0,0,0,0,0,0,0,0,0,0,0,0,0,0,0,0,0,0,0,0,0,0,0,0],"sum_hessian":[3.4147523E4,3.026533E4,3.8821929E3,2.0602262E4,9.663067E3,1.3554747E3,2.526718E3,7.534074E3,1.30681875E4,5.1298643E3,4.533203E3,4.5120853E2,9.0426624E2,5.0092694E2,2.0257911E3,7.0070835E3,5.269909E2,1.1402152E4,1.6660353E3,3.6432761E3,1.4865881E3,1.3570507E3,3.1761523E3,4.887297E1,4.0233557E2,7.473174E0,8.967931E2,4.8455063E2,1.637631E1,9.83522E2,1.0422692E3,6.2826056E2,6.3788228E3,2.755199E1,4.9943893E2,1.0637882E4,7.642704E2,1.0919618E3,5.740735E2,3.024786E3,6.1849023E2,7.284898E2,7.580983E2,9.1034454E2,4.467061E2,2.6929888E3,4.831637E2,2.372847E1,2.5144499E1,3.9574832E2,6.587254E0,4.3746436E2,4.593287E2,3.7487723E2,1.096734E2,1.0473293E1,5.9030175E0,7.3058374E2,2.5293823E2,5.3833984E2,5.0392938E2,5.8774506E2,4.0515488E1,5.391648E3,9.871748E2,7.550885E0,2.0001104E1,3.0606714E2,1.9337178E2,8.367598E2,9.801122E3,1.0835758E1,7.5343463E2,9.990657E2,9.2896095E1,3.8991382E2,1.8415967E2,8.851807E2,2.139605E3,4.4477612E2,1.737141E2,5.7899685E1,6.7059015E2,2.7019104E2,4.8790726E2,6.531687E2,2.5717587E2,1.6466998E2,2.820361E2,2.0294825E3,6.635062E2,3.5508438E2,1.2807932E2,1.1525198E1,1.2203272E1,1.2642127E1,1.2502373E1,1.5421945E2,2.4152885E2,4.2951465E2,7.949709E0,4.5281082E1,4.1404764E2,2.412672E1,3.5075052E2,9.511166E1,6.354721E2,2.2943465E2,2.3503592E1,4.4246826E2,9.587155E1,2.3890854E1,4.800385E2],"tree_param":{"num_deleted":"0","num_feature":"108","num_nodes":"113","size_leaf_vector":"1"}},{"base_weights":[-4.428893E-4,4.9433067E-2,-3.9189598E-1,1.4021489E-1,-1.2736295E-1,-2.3701003E-1,-4.5801175E-1,7.363824E-2,3.1090438E-1,-1.42029105E-2,-2.1791089E-1,-3.2872885E-2,-2.8242242E-1,-3.6111063E-1,-5.225792E-1,1.4273027E-1,-6.851926E-2,4.657875E-1,1.0784379E-1,2.2609077E-1,-6.179641E-2,-1.2818153E-1,-3.1802833E-1,-1.3914596E-1,3.4459254E-1,-8.575533E-2,-3.272311E-1,-2.6022962E-1,-5.01423E-1,-4.8268172E-1,-6.8511635E-1,1.1656451E-2,2.8769082E-1,-3.5636708E-1,-2.932141E-2,8.532074E-1,3.231599E-1,2.89434E-1,-6.4519932E-3,1.0801722E-1,4.8877516E-1,2.3119153E-2,-1.4605096E-1,1.5639108E-1,-1.6684826E-1,-3.4420723E-1,1.4183684E-1,-2.0386627E-1,4.400931E-2,3.8467478E-2,8.330576E-1,6.213437E-1,-1.8267615E-1,-3.4119102E-1,4.8214337E-1,-1.4042251E-1,-3.9028946E-1,-6.6020757E-1,-3.744427E-1,-4.2132092E-1,-5.665821E-1,-7.231327E-1,-4.9013945E-1,-3.3863657E-3,1.5072793E-2,1.33770285E-2,6.25327E-2,-2.7003593E-3,-2.1079885E-2,1.6515693E-3,-7.007967E-3,6.951439E-2,2.8049728E-2,-1.1827396E-2,1.855433E-2,1.2122812E-2,4.348781E-2,8.225287E-3,-4.764946E-3,-1.9974455E-3,1.3405754E-2,3.5554674E-2,-8.157576E-5,2.2251187E-3,-2.4133045E-2,-3.85347E-3,-1.2518751E-2,2.3340536E-3,2.7191887E-2,5.5316027E-4,-1.14892265E-2,-2.9369164E-2,-1.5539986E-2,1.1395281E-2,-3.0424505E-2,-1.4922208E-2,2.0853223E-2,1.7715892E-2,-2.7096901E-2,6.1228643E-3,8.2340084E-2,-2.809216E-2,5.4826517E-2,-2.2602063E-2,7.0742085E-3,-1.8893681E-2,-6.9974847E-3,5.746429E-2,-1.00800805E-2,2.684235E-2,-8.887624E-3,9.943234E-3,-2.0798132E-2,-1.815731E-2,-3.509457E-2,-1.1529491E-2,-2.8929858E-2,-1.3647283E-2,-2.3896048E-2,-2.8930852E-2,2.4866948E-2,-3.733541E-2,-1.983836E-2,-3.559519E-2,-9.484305E-3],"categories":[],"categories_nodes":[],"categories_segments":[],"categories_sizes":[],"default_left":[0,0,0,0,0,0,0,0,0,0,0,0,0,0,0,0,0,0,0,0,0,0,0,0,0,0,0,0,0,0,0,0,0,0,0,0,0,0,0,0,0,0,0,0,0,0,0,0,0,0,0,0,0,0,0,0,0,0,0,0,0,0,0,0,0,0,0,0,0,0,0,0,0,0,0,0,0,0,0,0,0,0,0,0,0,0,0,0,0,0,0,0,0,0,0,0,0,0,0,0,0,0,0,0,0,0,0,0,0,0,0,0,0,0,0,0,0,0,0,0,0,0,0,0,0],"id":10,"left_children":[1,3,5,7,9,11,13,15,17,19,21,23,25,27,29,31,33,35,37,39,41,43,45,47,49,51,53,55,57,59,61,63,65,67,69,71,73,75,77,79,81,83,85,87,89,91,93,95,-1,97,99,101,103,105,107,109,111,113,115,117,119,121,123,-1,-1,-1,-1,-1,-1,-1,-1,-1,-1,-1,-1,-1,-1,-1,-1,-1,-1,-1,-1,-1,-1,-1,-1,-1,-1,-1,-1,-1,-1,-1,-1,-1,-1,-1,-1,-1,-1,-1,-1,-1,-1,-1,-1,-1,-1,-1,-1,-1,-1,-1,-1,-1,-1,-1,-1,-1,-1,-1,-1,-1,-1],"loss_changes":[6.6783856E2,4.8697333E2,3.9477844E1,2.2779047E2,1.0547453E2,1.0730911E1,1.6755249E1,1.416735E2,1.7685571E2,5.2356026E1,5.132962E1,8.55069E0,8.322479E0,1.5244003E1,1.0194153E1,1.8441978E2,5.322251E1,1.7603076E2,5.0544388E1,2.3421692E1,2.7340374E1,3.322674E1,3.2578003E1,1.1137862E1,6.97408E0,1.2256928E1,8.880386E0,9.823406E0,8.8908E0,6.4874268E0,1.9989014E0,1.1730859E2,8.90965E1,1.1128288E1,2.8710335E1,1.3386853E2,6.268982E1,2.5434647E1,2.273093E1,1.2410342E1,2.5558716E1,2.0612206E1,1.3783985E1,1.5338747E1,2.9751328E1,2.0588562E1,9.58301E0,9.344694E0,0E0,5.6643953E0,1.0208279E1,1.2752957E1,1.3738314E1,5.549408E0,6.3869333E0,8.477608E0,4.6718636E0,2.2226105E0,7.330204E0,6.239609E0,7.317154E0,1.731781E0,3.5233908E0,0E0,0E0,0E0,0E0,0E0,0E0,0E0,0E0,0E0,0E0,0E0,0E0,0E0,0E0,0E0,0E0,0E0,0E0,0E0,0E0,0E0,0E0,0E0,0E0,0E0,0E0,0E0,0E0,0E0,0E0,0E0,0E0,0E0,0E0,0E0,0E0,0E0,0E0,0E0,0E0,0E0,0E0,0E0,0E0,0E0,0E0,0E0,0E0,0E0,0E0,0E0,0E0,0E0,0E0,0E0,0E0,0E0,0E0,0E0,0E0,0E0,0E0],"parents":[2147483647,0,0,1,1,2,2,3,3,4,4,5,5,6,6,7,7,8,8,9,9,10,10,11,11,12,12,13,13,14,14,15,15,16,16,17,17,18,18,19,19,20,20,21,21,22,22,23,23,24,24,25,25,26,26,27,27,28,28,29,29,30,30,31,31,32,32,33,33,34,34,35,35,36,36,37,37,38,38,39,39,40,40,41,41,42,42,43,43,44,44,45,45,46,46,47,47,49,49,50,50,51,51,52,52,53,53,54,54,55,55,56,56,57,57,58,58,59,59,60,60,61,61,62,62],"right_children":[2,4,6,8,10,12,14,16,18,20,22,24,26,28,30,32,34,36,38,40,42,44,46,48,50,52,54,56,58,60,62,64,66,68,70,72,74,76,78,80,82,84,86,88,90,92,94,96,-1,98,100,102,104,106,108,110,112,114,116,118,120,122,124,-1,-1,-1,-1,-1,-1,-1,-1,-1,-1,-1,-1,-1,-1,-1,-1,-1,-1,-1,-1,-1,-1,-1,-1,-1,-1,-1,-1,-1,-1,-1,-1,-1,-1,-1,-1,-1,-1,-1,-1,-1,-1,-1,-1,-1,-1,-1,-1,-1,-1,-1,-1,-1,-1,-1,-1,-1,-1,-1,-1,-1,-1],"split_conditions":[2.4E1,1E0,1E0,1E0,1E0,1.31E2,1E0,1E0,1E0,3.02E1,1.03E1,7.8E1,1.00333336E2,1.675E0,3.94E1,1E0,2.3E1,2.8E1,1E0,1E0,6.3E1,1E0,4.1E0,2.6E0,2.7E1,1.0666667E0,5.4E0,1.23333336E2,8.1E1,1E0,2.71E2,1.2E0,6E0,8.8E0,3.48E1,1E0,2.3E1,4E0,1E0,1E0,1.36E1,9.840909E1,3.6E1,1.41E2,1E0,7.94E0,3.135E2,1.7E0,4.400931E-2,1.0575E2,8.1E1,1.2333333E0,9.66E1,3.49E1,2.7E1,2.4E1,6.6E1,2.5633333E1,4.3E0,9.025E0,1.71E2,1.57E1,4E0,-3.3863657E-3,1.5072793E-2,1.33770285E-2,6.25327E-2,-2.7003593E-3,-2.1079885E-2,1.6515693E-3,-7.007967E-3,6.951439E-2,2.8049728E-2,-1.1827396E-2,1.855433E-2,1.2122812E-2,4.348781E-2,8.225287E-3,-4.764946E-3,-1.9974455E-3,1.3405754E-2,3.5554674E-2,-8.157576E-5,2.2251187E-3,-2.4133045E-2,-3.85347E-3,-1.2518751E-2,2.3340536E-3,2.7191887E-2,5.5316027E-4,-1.14892265E-2,-2.9369164E-2,-1.5539986E-2,1.1395281E-2,-3.0424505E-2,-1.4922208E-2,2.0853223E-2,1.7715892E-2,-2.7096901E-2,6.1228643E-3,8.2340084E-2,-2.809216E-2,5.4826517E-2,-2.2602063E-2,7.0742085E-3,-1.8893681E-2,-6.9974847E-3,5.746429E-2,-1.00800805E-2,2.684235E-2,-8.887624E-3,9.943234E-3,-2.0798132E-2,-1.815731E-2,-3.509457E-2,-1.1529491E-2,-2.8929858E-2,-1.3647283E-2,-2.3896048E-2,-2.8930852E-2,2.4866948E-2,-3.733541E-2,-1.983836E-2,-3.559519E-2,-9.484305E-3],"split_indices":[2,105,104,88,89,7,92,107,100,29,30,1,49,55,29,97,3,67,97,88,1,90,73,79,4,54,27,51,15,107,58,73,73,53,29,104,3,18,89,73,83,12,29,85,104,48,58,77,0,49,15,55,12,84,2,29,15,52,34,53,6,53,34,0,0,0,0,0,0,0,0,0,0,0,0,0,0,0,0,0,0,0,0,0,0,0,0,0,0,0,0,0,0,0,0,0,0,0,0,0,0,0,0,0,0,0,0,0,0,0,0,0,0,0,0,0,0,0,0,0,0,0,0,0,0],"split_type":[0,0,0,0,0,0,0,0,0,0,0,0,0,0,0,0,0,0,0,0,0,0,0,0,0,0,0,0,0,0,0,0,0,0,0,0,0,0,0,0,0,0,0,0,0,0,0,0,0,0,0,0,0,0,0,0,0,0,0,0,0,0,0,0,0,0,0,0,0,0,0,0,0,0,0,0,0,0,0,0,0,0,0,0,0,0,0,0,0,0,0,0,0,0,0,0,0,0,0,0,0,0,0,0,0,0,0,0,0,0,0,0,0,0,0,0,0,0,0,0,0,0,0,0,0],"sum_hessian":[3.420387E4,3.033916E4,3.8647097E3,2.0046053E4,1.0293108E4,1.1575533E3,2.7071562E3,1.4422179E4,5.623873E3,4.575788E3,5.717321E3,2.1096228E2,9.465911E2,1.085164E3,1.6219923E3,9.705207E3,4.716972E3,3.1896753E3,2.4341978E3,7.5584906E2,3.819939E3,3.016284E3,2.7010366E3,1.651084E2,4.5853886E1,1.761919E2,7.7039923E2,6.329463E2,4.5221762E2,1.305504E3,3.1648825E2,5.097296E3,4.607911E3,5.643798E2,4.1525923E3,8.5695184E2,2.3327234E3,9.396978E2,1.4945E3,5.2243286E2,2.3341621E2,1.902868E3,1.9170709E3,3.6045145E2,2.6558325E3,2.5557937E3,1.4524297E2,1.560033E2,9.105098E0,2.8851294E1,1.7002592E1,2.0586853E1,1.5560504E2,7.5790546E2,1.249373E1,3.3054144E2,3.0240485E2,1.99078E2,2.5313963E2,7.575149E2,5.479892E2,2.625815E2,5.3906742E1,4.001849E3,1.0954467E3,4.5147173E3,9.3193794E1,1.00476135E2,4.6390372E2,2.6580093E3,1.494583E3,3.0063467E2,5.563172E2,1.8368132E2,2.149042E3,8.7063654E2,6.906126E1,5.1079178E2,9.8370825E2,2.7189328E2,2.5053958E2,1.6029771E2,7.311849E1,1.8265574E3,7.631065E1,1.1550579E3,7.62013E2,2.8178207E2,7.866938E1,6.9421497E2,1.9616177E3,3.0670197E2,2.2490918E3,1.3092143E2,1.43215275E1,1.3583307E2,2.0170229E1,1.893604E1,9.915252E0,9.690698E0,7.311894E0,5.8466573E0,1.4740197E1,8.476991E1,7.083512E1,6.403108E2,1.1759467E2,5.979021E0,6.5147085E0,1.6568146E1,3.139733E2,1.2345753E1,2.9005908E2,2.5692343E1,1.7338565E2,1.4975066E2,1.0338898E2,2.107811E2,5.4673376E2,5.423108E2,5.6784163E0,2.4369028E2,1.8891247E1,3.022688E1,2.3679863E1],"tree_param":{"num_deleted":"0","num_feature":"108","num_nodes":"125","size_leaf_vector":"1"}},{"base_weights":[2.5314675E-3,4.5560133E-2,-4.145458E-1,1.1813006E-1,-1.0781057E-1,-2.6394036E-1,-4.942889E-1,3.2758757E-1,6.2166724E-2,2.1094954E-2,-2.523236E-1,-1.7067751E-1,-3.6901394E-1,-4.1655532E-1,-5.5201095E-1,4.4304505E-1,1.3811913E-1,-2.2476622E-1,9.498015E-2,1.0024691E-1,-1.7563403E-1,-9.4300285E-2,-3.3243555E-1,-2.3919809E-1,2.9275434E-3,2.509622E-1,-4.066636E-1,-4.365729E-1,2.210216E-1,-5.077153E-1,-6.507074E-1,6.3116163E-1,3.123549E-1,2.2548309E-1,-3.7277732E-2,-4.5112662E-2,-3.1442702E-1,1.1888878E-1,-2.5816122E-1,2.7355054E-1,1.8378058E-2,-1.2986046E-1,-4.282561E-1,1.0008271E0,-1.1364584E-1,-1.2920915E-1,-3.8853404E-1,9.0839244E-2,-2.8230843E-1,2.861949E-1,-1.6613996E-1,4.944539E-2,-1.3538899E-1,-4.3188748E-1,3.587744E-1,-4.751566E-1,-2.2845766E-1,-2.4598781E-2,4.781626E-1,-8.06089E-2,-5.2577883E-1,-6.7581403E-1,-5.1583663E-2,4.4410773E-2,2.4977984E-2,2.4139993E-2,9.974974E-3,9.602057E-3,4.618694E-2,9.4343275E-3,-6.2096505E-3,4.9261847E-3,-1.0715984E-2,-2.22304E-2,-1.1074036E-2,9.641985E-3,2.0902758E-3,4.9490202E-2,-1.5022494E-2,2.0913897E-2,4.073439E-3,8.782896E-3,-2.5040058E-3,4.3250616E-3,-8.632782E-3,-2.4280546E-2,4.5349594E-4,9.848994E-2,1.774405E-2,-2.7677702E-4,-1.2527108E-2,-2.334946E-2,-4.0355283E-3,-1.3783084E-2,-2.284829E-2,2.131373E-2,-1.5456768E-2,-1.54852E-2,1.6256033E-2,4.4302516E-2,2.2312887E-3,-1.624116E-2,1.5902074E-2,-3.756868E-2,1.1709481E-2,-1.3762585E-2,-2.5191683E-2,4.6820305E-2,-1.4337465E-2,-1.9582756E-2,-2.8498966E-2,-1.5688967E-2,2.5752699E-2,5.295186E-2,-5.703119E-3,4.919698E-3,-4.2507272E-2,-2.3254666E-2,-3.1354938E-2,-4.2487264E-2,-3.0840382E-2,1.6692402E-2,-2.4422636E-2],"categories":[],"categories_nodes":[],"categories_segments":[],"categories_sizes":[],"default_left":[0,0,0,0,0,0,0,0,0,0,0,0,0,0,0,0,0,0,0,0,0,0,0,0,0,0,0,0,0,0,0,0,0,0,0,0,0,0,0,0,0,0,0,0,0,0,0,0,0,0,0,0,0,0,0,0,0,0,0,0,0,0,0,0,0,0,0,0,0,0,0,0,0,0,0,0,0,0,0,0,0,0,0,0,0,0,0,0,0,0,0,0,0,0,0,0,0,0,0,0,0,0,0,0,0,0,0,0,0,0,0,0,0,0,0,0,0,0,0,0,0,0,0],"id":11,"left_children":[1,3,5,7,9,11,13,15,17,19,21,23,25,27,29,31,33,35,37,39,41,43,45,47,49,51,53,55,57,59,61,63,65,67,69,71,73,75,77,79,81,83,85,87,89,91,93,95,97,99,101,-1,103,105,107,109,111,-1,113,115,117,119,121,-1,-1,-1,-1,-1,-1,-1,-1,-1,-1,-1,-1,-1,-1,-1,-1,-1,-1,-1,-1,-1,-1,-1,-1,-1,-1,-1,-1,-1,-1,-1,-1,-1,-1,-1,-1,-1,-1,-1,-1,-1,-1,-1,-1,-1,-1,-1,-1,-1,-1,-1,-1,-1,-1,-1,-1,-1,-1,-1,-1],"loss_changes":[6.125479E2,3.4438068E2,3.8204956E1,2.4617566E2,1.8513982E2,1.0786728E1,9.12915E0,9.6808136E1,1.5608682E2,8.1825294E1,5.9285492E1,7.000183E0,1.2234268E1,1.1492645E1,4.8892517E0,6.7437256E1,2.5723331E1,2.7391144E1,1.2562601E2,5.3158146E1,1.73783E1,3.353811E1,3.5393036E1,6.0285473E0,8.0696535E0,8.794036E0,9.622993E0,6.845932E0,5.340374E0,6.3504944E0,5.4750214E0,3.7673615E1,3.1166885E1,2.5983559E1,1.0998474E1,1.3815958E1,1.3632088E1,7.941467E1,5.009371E1,3.3383904E1,2.7420738E1,1.1846735E1,5.794525E0,1.6505789E1,2.2956028E1,1.1004065E1,1.8688599E1,6.772992E0,6.314501E0,9.086031E0,8.211403E0,0E0,4.914981E0,5.216461E0,6.3056E0,5.5543823E0,8.876708E0,0E0,7.335221E0,4.8778663E0,4.5954437E0,3.0831757E0,2.8260903E0,0E0,0E0,0E0,0E0,0E0,0E0,0E0,0E0,0E0,0E0,0E0,0E0,0E0,0E0,0E0,0E0,0E0,0E0,0E0,0E0,0E0,0E0,0E0,0E0,0E0,0E0,0E0,0E0,0E0,0E0,0E0,0E0,0E0,0E0,0E0,0E0,0E0,0E0,0E0,0E0,0E0,0E0,0E0,0E0,0E0,0E0,0E0,0E0,0E0,0E0,0E0,0E0,0E0,0E0,0E0,0E0,0E0,0E0,0E0,0E0],"parents":[2147483647,0,0,1,1,2,2,3,3,4,4,5,5,6,6,7,7,8,8,9,9,10,10,11,11,12,12,13,13,14,14,15,15,16,16,17,17,18,18,19,19,20,20,21,21,22,22,23,23,24,24,25,25,26,26,27,27,28,28,29,29,30,30,31,31,32,32,33,33,34,34,35,35,36,36,37,37,38,38,39,39,40,40,41,41,42,42,43,43,44,44,45,45,46,46,47,47,48,48,49,49,50,50,52,52,53,53,54,54,55,55,56,56,58,58,59,59,60,60,61,61,62,62],"right_children":[2,4,6,8,10,12,14,16,18,20,22,24,26,28,30,32,34,36,38,40,42,44,46,48,50,52,54,56,58,60,62,64,66,68,70,72,74,76,78,80,82,84,86,88,90,92,94,96,98,100,102,-1,104,106,108,110,112,-1,114,116,118,120,122,-1,-1,-1,-1,-1,-1,-1,-1,-1,-1,-1,-1,-1,-1,-1,-1,-1,-1,-1,-1,-1,-1,-1,-1,-1,-1,-1,-1,-1,-1,-1,-1,-1,-1,-1,-1,-1,-1,-1,-1,-1,-1,-1,-1,-1,-1,-1,-1,-1,-1,-1,-1,-1,-1,-1,-1,-1,-1,-1,-1],"split_conditions":[2.4E1,1E0,1E0,6.1E0,1E0,1E0,1E0,3.33E1,2.3E1,1E0,1E0,9.8E1,1.2E2,4.34E2,5.9E1,6.2E1,1E0,9E0,1E0,6E0,1.35E1,6.8E1,1E0,8.325E0,1.06E2,1.36E1,5E0,2.725E1,1.34E1,1.3025E2,5.1E1,1E0,1E0,3.4E0,1.9E0,6.9E1,1.76E2,1E0,7E0,6.3E1,3.1E1,9.2E1,5.05E2,2E1,6.8E1,2.2E1,7.7E0,1.12E2,3.9E0,7.2E-1,1.4E1,4.944539E-2,3.3033333E1,2.9733334E1,2.7E1,3.688889E1,2.2E0,-2.4598781E-2,1.0325E2,1.2592E2,1E0,9.5E0,1.385E2,4.4410773E-2,2.4977984E-2,2.4139993E-2,9.974974E-3,9.602057E-3,4.618694E-2,9.4343275E-3,-6.2096505E-3,4.9261847E-3,-1.0715984E-2,-2.22304E-2,-1.1074036E-2,9.641985E-3,2.0902758E-3,4.9490202E-2,-1.5022494E-2,2.0913897E-2,4.073439E-3,8.782896E-3,-2.5040058E-3,4.3250616E-3,-8.632782E-3,-2.4280546E-2,4.5349594E-4,9.848994E-2,1.774405E-2,-2.7677702E-4,-1.2527108E-2,-2.334946E-2,-4.0355283E-3,-1.3783084E-2,-2.284829E-2,2.131373E-2,-1.5456768E-2,-1.54852E-2,1.6256033E-2,4.4302516E-2,2.2312887E-3,-1.624116E-2,1.5902074E-2,-3.756868E-2,1.1709481E-2,-1.3762585E-2,-2.5191683E-2,4.6820305E-2,-1.4337465E-2,-1.9582756E-2,-2.8498966E-2,-1.5688967E-2,2.5752699E-2,5.295186E-2,-5.703119E-3,4.919698E-3,-4.2507272E-2,-2.3254666E-2,-3.1354938E-2,-4.2487264E-2,-3.0840382E-2,1.6692402E-2,-2.4422636E-2],"split_indices":[3,87,96,40,96,92,87,75,3,98,89,15,7,58,44,1,107,40,101,86,86,35,104,53,74,83,82,45,37,62,4,89,104,27,79,1,81,91,24,1,29,28,35,24,1,3,40,74,41,50,83,0,61,52,4,13,50,0,49,11,107,40,42,0,0,0,0,0,0,0,0,0,0,0,0,0,0,0,0,0,0,0,0,0,0,0,0,0,0,0,0,0,0,0,0,0,0,0,0,0,0,0,0,0,0,0,0,0,0,0,0,0,0,0,0,0,0,0,0,0,0,0,0],"split_type":[0,0,0,0,0,0,0,0,0,0,0,0,0,0,0,0,0,0,0,0,0,0,0,0,0,0,0,0,0,0,0,0,0,0,0,0,0,0,0,0,0,0,0,0,0,0,0,0,0,0,0,0,0,0,0,0,0,0,0,0,0,0,0,0,0,0,0,0,0,0,0,0,0,0,0,0,0,0,0,0,0,0,0,0,0,0,0,0,0,0,0,0,0,0,0,0,0,0,0,0,0,0,0,0,0,0,0,0,0,0,0,0,0,0,0,0,0,0,0,0,0,0,0],"sum_hessian":[3.4130258E4,3.0939236E4,3.1910217E3,2.1002012E4,9.937225E3,1.1061744E3,2.0848472E3,4.427199E3,1.6574812E4,5.2526865E3,4.6845386E3,5.874133E2,5.187611E2,8.919223E2,1.1929249E3,2.750048E3,1.677151E3,1.7003618E3,1.4874451E4,3.7460078E3,1.5066786E3,1.5766748E3,3.1078638E3,4.209068E2,1.665065E2,2.9375174E1,4.8938596E2,8.650773E2,2.6845026E1,8.276254E2,3.652995E2,1.1257722E3,1.6242759E3,1.1193333E3,5.5781775E2,5.6658905E2,1.1337727E3,1.3931889E4,9.425632E2,1.2011078E3,2.5449E3,1.2768375E3,2.298411E2,2.6487997E1,1.5501868E3,6.730236E2,2.43484E3,4.850013E1,3.7240668E2,6.1975567E1,1.0453092E2,9.558487E0,1.9816687E1,4.741953E2,1.5190645E1,7.286968E2,1.3638046E2,6.873373E0,1.9971651E1,3.380395E1,7.938215E2,3.5048425E2,1.4815246E1,3.7924872E2,7.465235E2,6.4574005E2,9.785358E2,1.0693914E3,4.9941944E1,1.5463176E2,4.03186E2,3.066759E2,2.5991315E2,4.7071036E2,6.630624E2,7.1096465E3,6.8222417E3,3.0158566E1,9.124046E2,6.843184E2,5.1678937E2,7.7130115E2,1.7735989E3,2.1067853E2,1.0661589E3,2.0309502E2,2.6746078E1,9.775089E0,1.6712908E1,8.667411E2,6.834457E2,8.341699E1,5.896066E2,9.2090845E2,1.5139316E3,2.6342478E1,2.2157654E1,3.5680463E2,1.560205E1,1.702696E1,4.494861E1,7.897664E1,2.5554283E1,7.0437164E0,1.2772969E1,1.5077188E2,3.234234E2,7.779093E0,7.411553E0,3.9020773E2,3.3848904E2,1.2285969E2,1.3520783E1,9.684514E0,1.0287138E1,2.8132217E1,5.6717315E0,4.9996063E2,2.9386084E2,8.5388016E1,2.6509625E2,7.996276E0,6.8189697E0],"tree_param":{"num_deleted":"0","num_feature":"108","num_nodes":"123","size_leaf_vector":"1"}},{"base_weights":[6.633311E-4,4.1774876E-2,-4.1107923E-1,1.269695E-1,-9.6568234E-2,-2.6290247E-1,-4.8975122E-1,5.6610607E-2,3.2315287E-1,9.402752E-3,-2.6047128E-1,-2.1994443E-1,-5.1694566E-1,-3.519769E-1,-5.3546095E-1,9.372045E-2,-1.7904988E-1,5.862556E-1,2.4398582E-1,5.9608635E-2,-2.4467942E-1,-1.1276613E-1,-3.2638168E-1,-2.4491893E-1,2.6311037E-1,-5.498859E-1,1.0717588E-2,-4.1752407E-1,9.484729E-2,-4.8695242E-1,-6.0885525E-1,4.4879355E-2,3.0892748E-1,8.0766246E-2,-2.1729422E-1,1.0604466E0,3.651619E-1,2.884429E-1,-4.906451E-2,-2.1671152E-1,9.834325E-2,-2.1779813E-1,-6.331916E-1,-9.649198E-3,-2.7021754E-1,-1.7505038E-1,-3.889921E-1,-3.1054521E-2,-2.905813E-1,8.958708E-1,-1.374812E-1,-6.964219E-1,-3.9262143E-1,-2.969593E-1,-5.2587134E-1,6.624567E-1,-2.3992778E-1,2.2859544E-1,-4.9994713E-1,-3.8819334E-1,-6.456038E-1,5.413775E-3,-3.2208425E-3,2.1757519E-2,4.288092E-3,4.7739036E-2,1.6547841E-3,2.299212E-2,-1.1677717E-2,2.8700799E-2,6.829273E-2,3.548036E-2,8.138646E-3,1.8851537E-2,6.732423E-3,1.8729598E-3,-1.1537753E-2,-1.1792954E-2,2.8598735E-2,9.317681E-3,-3.5921767E-4,-9.715613E-3,-2.9450078E-2,2.0865998E-3,-3.5975274E-2,1.2851784E-3,-1.849396E-2,-2.2479562E-2,-9.151367E-3,-6.1547807E-3,-2.4491174E-2,-1.717281E-2,-2.6634613E-2,-1.4155002E-2,9.3076425E-3,-1.911314E-2,-9.056397E-3,9.850488E-2,6.3913763E-3,-1.8969472E-2,3.078994E-2,-4.1296016E-2,-1.3770317E-2,-1.3433508E-2,-3.8675122E-2,-1.814214E-2,6.2973658E-3,-3.0676255E-2,-1.8046953E-2,1.2190485E-2,8.248215E-2,-2.5359157E-3,-3.695583E-2,-7.348155E-3,4.4192642E-2,-1.873317E-2,-2.7784962E-2,-2.4664534E-2,3.3830643E-2,-3.2938447E-2,2.388655E-3],"categories":[],"categories_nodes":[],"categories_segments":[],"categories_sizes":[],"default_left":[0,0,0,0,0,0,0,0,0,0,0,0,0,0,0,0,0,0,0,0,0,0,0,0,0,0,0,0,0,0,0,0,0,0,0,0,0,0,0,0,0,0,0,0,0,0,0,0,0,0,0,0,0,0,0,0,0,0,0,0,0,0,0,0,0,0,0,0,0,0,0,0,0,0,0,0,0,0,0,0,0,0,0,0,0,0,0,0,0,0,0,0,0,0,0,0,0,0,0,0,0,0,0,0,0,0,0,0,0,0,0,0,0,0,0,0,0,0,0,0,0],"id":12,"left_children":[1,3,5,7,9,11,13,15,17,19,21,23,25,27,29,31,33,35,37,39,41,43,45,47,49,51,-1,53,55,57,59,61,63,65,67,69,71,73,75,77,79,81,83,85,87,89,91,93,95,97,99,101,103,105,107,109,111,113,115,117,119,-1,-1,-1,-1,-1,-1,-1,-1,-1,-1,-1,-1,-1,-1,-1,-1,-1,-1,-1,-1,-1,-1,-1,-1,-1,-1,-1,-1,-1,-1,-1,-1,-1,-1,-1,-1,-1,-1,-1,-1,-1,-1,-1,-1,-1,-1,-1,-1,-1,-1,-1,-1,-1,-1,-1,-1,-1,-1,-1,-1],"loss_changes":[5.7869543E2,3.6636328E2,3.6051025E1,2.6551895E2,2.0577328E2,1.1656189E1,1.25711975E1,1.238546E2,1.056236E2,9.1810394E1,4.525177E1,1.1214603E1,3.8577805E0,1.4908062E1,5.1131287E0,1.2858356E2,1.9163631E1,1.2267392E2,5.0889755E1,6.4342384E1,1.2264053E1,2.332653E1,3.0404266E1,8.578114E0,1.1762303E1,3.1566162E0,0E0,5.629425E0,1.2654695E1,8.666946E0,4.6198883E0,6.910768E1,6.370465E1,1.0299751E1,1.8603432E1,5.458853E1,5.5797867E1,4.6146698E1,8.10841E0,1.1297264E1,4.895944E1,9.581593E0,4.4762135E0,1.1080045E1,8.810314E0,1.536178E1,1.4697571E1,8.583951E0,7.2009697E0,1.454432E1,5.515239E0,3.9028473E0,3.2897892E0,5.950598E0,3.1321793E0,9.790188E0,3.938689E0,4.3361244E0,6.104065E0,1.0210319E1,4.717758E0,0E0,0E0,0E0,0E0,0E0,0E0,0E0,0E0,0E0,0E0,0E0,0E0,0E0,0E0,0E0,0E0,0E0,0E0,0E0,0E0,0E0,0E0,0E0,0E0,0E0,0E0,0E0,0E0,0E0,0E0,0E0,0E0,0E0,0E0,0E0,0E0,0E0,0E0,0E0,0E0,0E0,0E0,0E0,0E0,0E0,0E0,0E0,0E0,0E0,0E0,0E0,0E0,0E0,0E0,0E0,0E0,0E0,0E0,0E0,0E0],"parents":[2147483647,0,0,1,1,2,2,3,3,4,4,5,5,6,6,7,7,8,8,9,9,10,10,11,11,12,12,13,13,14,14,15,15,16,16,17,17,18,18,19,19,20,20,21,21,22,22,23,23,24,24,25,25,27,27,28,28,29,29,30,30,31,31,32,32,33,33,34,34,35,35,36,36,37,37,38,38,39,39,40,40,41,41,42,42,43,43,44,44,45,45,46,46,47,47,48,48,49,49,50,50,51,51,52,52,53,53,54,54,55,55,56,56,57,57,58,58,59,59,60,60],"right_children":[2,4,6,8,10,12,14,16,18,20,22,24,26,28,30,32,34,36,38,40,42,44,46,48,50,52,-1,54,56,58,60,62,64,66,68,70,72,74,76,78,80,82,84,86,88,90,92,94,96,98,100,102,104,106,108,110,112,114,116,118,120,-1,-1,-1,-1,-1,-1,-1,-1,-1,-1,-1,-1,-1,-1,-1,-1,-1,-1,-1,-1,-1,-1,-1,-1,-1,-1,-1,-1,-1,-1,-1,-1,-1,-1,-1,-1,-1,-1,-1,-1,-1,-1,-1,-1,-1,-1,-1,-1,-1,-1,-1,-1,-1,-1,-1,-1,-1,-1,-1,-1],"split_conditions":[2.4E1,1E0,1E0,1E0,1E0,1E0,1E0,1E0,5E-1,1E0,1E0,4.95E0,3.2E0,2.025E0,1E0,1.3571428E0,5.2E0,1E0,2.3E0,2.3E1,9.4875E1,9.133333E0,1E0,1.29E2,2E1,2.7E1,1.0717588E-2,1.065E1,1.02E2,7.2E-1,1.3425E2,1.16E1,1E0,1.84E1,1.07E1,1.08E2,1E0,1E0,1E0,2.57E2,1E0,1.38E1,1.9E1,3.6555557E1,8.2E0,1.9E0,3.75E1,2.24E1,6.9E1,2.75E1,2.52E2,4.7E1,1.5E1,1.3204347E2,2.5E1,3.18E1,1.14E1,3.15E1,3.06E1,4.05E2,3.3333332E1,5.413775E-3,-3.2208425E-3,2.1757519E-2,4.288092E-3,4.7739036E-2,1.6547841E-3,2.299212E-2,-1.1677717E-2,2.8700799E-2,6.829273E-2,3.548036E-2,8.138646E-3,1.8851537E-2,6.732423E-3,1.8729598E-3,-1.1537753E-2,-1.1792954E-2,2.8598735E-2,9.317681E-3,-3.5921767E-4,-9.715613E-3,-2.9450078E-2,2.0865998E-3,-3.5975274E-2,1.2851784E-3,-1.849396E-2,-2.2479562E-2,-9.151367E-3,-6.1547807E-3,-2.4491174E-2,-1.717281E-2,-2.6634613E-2,-1.4155002E-2,9.3076425E-3,-1.911314E-2,-9.056397E-3,9.850488E-2,6.3913763E-3,-1.8969472E-2,3.078994E-2,-4.1296016E-2,-1.3770317E-2,