{"learner":{"attributes":{"best_iteration":"189","best_score":"0.6797506165412222"},"feature_names":["gender","age","hr_count","sbp_count","spo2_count","temperature_count","hr_max","sbp_max","spo2_max","temperature_max","hr_mean","sbp_mean","spo2_mean","temperature_mean","hr_min","sbp_min","spo2_min","temperature_min","albumin_max","alt_max","anion_gap_max","ast_max","bicarbonate_max","bilirubin_total_max","bun_max","calcium_max","chloride_max","creatinine_max","glucose_max","hematocrit_max","hemoglobin_max","inr_max","lactate_max","magnesium_max","phosphate_max","platelet_max","potassium_max","pt_max","ptt_max","sodium_max","wbc_max","albumin_mean","alt_mean","anion_gap_mean","ast_mean","bicarbonate_mean","bilirubin_total_mean","bun_mean","calcium_mean","chloride_mean","creatinine_mean","glucose_mean","hematocrit_mean","hemoglobin_mean","inr_mean","lactate_mean","magnesium_mean","phosphate_mean","platelet_mean","potassium_mean","pt_mean","ptt_mean","sodium_mean","wbc_mean","albumin_min","alt_min","anion_gap_min","ast_min","bicarbonate_min","bilirubin_total_min","bun_min","calcium_min","chloride_min","creatinine_min","glucose_min","hematocrit_min","hemoglobin_min","inr_min","lactate_min","magnesium_min","phosphate_min","platelet_min","potassium_min","pt_min","ptt_min","sodium_min","wbc_min","icd10_chap_01_infectious_parasitic","icd10_chap_02_neoplasms","icd10_chap_03_blood_diseases","icd10_chap_04_endocrine_metabolic","icd10_chap_05_mental_disorders","icd10_chap_06_nervous_system","icd10_chap_07_eye_diseases","icd10_chap_08_ear_diseases","icd10_chap_09_circulatory","icd10_chap_10_respiratory","icd10_chap_11_digestive","icd10_chap_12_skin_diseases","icd10_chap_13_musculoskeletal","icd10_chap_14_genitourinary","icd10_chap_15_pregnancy_childbirth","icd10_chap_16_perinatal","icd10_chap_17_congenital","icd10_chap_18_symptoms_signs","icd10_chap_19_injury_poisoning","icd10_chap_20_external_causes","icd10_chap_21_health_status_factors"],"feature_types":["float","float","float","float","float","float","float","float","float","float","float","float","float","float","float","float","float","float","float","float","float","float","float","float","float","float","float","float","float","float","float","float","float","float","float","float","float","float","float","float","float","float","float","float","float","float","float","float","float","float","float","float","float","float","float","float","float","float","float","float","float","float","float","float","float","float","float","float","float","float","float","float","float","float","float","float","float","float","float","float","float","float","float","float","float","float","float","float","float","float","float","float","float","float","float","float","float","float","float","float","float","float","float","float","float","float","float","float"],"gradient_booster":{"model":{"cats":{"enc":[],"feature_segments":[],"sorted_idx":[]},"gbtree_model_param":{"num_parallel_tree":"1","num_trees":"220"},"iteration_indptr":[0,1,2,3,4,5,6,7,8,9,10,11,12,13,14,15,16,17,18,19,20,21,22,23,24,25,26,27,28,29,30,31,32,33,34,35,36,37,38,39,40,41,42,43,44,45,46,47,48,49,50,51,52,53,54,55,56,57,58,59,60,61,62,63,64,65,66,67,68,69,70,71,72,73,74,75,76,77,78,79,80,81,82,83,84,85,86,87,88,89,90,91,92,93,94,95,96,97,98,99,100,101,102,103,104,105,106,107,108,109,110,111,112,113,114,115,116,117,118,119,120,121,122,123,124,125,126,127,128,129,130,131,132,133,134,135,136,137,138,139,140,141,142,143,144,145,146,147,148,149,150,151,152,153,154,155,156,157,158,159,160,161,162,163,164,165,166,167,168,169,170,171,172,173,174,175,176,177,178,179,180,181,182,183,184,185,186,187,188,189,190,191,192,193,194,195,196,197,198,199,200,201,202,203,204,205,206,207,208,209,210,211,212,213,214,215,216,217,218,219,220],"tree_info":[0,0,0,0,0,0,0,0,0,0,0,0,0,0,0,0,0,0,0,0,0,0,0,0,0,0,0,0,0,0,0,0,0,0,0,0,0,0,0,0,0,0,0,0,0,0,0,0,0,0,0,0,0,0,0,0,0,0,0,0,0,0,0,0,0,0,0,0,0,0,0,0,0,0,0,0,0,0,0,0,0,0,0,0,0,0,0,0,0,0,0,0,0,0,0,0,0,0,0,0,0,0,0,0,0,0,0,0,0,0,0,0,0,0,0,0,0,0,0,0,0,0,0,0,0,0,0,0,0,0,0,0,0,0,0,0,0,0,0,0,0,0,0,0,0,0,0,0,0,0,0,0,0,0,0,0,0,0,0,0,0,0,0,0,0,0,0,0,0,0,0,0,0,0,0,0,0,0,0,0,0,0,0,0,0,0,0,0,0,0,0,0,0,0,0,0,0,0,0,0,0,0,0,0,0,0,0,0,0,0,0,0,0,0,0,0,0,0,0,0],"trees":[{"base_weights":[5.5673867E-3,4.8620763E-1,-2.231234E-1,2.6508462E-1,1.0058982E0,-3.2792768E-1,3.5307887E-1,8.829116E-2,5.0487405E-1,8.5859936E-1,2.2323787E0,-4.6050987E-1,-1.578236E-1,1.3777378E0,1.6693373E-1,-5.3922813E-2,4.3653378E-1,7.351114E-1,2.0851451E-1,1.7704036E0,7.369552E-1,3.093058E0,1.7991928E0,-5.7110685E-1,-1.9078974E-1,-1.7401919E-1,4.9277425E-1,8.593025E-1,1.7166227E0,5.8660477E-2,7.0907104E-1,-1.0210513E-1,7.2346115E-1,3.3966368E-1,9.871638E-1,9.1686976E-1,5.232621E-1,1.20469615E-1,5.978922E-1,2.0986984E0,1.0055174E0,1.2498069E0,5.6590164E-1,3.3169653E0,1.3857666E0,1.9057484E0,-9.180247E-3,-6.131855E-1,-2.6284376E-1,-2.528358E-1,5.867476E-1,-2.239873E-1,6.158701E-3,7.968619E-1,3.563952E-2,1.1920422E0,4.0252024E-1,1.3397808E0,2.2874205E0,-9.438934E-2,2.5518858E-1,9.0450585E-1,-3.7408438E-2,-1.0016315E-2,8.277615E-3,8.42466E-2,1.8929403E-2,1.062633E-2,3.0717636E-2,7.195271E-2,2.5444275E-2,6.861414E-2,4.094472E-2,4.1427087E-2,1.864477E-2,9.53441E-3,-1.28016E-2,6.5735035E-2,2.3097893E-2,1.0866795E-1,-1.0185275E-2,7.468344E-2,2.0600628E-2,8.424484E-2,3.8625658E-2,2.3856793E-2,5.04249E-2,1.1334113E-1,1.7856221E-1,1.13304675E-1,1.4113686E-2,1.0656635E-1,5.1864773E-2,-3.5706025E-2,-2.5371805E-2,-1.55982E-2,2.464426E-2,1.0184261E-2,-1.4840148E-2,7.268104E-2,1.7417533E-2,1.2268359E-2,-1.2347334E-2,3.0558181E-3,-1.8477494E-2,-1.9522242E-2,4.7396228E-2,4.4437103E-2,-1.0070103E-2,5.292706E-2,1.4654833E-1,6.838439E-2,1.0672132E-2,8.446903E-2,3.4927387E-2,1.21681586E-1,2.84228E-2,-1.0742281E-2,9.302896E-3,-1.2191149E-2,1.4732215E-2,1.2696609E-2,5.3153273E-2,5.839494E-3,-4.2349067E-2],"categories":[],"categories_nodes":[],"categories_segments":[],"categories_sizes":[],"default_left":[0,0,0,0,0,0,0,0,0,0,0,0,0,0,0,0,0,0,0,0,0,0,0,0,0,0,0,0,0,0,0,0,0,0,0,0,0,0,0,0,0,0,0,0,0,0,0,0,0,0,0,0,0,0,0,0,0,0,0,0,0,0,0,0,0,0,0,0,0,0,0,0,0,0,0,0,0,0,0,0,0,0,0,0,0,0,0,0,0,0,0,0,0,0,0,0,0,0,0,0,0,0,0,0,0,0,0,0,0,0,0,0,0,0,0,0,0,0,0,0,0,0,0,0,0],"id":0,"left_children":[1,3,5,7,9,11,13,15,17,19,21,23,25,27,29,31,33,35,37,39,41,43,45,47,49,51,53,55,57,59,61,63,65,67,69,71,73,75,77,79,81,83,85,87,89,91,-1,93,95,97,99,101,103,105,107,109,111,113,115,117,119,121,123,-1,-1,-1,-1,-1,-1,-1,-1,-1,-1,-1,-1,-1,-1,-1,-1,-1,-1,-1,-1,-1,-1,-1,-1,-1,-1,-1,-1,-1,-1,-1,-1,-1,-1,-1,-1,-1,-1,-1,-1,-1,-1,-1,-1,-1,-1,-1,-1,-1,-1,-1,-1,-1,-1,-1,-1,-1,-1,-1,-1,-1,-1],"loss_changes":[3.0762869E3,1.0366323E3,1.1453213E3,2.6835565E2,4.845857E2,3.6180945E2,5.5651953E2,1.8056787E2,1.8316754E2,2.655376E2,1.01854126E2,2.6887146E2,7.4159225E1,7.734204E1,1.4502412E2,9.706086E1,5.605394E1,5.772583E1,4.0246586E1,6.88197E1,1.8565112E2,3.174646E1,4.1347412E1,8.278198E1,1.2672272E2,6.176265E1,2.3743568E1,2.6776855E1,5.507318E1,6.2017178E1,6.003952E1,6.415624E1,4.951278E1,3.1319092E1,3.3337296E1,3.5118835E1,3.1840302E1,2.544007E1,2.050122E1,3.4258667E1,2.4517288E1,1.08864746E2,6.2176178E1,1.4156128E1,1.1736631E1,3.3881958E1,0E0,5.9684326E1,2.8728535E1,4.884491E1,3.962564E1,5.793457E1,3.0795906E1,1.8781097E1,1.4205186E1,2.0865356E1,1.3776078E1,3.585681E1,2.527478E1,3.9206997E1,1.7843372E1,3.335959E1,1.0872455E1,0E0,0E0,0E0,0E0,0E0,0E0,0E0,0E0,0E0,0E0,0E0,0E0,0E0,0E0,0E0,0E0,0E0,0E0,0E0,0E0,0E0,0E0,0E0,0E0,0E0,0E0,0E0,0E0,0E0,0E0,0E0,0E0,0E0,0E0,0E0,0E0,0E0,0E0,0E0,0E0,0E0,0E0,0E0,0E0,0E0,0E0,0E0,0E0,0E0,0E0,0E0,0E0,0E0,0E0,0E0,0E0,0E0,0E0,0E0,0E0,0E0,0E0],"parents":[2147483647,0,0,1,1,2,2,3,3,4,4,5,5,6,6,7,7,8,8,9,9,10,10,11,11,12,12,13,13,14,14,15,15,16,16,17,17,18,18,19,19,20,20,21,21,22,22,23,23,24,24,25,25,26,26,27,27,28,28,29,29,30,30,31,31,32,32,33,33,34,34,35,35,36,36,37,37,38,38,39,39,40,40,41,41,42,42,43,43,44,44,45,45,47,47,48,48,49,49,50,50,51,51,52,52,53,53,54,54,55,55,56,56,57,57,58,58,59,59,60,60,61,61,62,62],"right_children":[2,4,6,8,10,12,14,16,18,20,22,24,26,28,30,32,34,36,38,40,42,44,46,48,50,52,54,56,58,60,62,64,66,68,70,72,74,76,78,80,82,84,86,88,90,92,-1,94,96,98,100,102,104,106,108,110,112,114,116,118,120,122,124,-1,-1,-1,-1,-1,-1,-1,-1,-1,-1,-1,-1,-1,-1,-1,-1,-1,-1,-1,-1,-1,-1,-1,-1,-1,-1,-1,-1,-1,-1,-1,-1,-1,-1,-1,-1,-1,-1,-1,-1,-1,-1,-1,-1,-1,-1,-1,-1,-1,-1,-1,-1,-1,-1,-1,-1,-1,-1,-1,-1,-1,-1],"split_conditions":[1.07E1,1E0,1E0,1.1166667E0,3.6E0,1E0,6E-1,1E0,7.3E1,6.8E1,5.4E1,1E0,2.8E0,8.725E0,7E-1,1.7E0,3.69E1,9.22E0,2.9E1,7.2E1,6E-1,2.125E1,1.19695656E2,1.34E1,4E0,1E0,1.005E2,2.7E1,3.9E0,1E0,7.7E1,2.9E2,1.3366667E2,3.5E0,5.9E1,1.09E2,9.92E1,2.4E1,1.31E2,2.72E0,4.2E0,6.7E1,2.5E1,9.8E1,2.5E1,1.3E0,-9.180247E-3,1E0,2.5E0,9.725E1,3.2E1,7E0,8.2E1,1.01E2,2.925E0,6E-1,4.6E0,3.74E1,1.72E1,4.2E0,9.713333E1,8.3E0,1.9E0,-1.0016315E-2,8.277615E-3,8.42466E-2,1.8929403E-2,1.062633E-2,3.0717636E-2,7.195271E-2,2.5444275E-2,6.861414E-2,4.094472E-2,4.1427087E-2,1.864477E-2,9.53441E-3,-1.28016E-2,6.5735035E-2,2.3097893E-2,1.0866795E-1,-1.0185275E-2,7.468344E-2,2.0600628E-2,8.424484E-2,3.8625658E-2,2.3856793E-2,5.04249E-2,1.1334113E-1,1.7856221E-1,1.13304675E-1,1.4113686E-2,1.0656635E-1,5.1864773E-2,-3.5706025E-2,-2.5371805E-2,-1.55982E-2,2.464426E-2,1.0184261E-2,-1.4840148E-2,7.268104E-2,1.7417533E-2,1.2268359E-2,-1.2347334E-2,3.0558181E-3,-1.8477494E-2,-1.9522242E-2,4.7396228E-2,4.4437103E-2,-1.0070103E-2,5.292706E-2,1.4654833E-1,6.838439E-2,1.0672132E-2,8.446903E-2,3.4927387E-2,1.21681586E-1,2.84228E-2,-1.0742281E-2,9.302896E-3,-1.2191149E-2,1.4732215E-2,1.2696609E-2,5.3153273E-2,5.839494E-3,-4.2349067E-2],"split_indices":[53,88,88,50,18,91,69,87,1,35,1,100,27,48,23,46,84,53,22,1,69,47,11,83,27,87,49,67,18,104,1,81,62,80,1,35,49,2,81,55,40,1,19,51,19,73,0,90,23,49,70,70,1,81,50,23,86,52,43,36,12,25,32,0,0,0,0,0,0,0,0,0,0,0,0,0,0,0,0,0,0,0,0,0,0,0,0,0,0,0,0,0,0,0,0,0,0,0,0,0,0,0,0,0,0,0,0,0,0,0,0,0,0,0,0,0,0,0,0,0,0,0,0,0,0],"split_type":[0,0,0,0,0,0,0,0,0,0,0,0,0,0,0,0,0,0,0,0,0,0,0,0,0,0,0,0,0,0,0,0,0,0,0,0,0,0,0,0,0,0,0,0,0,0,0,0,0,0,0,0,0,0,0,0,0,0,0,0,0,0,0,0,0,0,0,0,0,0,0,0,0,0,0,0,0,0,0,0,0,0,0,0,0,0,0,0,0,0,0,0,0,0,0,0,0,0,0,0,0,0,0,0,0,0,0,0,0,0,0,0,0,0,0,0,0,0,0,0,0,0,0,0,0],"sum_hessian":[2.798512E4,9.022137E3,1.8962982E4,6.330208E3,2.6919285E3,1.6045018E4,2.9179648E3,3.644521E3,2.6856868E3,2.4048132E3,2.8711526E2,9.016043E3,7.028974E3,4.4761447E2,2.4703503E3,2.588347E3,1.056174E3,1.5106245E3,1.1750623E3,2.8146808E2,2.1233452E3,9.407037E1,1.9304489E2,6.393367E3,2.622676E3,6.858964E3,1.7001028E2,1.7833246E2,2.69282E2,2.060037E3,4.1031326E2,2.438102E3,1.502451E2,8.9953864E2,1.5663535E2,8.112641E2,6.993605E2,9.5942865E2,2.1563367E2,1.9571988E2,8.574819E1,5.294988E2,1.5938463E3,8.2330154E1,1.174022E1,1.832366E2,9.808286E0,5.624606E3,7.6876154E2,2.4294827E3,1.931935E2,5.3695903E3,1.4893733E3,1.01649506E2,6.836078E1,1.0224394E2,7.608852E1,1.6421448E2,1.0506754E2,1.158418E3,9.016192E2,3.250109E2,8.530236E1,1.7837704E3,6.5433154E2,3.86387E1,1.116064E2,6.161387E2,2.834E2,7.950655E1,7.712879E1,1.4132848E2,6.699356E2,2.2930582E2,4.7005466E2,8.090349E2,1.503937E2,3.2991505E1,1.8264217E2,1.8962685E2,6.0930257E0,4.621783E1,3.953036E1,2.7567227E2,2.5382654E2,1.3293198E3,2.645265E2,1.7981857E1,6.43483E1,5.944415E0,5.795805E0,1.4430069E2,3.893592E1,2.874868E3,2.749738E3,7.223951E2,4.636644E1,2.1310728E2,2.2163752E3,4.0570633E1,1.5262286E2,2.4996266E2,5.119628E3,1.3000436E3,1.8932964E2,1.1294389E1,9.035511E1,1.4266597E1,5.409418E1,9.6448135E1,5.795805E0,1.1443E1,6.4645515E1,1.0521615E2,5.899832E1,9.6448135E1,8.619402E0,8.1052106E2,3.478969E2,6.568579E1,8.359334E2,6.4199684E1,2.6081122E2,7.237325E1,1.2929103E1],"tree_param":{"num_deleted":"0","num_feature":"108","num_nodes":"125","size_leaf_vector":"1"}},{"base_weights":[6.548375E-4,4.443788E-1,-2.2714457E-1,2.4026386E-1,9.266482E-1,-3.260724E-1,3.059987E-1,9.347169E-3,4.2524153E-1,1.5379586E0,6.8212724E-1,-4.5593587E-1,-1.2921388E-1,1.2358022E0,1.3430934E-1,-2.1154277E-1,2.9319757E-1,6.0614127E-1,1.8719488E-1,1.8012782E0,8.404708E-1,4.7599965E-1,1.0966489E0,-5.746812E-1,-2.8449127E-1,8.651653E-2,-2.0497037E-1,9.585809E-1,1.8543926E0,3.881852E-2,6.147075E-1,-3.1189938E-4,-3.074491E-1,5.3385127E-1,1.5652458E-1,3.5858375E-1,9.487367E-1,2.3295459E-1,-1.5476905E-1,1.9385351E0,2.8443432E-1,-1.485439E-1,1.009433E0,7.090432E-1,2.3210706E-1,2.4973804E-2,1.2216563E0,-6.264764E-1,6.66786E-2,-3.1227005E-1,-2.5125874E-2,4.5625955E-2,8.195946E-1,-3.2565728E-1,-7.365692E-2,1.2393644E0,5.4211795E-1,9.781256E-1,2.0949528E0,-5.7721134E-2,3.5557577E-1,8.289937E-1,8.18689E-2,1.2960346E-2,-8.483951E-3,-1.9276537E-2,-1.7086307E-3,2.5146306E-3,3.0345133E-2,2.2332875E-2,2.4391043E-3,5.0354176E-3,2.7718151E-2,5.936215E-2,3.1382244E-2,6.7580687E-3,2.301058E-2,9.946638E-3,-1.4362687E-2,5.1645942E-2,1.0510855E-1,3.3036407E-2,-2.8807703E-2,5.7928767E-2,-2.320522E-2,4.0396046E-2,8.683503E-2,9.350418E-2,3.1276096E-2,2.4470728E-2,6.262054E-3,3.124407E-2,-2.0578064E-2,1.0466977E-1,5.488471E-2,-3.8958758E-2,-2.5090192E-2,-7.055665E-3,2.9434646E-2,-1.198843E-2,-2.0400155E-2,5.356587E-3,-1.3442491E-2,-1.7405779E-4,2.9450823E-2,5.2025415E-2,-1.0327774E-2,-1.6973771E-2,3.5577502E-2,7.089589E-3,-9.478093E-3,7.755119E-2,3.6633655E-2,4.1264232E-2,4.3585934E-4,6.2650554E-2,1.2374651E-3,1.2992516E-1,8.156229E-2,-9.107559E-3,6.71988E-3,1.9777229E-2,-3.5116088E-2,-2.6058836E-2,4.519386E-2,-2.1133669E-2,1.6475992E-2],"categories":[],"categories_nodes":[],"categories_segments":[],"categories_sizes":[],"default_left":[0,0,0,0,0,0,0,0,0,0,0,0,0,0,0,0,0,0,0,0,0,0,0,0,0,0,0,0,0,0,0,0,0,0,0,0,0,0,0,0,0,0,0,0,0,0,0,0,0,0,0,0,0,0,0,0,0,0,0,0,0,0,0,0,0,0,0,0,0,0,0,0,0,0,0,0,0,0,0,0,0,0,0,0,0,0,0,0,0,0,0,0,0,0,0,0,0,0,0,0,0,0,0,0,0,0,0,0,0,0,0,0,0,0,0,0,0,0,0,0,0,0,0,0,0,0,0],"id":1,"left_children":[1,3,5,7,9,11,13,15,17,19,21,23,25,27,29,31,33,35,37,39,41,43,45,47,49,51,53,55,57,59,61,63,65,67,69,71,73,75,77,79,81,83,85,87,89,91,93,95,97,99,101,103,105,107,109,111,113,115,117,119,121,123,125,-1,-1,-1,-1,-1,-1,-1,-1,-1,-1,-1,-1,-1,-1,-1,-1,-1,-1,-1,-1,-1,-1,-1,-1,-1,-1,-1,-1,-1,-1,-1,-1,-1,-1,-1,-1,-1,-1,-1,-1,-1,-1,-1,-1,-1,-1,-1,-1,-1,-1,-1,-1,-1,-1,-1,-1,-1,-1,-1,-1,-1,-1,-1,-1],"loss_changes":[2.8271692E3,9.337676E2,9.7486615E2,2.8481094E2,4.20656E2,3.9847986E2,4.6168594E2,1.860734E2,1.5931201E2,1.4637964E2,1.7181372E2,1.9105371E2,1.013079E2,7.553351E1,1.12059235E2,3.3810402E1,4.2633118E1,1.7803192E2,2.5073711E1,1.209707E2,3.734137E1,7.650058E1,8.9605774E1,1.8434937E2,2.7697937E1,4.826847E1,7.2674576E1,3.597403E1,2.713446E1,6.2379562E1,4.618274E1,2.2994524E1,2.4478722E1,1.6572296E1,2.5915369E1,6.166536E1,6.6771484E1,3.1309425E1,8.934294E0,7.7122925E1,1.6444836E1,1.429211E1,2.6473587E1,6.5670654E1,1.8102623E1,1.8828463E1,6.24505E1,9.734119E1,4.5150993E1,2.4009827E1,1.2055453E1,4.075986E1,1.950166E1,3.449672E1,5.4919838E1,2.8299896E1,1.9322834E1,8.275637E0,2.0920563E1,3.7406734E1,2.0424446E1,2.9668198E1,1.4794563E1,0E0,0E0,0E0,0E0,0E0,0E0,0E0,0E0,0E0,0E0,0E0,0E0,0E0,0E0,0E0,0E0,0E0,0E0,0E0,0E0,0E0,0E0,0E0,0E0,0E0,0E0,0E0,0E0,0E0,0E0,0E0,0E0,0E0,0E0,0E0,0E0,0E0,0E0,0E0,0E0,0E0,0E0,0E0,0E0,0E0,0E0,0E0,0E0,0E0,0E0,0E0,0E0,0E0,0E0,0E0,0E0,0E0,0E0,0E0,0E0,0E0,0E0,0E0,0E0],"parents":[2147483647,0,0,1,1,2,2,3,3,4,4,5,5,6,6,7,7,8,8,9,9,10,10,11,11,12,12,13,13,14,14,15,15,16,16,17,17,18,18,19,19,20,20,21,21,22,22,23,23,24,24,25,25,26,26,27,27,28,28,29,29,30,30,31,31,32,32,33,33,34,34,35,35,36,36,37,37,38,38,39,39,40,40,41,41,42,42,43,43,44,44,45,45,46,46,47,47,48,48,49,49,50,50,51,51,52,52,53,53,54,54,55,55,56,56,57,57,58,58,59,59,60,60,61,61,62,62],"right_children":[2,4,6,8,10,12,14,16,18,20,22,24,26,28,30,32,34,36,38,40,42,44,46,48,50,52,54,56,58,60,62,64,66,68,70,72,74,76,78,80,82,84,86,88,90,92,94,96,98,100,102,104,106,108,110,112,114,116,118,120,122,124,126,-1,-1,-1,-1,-1,-1,-1,-1,-1,-1,-1,-1,-1,-1,-1,-1,-1,-1,-1,-1,-1,-1,-1,-1,-1,-1,-1,-1,-1,-1,-1,-1,-1,-1,-1,-1,-1,-1,-1,-1,-1,-1,-1,-1,-1,-1,-1,-1,-1,-1,-1,-1,-1,-1,-1,-1,-1,-1,-1,-1,-1,-1,-1,-1],"split_conditions":[1.0733334E1,1E0,1E0,1E0,2.8E1,1E0,6E-1,1.2E0,6.9E1,1.3E0,2.9E1,1E0,1.38E2,3.9E0,7E-1,1.026E2,1.02E2,1.9E1,2.5E1,8.3E1,1.1513636E2,2.89E1,9.3E1,1.6E0,2.6E1,3.8E0,1E0,1E0,9E0,1E0,7.4E1,2.94E1,1E0,3.3E0,6.1E1,1E0,1.386E2,1.6E0,2.38E1,3.3E0,8.4E0,2.46E1,2.2E1,1.6E0,1.02E2,5.2E1,4.7E1,1E0,3.7E0,1.1625E1,1E0,2.4E0,1.06E2,4.41E2,5.2E1,2.6E1,3.7233334E1,1.4166667E2,6.4E0,1E0,1.45E2,3.7055557E1,8.5E0,1.2960346E-2,-8.483951E-3,-1.9276537E-2,-1.7086307E-3,2.5146306E-3,3.0345133E-2,2.2332875E-2,2.4391043E-3,5.0354176E-3,2.7718151E-2,5.936215E-2,3.1382244E-2,6.7580687E-3,2.301058E-2,9.946638E-3,-1.4362687E-2,5.1645942E-2,1.0510855E-1,3.3036407E-2,-2.8807703E-2,5.7928767E-2,-2.320522E-2,4.0396046E-2,8.683503E-2,9.350418E-2,3.1276096E-2,2.4470728E-2,6.262054E-3,3.124407E-2,-2.0578064E-2,1.0466977E-1,5.488471E-2,-3.8958758E-2,-2.5090192E-2,-7.055665E-3,2.9434646E-2,-1.198843E-2,-2.0400155E-2,5.356587E-3,-1.3442491E-2,-1.7405779E-4,2.9450823E-2,5.2025415E-2,-1.0327774E-2,-1.6973771E-2,3.5577502E-2,7.089589E-3,-9.478093E-3,7.755119E-2,3.6633655E-2,4.1264232E-2,4.3585934E-4,6.2650554E-2,1.2374651E-3,1.2992516E-1,8.156229E-2,-9.107559E-3,6.71988E-3,1.9777229E-2,-3.5116088E-2,-2.6058836E-2,4.519386E-2,-2.1133669E-2,1.6475992E-2],"split_indices":[53,88,88,97,67,97,69,27,1,31,44,91,85,18,23,49,26,70,2,1,11,29,16,27,24,27,91,96,25,89,1,29,87,34,1,91,62,27,75,18,86,29,19,40,26,67,1,95,27,53,99,69,6,81,1,67,52,62,86,104,39,9,71,0,0,0,0,0,0,0,0,0,0,0,0,0,0,0,0,0,0,0,0,0,0,0,0,0,0,0,0,0,0,0,0,0,0,0,0,0,0,0,0,0,0,0,0,0,0,0,0,0,0,0,0,0,0,0,0,0,0,0,0,0,0,0,0],"split_type":[0,0,0,0,0,0,0,0,0,0,0,0,0,0,0,0,0,0,0,0,0,0,0,0,0,0,0,0,0,0,0,0,0,0,0,0,0,0,0,0,0,0,0,0,0,0,0,0,0,0,0,0,0,0,0,0,0,0,0,0,0,0,0,0,0,0,0,0,0,0,0,0,0,0,0,0,0,0,0,0,0,0,0,0,0,0,0,0,0,0,0,0,0,0,0,0,0,0,0,0,0,0,0,0,0,0,0,0,0,0,0,0,0,0,0,0,0,0,0,0,0,0,0,0,0,0,0],"sum_hessian":[2.7967607E4,9.487068E3,1.848054E4,6.6668853E3,2.820183E3,1.5588408E4,2.8921313E3,2.965703E3,3.7011821E3,8.042478E2,2.0159354E3,9.39163E3,6.1967783E3,4.4982962E2,2.4423018E3,1.6679631E3,1.2977399E3,2.1021448E3,1.5990374E3,5.826862E2,2.2156158E2,1.3478457E3,6.680897E2,5.5471978E3,3.844432E3,1.6104855E3,4.586293E3,3.123843E2,1.3744534E2,2.038234E3,4.0406775E2,5.2114966E2,1.1468135E3,4.6900687E2,8.28733E2,1.2215248E3,8.8062E2,1.4105978E3,1.8843954E2,5.340801E2,4.860612E1,3.234603E1,1.8921556E2,6.8827747E2,6.5956824E2,6.991506E1,5.981746E2,5.1327114E3,4.1448615E2,3.4723313E3,3.721005E2,1.5264059E3,8.40796E1,2.3890745E3,2.1972185E3,1.8540588E2,1.2697842E2,3.0696388E1,1.0674895E2,1.5627614E3,4.7547266E2,2.877789E2,1.1628883E2,2.055926E2,3.1555704E2,8.916399E2,2.5517358E2,6.1775627E1,4.0723123E2,2.2356458E2,6.051684E2,5.2781494E2,6.9370984E2,5.0374326E2,3.7687674E2,9.873263E2,4.2327142E2,5.1212658E1,1.3722688E2,8.285344E1,4.5122665E2,3.3980373E1,1.4625746E1,5.770773E0,2.6575258E1,1.4981543E2,3.940012E1,4.4754147E1,6.435233E2,1.924985E2,4.670697E2,2.926552E1,4.0649544E1,7.24932E1,5.2568146E2,2.3046858E3,2.8280256E3,2.9699472E2,1.1749142E2,1.9779083E3,1.494423E3,2.4157141E2,1.305291E2,1.4008063E3,1.25599625E2,6.917364E1,1.4905964E1,2.3583284E3,3.0745962E1,7.684919E2,1.4287264E3,1.1352005E2,7.1885826E1,8.258779E1,4.439063E1,2.3582575E1,7.113813E0,4.8968815E1,5.7780132E1,9.484974E2,6.14264E2,4.5876596E2,1.6706696E1,1.4808972E1,2.7296994E2,3.8054077E1,7.823476E1],"tree_param":{"num_deleted":"0","num_feature":"108","num_nodes":"127","size_leaf_vector":"1"}},{"base_weights":[-1.1368654E-3,4.7773483E-1,-1.9037957E-1,2.769392E-1,9.003638E-1,-2.9109135E-1,3.2180005E-1,6.0956117E-2,4.3964034E-1,7.8168E-1,1.8640851E0,-4.1934207E-1,-1.0474892E-1,1.0946072E0,1.6528411E-1,-1.3042335E-1,3.126339E-1,6.295449E-1,1.8338817E-1,1.4782159E0,6.6324925E-1,2.1905189E0,1.3070163E0,-4.8005664E-1,-9.158916E-2,-1.749302E-1,1.2860271E-1,1.2153875E0,8.756701E-2,3.8876716E-2,6.253583E-1,-1.9292498E-1,2.7813092E-1,1.7470525E-1,5.4279375E-1,4.2506924E-1,9.404264E-1,-2.3666948E-1,2.3941335E-1,1.6340148E0,3.969539E-1,1.0954628E0,5.409268E-1,2.3739738E0,1.1807376E0,9.4991434E-1,1.8383815E0,-6.065719E-1,-3.0181506E-1,-1.6188528E-1,4.0354314E-1,-1.9850977E-1,5.239589E-1,2.0184077E-1,-2.6047042E-1,1.2939728E0,-2.896238E-1,6.1027046E-2,-1.0956392E-1,2.8681633E-1,-6.0827002E-2,-2.4310519E-1,7.272933E-1,3.2232303E-2,-1.1066218E-2,3.0317197E-2,2.7461813E-3,1.5789555E-2,-1.2518485E-3,6.055337E-2,2.3313586E-2,1.5839687E-2,4.807478E-2,2.3815783E-2,5.374675E-2,-6.2836567E-3,-3.0003622E-2,4.8850134E-2,1.0557501E-2,1.7756423E-2,8.603951E-2,5.088473E-2,-1.4129452E-2,-3.0363211E-3,5.987824E-2,3.4782242E-2,1.6638603E-2,1.2293438E-1,1.684335E-2,2.2715073E-2,8.364361E-2,3.450301E-2,8.5741885E-2,2.621731E-2,1.1314966E-1,-3.7385497E-2,-2.3930501E-2,-1.1529659E-2,-2.0439906E-2,-8.596548E-3,8.9514636E-2,8.254877E-3,4.67923E-2,-1.0350595E-2,7.900106E-2,9.2817076E-2,1.9405823E-2,8.483431E-3,4.262118E-2,-9.596354E-3,-3.6692794E-2,8.236869E-2,4.786296E-2,1.4620433E-2,-5.2118964E-2,-3.4734897E-2,6.2959427E-3,2.4511425E-2,3.6642866E-3,-9.7904755E-3,5.866246E-3,2.4653101E-2,-2.282074E-2,4.5371305E-2,1.7631283E-2],"categories":[],"categories_nodes":[],"categories_segments":[],"categories_sizes":[],"default_left":[0,0,0,0,0,0,0,0,0,0,0,0,0,0,0,0,0,0,0,0,0,0,0,0,0,0,0,0,0,0,0,0,0,0,0,0,0,0,0,0,0,0,0,0,0,0,0,0,0,0,0,0,0,0,0,0,0,0,0,0,0,0,0,0,0,0,0,0,0,0,0,0,0,0,0,0,0,0,0,0,0,0,0,0,0,0,0,0,0,0,0,0,0,0,0,0,0,0,0,0,0,0,0,0,0,0,0,0,0,0,0,0,0,0,0,0,0,0,0,0,0,0,0,0,0],"id":2,"left_children":[1,3,5,7,9,11,13,15,17,19,21,23,25,27,29,31,33,35,37,39,41,43,45,47,49,51,53,55,57,59,61,63,65,67,69,71,73,75,77,79,81,83,85,87,89,91,93,95,97,99,101,103,105,107,109,111,113,-1,115,117,119,121,123,-1,-1,-1,-1,-1,-1,-1,-1,-1,-1,-1,-1,-1,-1,-1,-1,-1,-1,-1,-1,-1,-1,-1,-1,-1,-1,-1,-1,-1,-1,-1,-1,-1,-1,-1,-1,-1,-1,-1,-1,-1,-1,-1,-1,-1,-1,-1,-1,-1,-1,-1,-1,-1,-1,-1,-1,-1,-1,-1,-1,-1,-1],"loss_changes":[2.53478E3,6.720829E2,1.0342179E3,1.8876056E2,2.903579E2,4.0035608E2,3.983475E2,1.1127398E2,1.4898712E2,1.8654651E2,4.787677E1,1.9743005E2,1.11901855E2,6.736572E1,1.5938766E2,3.356979E1,3.1582008E1,1.1144031E2,3.0781662E1,5.48656E1,1.02225464E2,2.9514282E1,1.82863E1,1.8861682E2,5.4091877E1,8.666095E1,4.507821E1,5.8948486E1,1.3642629E1,5.31997E1,5.2472412E1,2.7234962E1,1.2755091E1,1.7632278E1,1.8531616E1,6.144496E1,4.3014282E1,6.1421003E0,2.3818054E1,3.1318542E1,1.835168E1,5.0598877E1,4.864798E1,2.4477905E1,9.540035E0,1.1778179E1,2.1892502E1,8.806055E1,2.6403992E1,2.6977901E1,2.4375648E1,7.716905E1,3.0356205E1,2.7700886E1,7.995531E0,5.445215E1,1.1430418E1,0E0,7.3128605E0,2.6771E1,3.6939682E1,1.0087028E1,3.537738E1,0E0,0E0,0E0,0E0,0E0,0E0,0E0,0E0,0E0,0E0,0E0,0E0,0E0,0E0,0E0,0E0,0E0,0E0,0E0,0E0,0E0,0E0,0E0,0E0,0E0,0E0,0E0,0E0,0E0,0E0,0E0,0E0,0E0,0E0,0E0,0E0,0E0,0E0,0E0,0E0,0E0,0E0,0E0,0E0,0E0,0E0,0E0,0E0,0E0,0E0,0E0,0E0,0E0,0E0,0E0,0E0,0E0,0E0,0E0,0E0,0E0,0E0],"parents":[2147483647,0,0,1,1,2,2,3,3,4,4,5,5,6,6,7,7,8,8,9,9,10,10,11,11,12,12,13,13,14,14,15,15,16,16,17,17,18,18,19,19,20,20,21,21,22,22,23,23,24,24,25,25,26,26,27,27,28,28,29,29,30,30,31,31,32,32,33,33,34,34,35,35,36,36,37,37,38,38,39,39,40,40,41,41,42,42,43,43,44,44,45,45,46,46,47,47,48,48,49,49,50,50,51,51,52,52,53,53,54,54,55,55,56,56,58,58,59,59,60,60,61,61,62,62],"right_children":[2,4,6,8,10,12,14,16,18,20,22,24,26,28,30,32,34,36,38,40,42,44,46,48,50,52,54,56,58,60,62,64,66,68,70,72,74,76,78,80,82,84,86,88,90,92,94,96,98,100,102,104,106,108,110,112,114,-1,116,118,120,122,124,-1,-1,-1,-1,-1,-1,-1,-1,-1,-1,-1,-1,-1,-1,-1,-1,-1,-1,-1,-1,-1,-1,-1,-1,-1,-1,-1,-1,-1,-1,-1,-1,-1,-1,-1,-1,-1,-1,-1,-1,-1,-1,-1,-1,-1,-1,-1,-1,-1,-1,-1,-1,-1,-1,-1,-1,-1,-1,-1,-1,-1,-1],"split_conditions":[1.05E1,1E0,1E0,1E0,3.6E0,1E0,2.8E1,1.3E0,6.9E1,7E1,5.75E-1,2.3E1,1E0,8.1E1,2.9E1,3.825E2,1.33E1,2.1E1,9.7166664E1,8E1,5E-1,1.2E0,3.9E0,1E0,4E0,2.5E0,8.1E1,1.1736E2,1.31E2,1.3875E2,1.1721429E2,8.8E1,2.83E1,7.3E1,7.7E0,1.76E1,8E0,2.7E1,7.95E1,9.3E1,3.5E0,1.161579E2,2.89E1,3.24E1,8.8E0,1.41E2,2.3E1,1E0,1.1625E1,2.8E0,1.62E2,1.07E1,4E1,3.7E0,1.99E1,3.48E1,3.77E1,6.1027046E-2,2.4E1,3.59E1,1E0,1.775E0,7E1,3.2232303E-2,-1.1066218E-2,3.0317197E-2,2.7461813E-3,1.5789555E-2,-1.2518485E-3,6.055337E-2,2.3313586E-2,1.5839687E-2,4.807478E-2,2.3815783E-2,5.374675E-2,-6.2836567E-3,-3.0003622E-2,4.8850134E-2,1.0557501E-2,1.7756423E-2,8.603951E-2,5.088473E-2,-1.4129452E-2,-3.0363211E-3,5.987824E-2,3.4782242E-2,1.6638603E-2,1.2293438E-1,1.684335E-2,2.2715073E-2,8.364361E-2,3.450301E-2,8.5741885E-2,2.621731E-2,1.1314966E-1,-3.7385497E-2,-2.3930501E-2,-1.1529659E-2,-2.0439906E-2,-8.596548E-3,8.9514636E-2,8.254877E-3,4.67923E-2,-1.0350595E-2,7.900106E-2,9.2817076E-2,1.9405823E-2,8.483431E-3,4.262118E-2,-9.596354E-3,-3.6692794E-2,8.236869E-2,4.786296E-2,1.4620433E-2,-5.2118964E-2,-3.4734897E-2,6.2959427E-3,2.4511425E-2,3.6642866E-3,-9.7904755E-3,5.866246E-3,2.4653101E-2,-2.282074E-2,4.5371305E-2,1.7631283E-2],"split_indices":[30,88,88,97,18,97,67,27,1,58,46,24,87,1,44,58,83,70,12,1,46,73,34,91,27,73,1,11,35,62,11,58,29,1,30,83,71,4,58,16,86,11,29,29,71,85,45,95,53,23,28,23,1,73,83,75,29,0,22,29,0,56,1,0,0,0,0,0,0,0,0,0,0,0,0,0,0,0,0,0,0,0,0,0,0,0,0,0,0,0,0,0,0,0,0,0,0,0,0,0,0,0,0,0,0,0,0,0,0,0,0,0,0,0,0,0,0,0,0,0,0,0,0,0,0],"split_type":[0,0,0,0,0,0,0,0,0,0,0,0,0,0,0,0,0,0,0,0,0,0,0,0,0,0,0,0,0,0,0,0,0,0,0,0,0,0,0,0,0,0,0,0,0,0,0,0,0,0,0,0,0,0,0,0,0,0,0,0,0,0,0,0,0,0,0,0,0,0,0,0,0,0,0,0,0,0,0,0,0,0,0,0,0,0,0,0,0,0,0,0,0,0,0,0,0,0,0,0,0,0,0,0,0,0,0,0,0,0,0,0,0,0,0,0,0,0,0,0,0,0,0,0,0],"sum_hessian":[2.796861E4,7.9216475E3,2.004696E4,5.3713267E3,2.5503206E3,1.6753158E4,3.293804E3,2.3083735E3,3.0629531E3,2.272295E3,2.7802563E2,9.922629E3,6.8305283E3,5.5373065E2,2.7400735E3,1.3115406E3,9.968329E2,1.7583848E3,1.3045685E3,3.2854074E2,1.9437542E3,1.7345277E2,1.0457287E2,8.371404E3,1.5512247E3,5.251402E3,1.5791263E3,4.9424597E2,5.948468E1,2.150342E3,5.8973145E2,1.1379778E3,1.7356284E2,6.244035E2,3.7242935E2,1.0621473E3,6.962373E2,1.5314151E2,1.151427E3,2.8671655E2,4.182417E1,4.2700858E2,1.5167455E3,1.4564186E2,2.7810919E1,6.42091E1,4.0363773E1,4.894735E3,3.4766694E3,1.3589602E3,1.9226453E2,5.080702E3,1.7069995E2,1.3293705E3,2.4975583E2,4.6985245E2,2.4393522E1,8.046629E0,5.143805E1,6.161774E2,1.5341646E3,6.1802586E1,5.2792883E2,3.66082E1,1.1013696E3,6.956101E1,1.0400183E2,3.655911E2,2.5881244E2,3.6740963E1,3.356884E2,8.8508673E2,1.7706065E2,1.5746353E2,5.387738E2,1.1834155E2,3.4799953E1,4.1253952E1,1.1101731E3,1.8541828E1,2.681747E2,2.1597725E1,2.0226446E1,3.4681824E1,3.9232675E2,8.687075E2,6.48038E2,1.3962842E2,6.0134397E0,1.2008453E1,1.5802466E1,4.9347313E1,1.4861782E1,1.0403425E1,2.9960348E1,2.3252324E3,2.5695024E3,2.0890684E3,1.3876011E3,1.3529103E3,6.0499835E0,1.3368869E2,5.8575836E1,5.057409E3,2.3292952E1,1.4621603E1,1.5607834E2,1.2679305E3,6.143999E1,2.193943E2,3.0361528E1,2.2734648E2,2.4250598E2,1.4101645E1,1.0291878E1,1.4200977E1,3.7237072E1,3.1490182E2,3.0127563E2,8.727775E2,6.61387E2,1.358994E1,4.8212646E1,3.555605E2,1.7236835E2],"tree_param":{"num_deleted":"0","num_feature":"108","num_nodes":"125","size_leaf_vector":"1"}},{"base_weights":[-1.2879238E-4,4.0425617E-1,-1.9785811E-1,2.2288664E-1,8.0220664E-1,-2.9319802E-1,2.9005697E-1,5.8984514E-2,3.9657626E-1,1.3623044E0,6.1546606E-1,-4.155881E-1,-1.1277309E-1,9.984654E-1,1.4797987E-1,-1.8394972E-1,2.3819329E-1,5.8098084E-1,1.3728377E-1,2.034381E0,1.1209083E0,1.2204647E0,4.894508E-1,-3.643487E-1,-7.6387453E-1,-1.830741E-1,1.2751897E-1,6.3349813E-1,1.2911875E0,8.431446E-2,7.8478795E-1,-2.7714035E-1,8.5635304E-2,1.1294852E-1,5.900913E-1,7.7677995E-1,4.2990035E-1,4.0692678E-1,5.2558094E-2,-8.961343E-3,2.115294E0,1.2295599E0,1.5087871E-1,1.3533218E0,3.4685686E-1,4.0381953E-1,8.576866E-1,-3.8122416E-1,4.0310267E-1,-6.317103E-1,-9.6520734E-1,2.1543641E-1,-2.2544062E-1,2.0631841E-1,-1.4013937E-1,-4.7312456E-1,7.051195E-1,1.5848334E0,6.5983784E-1,-2.4531618E-2,3.441101E-1,9.0549433E-1,-7.01837E-2,6.818819E-2,-1.4505408E-2,2.8815449E-3,6.401678E-2,2.2751518E-2,6.0867496E-5,6.1291426E-2,2.2060072E-2,4.3081734E-2,7.841561E-3,1.4520215E-2,3.2850552E-2,1.0245594E-2,3.7201785E-2,-1.0710042E-3,1.8461997E-2,7.9612285E-2,1.2652326E-1,2.9576287E-2,6.995829E-2,-2.6501128E-2,1.891581E-2,8.124454E-2,5.1225808E-2,3.459981E-2,-1.7694278E-2,4.7104057E-2,1.7239314E-2,4.989473E-2,-2.9563403E-3,-2.0901598E-2,-1.077463E-2,1.0281401E-2,5.95612E-2,2.5930652E-2,-3.2675497E-2,-4.914698E-2,7.1321125E-3,5.377849E-3,4.2470764E-2,-1.3584231E-2,3.6648118E-3,8.679238E-3,4.683197E-2,-1.2167976E-2,8.26223E-3,1.4613767E-3,-4.280531E-2,3.9343607E-2,-1.468611E-2,-2.127208E-3,8.442962E-2,1.222393E-2,8.026277E-2,-5.5017145E-3,1.1271268E-2,1.3427342E-2,4.623843E-2,5.193956E-2,9.310417E-3,-2.2062337E-2,2.3668244E-2],"categories":[],"categories_nodes":[],"categories_segments":[],"categories_sizes":[],"default_left":[0,0,0,0,0,0,0,0,0,0,0,0,0,0,0,0,0,0,0,0,0,0,0,0,0,0,0,0,0,0,0,0,0,0,0,0,0,0,0,0,0,0,0,0,0,0,0,0,0,0,0,0,0,0,0,0,0,0,0,0,0,0,0,0,0,0,0,0,0,0,0,0,0,0,0,0,0,0,0,0,0,0,0,0,0,0,0,0,0,0,0,0,0,0,0,0,0,0,0,0,0,0,0,0,0,0,0,0,0,0,0,0,0,0,0,0,0,0,0,0,0,0,0,0,0],"id":3,"left_children":[1,3,5,7,9,11,13,15,17,19,21,23,25,27,29,31,33,35,37,39,41,43,45,47,49,51,53,55,57,59,61,63,65,67,69,71,73,75,77,-1,79,81,83,85,87,89,91,93,95,97,99,101,103,105,107,109,111,113,115,117,119,121,123,-1,-1,-1,-1,-1,-1,-1,-1,-1,-1,-1,-1,-1,-1,-1,-1,-1,-1,-1,-1,-1,-1,-1,-1,-1,-1,-1,-1,-1,-1,-1,-1,-1,-1,-1,-1,-1,-1,-1,-1,-1,-1,-1,-1,-1,-1,-1,-1,-1,-1,-1,-1,-1,-1,-1,-1,-1,-1,-1,-1,-1,-1],"loss_changes":[2.2317134E3,6.613639E2,8.7206696E2,1.7925537E2,2.9925366E2,3.4623584E2,3.0830157E2,1.4115387E2,1.4610434E2,1.1397534E2,1.6358813E2,1.6645801E2,1.0711405E2,5.385785E1,1.0347298E2,3.460618E1,8.216082E1,5.250885E1,2.9037245E1,3.4076477E1,5.5615295E1,4.2540833E1,5.590738E1,1.0566272E2,3.1250366E1,8.286134E1,3.030522E1,1.854274E1,5.142746E1,6.569303E1,2.4005585E1,2.2167488E1,1.1782383E1,5.2637955E1,4.5791534E1,4.0728424E1,3.1824783E1,2.0547634E1,2.2708986E1,0E0,3.540222E1,5.0679565E1,8.635676E0,2.7026062E1,1.2400769E1,4.5727036E1,4.3210968E1,4.854065E1,2.7110794E1,1.8537811E1,9.424469E0,3.2180534E1,6.1276E1,2.6358795E1,1.0350578E1,2.826991E0,1.7884071E1,3.2571747E1,3.5564133E1,3.5030502E1,2.9847084E1,1.9304993E1,6.184857E0,0E0,0E0,0E0,0E0,0E0,0E0,0E0,0E0,0E0,0E0,0E0,0E0,0E0,0E0,0E0,0E0,0E0,0E0,0E0,0E0,0E0,0E0,0E0,0E0,0E0,0E0,0E0,0E0,0E0,0E0,0E0,0E0,0E0,0E0,0E0,0E0,0E0,0E0,0E0,0E0,0E0,0E0,0E0,0E0,0E0,0E0,0E0,0E0,0E0,0E0,0E0,0E0,0E0,0E0,0E0,0E0,0E0,0E0,0E0,0E0,0E0,0E0],"parents":[2147483647,0,0,1,1,2,2,3,3,4,4,5,5,6,6,7,7,8,8,9,9,10,10,11,11,12,12,13,13,14,14,15,15,16,16,17,17,18,18,19,19,20,20,21,21,22,22,23,23,24,24,25,25,26,26,27,27,28,28,29,29,30,30,31,31,32,32,33,33,34,34,35,35,36,36,37,37,38,38,40,40,41,41,42,42,43,43,44,44,45,45,46,46,47,47,48,48,49,49,50,50,51,51,52,52,53,53,54,54,55,55,56,56,57,57,58,58,59,59,60,60,61,61,62,62],"right_children":[2,4,6,8,10,12,14,16,18,20,22,24,26,28,30,32,34,36,38,40,42,44,46,48,50,52,54,56,58,60,62,64,66,68,70,72,74,76,78,-1,80,82,84,86,88,90,92,94,96,98,100,102,104,106,108,110,112,114,116,118,120,122,124,-1,-1,-1,-1,-1,-1,-1,-1,-1,-1,-1,-1,-1,-1,-1,-1,-1,-1,-1,-1,-1,-1,-1,-1,-1,-1,-1,-1,-1,-1,-1,-1,-1,-1,-1,-1,-1,-1,-1,-1,-1,-1,-1,-1,-1,-1,-1,-1,-1,-1,-1,-1,-1,-1,-1,-1,-1,-1,-1,-1,-1,-1],"split_conditions":[1.08E1,1E0,1E0,1.025E0,5E-1,1E0,6E-1,1E0,7.4E1,5.4E1,7.5E1,1E0,1E0,9E0,1.4E0,1E0,1.45E1,1.375E2,6.1E0,2.3E1,3.17E1,8E1,2.5E1,3.7E0,1.14E1,9.8E1,7.6E1,9.6E1,3.78E1,8.766666E0,8E1,5.6E1,5.05E0,4.7E1,1.3325E2,2.0666666E1,2.6E0,4.2E1,1E0,-8.961343E-3,1.12E2,3.2E0,8.5E0,1E0,5.9E0,2.1E1,1.5E0,2.0666666E1,1.715E2,1.08E2,1.14E2,2.925E0,1.48E2,4.0333333E0,4.5E0,9.713333E1,8.3E1,3.4E0,4.2E0,1E0,3.7E0,2.65E1,1.5E1,6.818819E-2,-1.4505408E-2,2.8815449E-3,6.401678E-2,2.2751518E-2,6.0867496E-5,6.1291426E-2,2.2060072E-2,4.3081734E-2,7.841561E-3,1.4520215E-2,3.2850552E-2,1.0245594E-2,3.7201785E-2,-1.0710042E-3,1.8461997E-2,7.9612285E-2,1.2652326E-1,2.9576287E-2,6.995829E-2,-2.6501128E-2,1.891581E-2,8.124454E-2,5.1225808E-2,3.459981E-2,-1.7694278E-2,4.7104057E-2,1.7239314E-2,4.989473E-2,-2.9563403E-3,-2.0901598E-2,-1.077463E-2,1.0281401E-2,5.95612E-2,2.5930652E-2,-3.2675497E-2,-4.914698E-2,7.1321125E-3,5.377849E-3,4.2470764E-2,-1.3584231E-2,3.6648118E-3,8.679238E-3,4.683197E-2,-1.2167976E-2,8.26223E-3,1.4613767E-3,-4.280531E-2,3.9343607E-2,-1.468611E-2,-2.127208E-3,8.442962E-2,1.222393E-2,8.026277E-2,-5.5017145E-3,1.1271268E-2,1.3427342E-2,4.623843E-2,5.193956E-2,9.310417E-3,-2.2062337E-2,2.3668244E-2],"split_indices":[30,88,88,50,69,97,69,97,1,1,81,101,87,25,23,87,83,62,40,4,75,1,65,50,30,72,1,6,75,48,1,35,59,1,62,43,50,47,98,0,28,18,71,100,40,67,78,47,51,28,51,50,28,50,36,12,1,18,18,89,64,47,66,0,0,0,0,0,0,0,0,0,0,0,0,0,0,0,0,0,0,0,0,0,0,0,0,0,0,0,0,0,0,0,0,0,0,0,0,0,0,0,0,0,0,0,0,0,0,0,0,0,0,0,0,0,0,0,0,0,0,0,0,0,0],"split_type":[0,0,0,0,0,0,0,0,0,0,0,0,0,0,0,0,0,0,0,0,0,0,0,0,0,0,0,0,0,0,0,0,0,0,0,0,0,0,0,0,0,0,0,0,0,0,0,0,0,0,0,0,0,0,0,0,0,0,0,0,0,0,0,0,0,0,0,0,0,0,0,0,0,0,0,0,0,0,0,0,0,0,0,0,0,0,0,0,0,0,0,0,0,0,0,0,0,0,0,0,0,0,0,0,0,0,0,0,0,0,0,0,0,0,0,0,0,0,0,0,0,0,0,0,0],"sum_hessian":[2.7908805E4,9.164676E3,1.8744129E4,6.2965337E3,2.8681423E3,1.5680513E4,3.0636152E3,3.240231E3,3.0563027E3,7.1558044E2,2.1525618E3,9.342074E3,6.338439E3,5.1078262E2,2.5528328E3,1.3755364E3,1.8646946E3,1.7853501E3,1.2709525E3,1.8713795E2,5.284425E2,3.6957043E2,1.7829913E3,8.1457314E3,1.1963423E3,4.903953E3,1.4344862E3,2.2874562E2,2.82037E2,2.3218374E3,2.3099521E2,1.0221647E3,3.5337167E2,1.3762068E3,4.8848773E2,7.7579065E2,1.00955945E3,3.0296158E2,9.679909E2,6.5563116E0,1.8058165E2,4.749738E2,5.3468727E1,3.2030914E2,4.9261284E1,1.4482947E3,3.3469666E2,7.970962E3,1.747697E2,7.2473206E2,4.716103E2,4.7085764E2,4.433095E3,1.1083993E3,3.2608698E2,1.3563884E1,2.1518173E2,1.914717E2,9.05653E1,1.6369241E3,6.849133E2,2.0236577E2,2.8629446E1,7.19792E0,1.01496674E3,3.4630243E2,7.0692725E0,3.3807297E2,1.0381339E3,9.1322266E1,3.9716547E2,6.8204645E2,9.374418E1,6.268277E2,3.8273178E2,1.9044432E2,1.1251727E2,7.8544104E2,1.825499E2,8.2048706E1,9.8532936E1,1.0068773E2,3.7428604E2,1.3054829E1,4.04139E1,1.7326407E2,1.4704507E2,3.30135E1,1.6247784E1,1.4166293E2,1.3066317E3,2.902243E2,4.447234E1,6.52114E3,1.4498217E3,1.40761E2,3.4008698E1,1.305501E1,7.1167706E2,4.6429156E2,7.3187184E0,4.0338608E2,6.7471535E1,3.838926E3,5.941693E2,1.0620355E3,4.6363712E1,2.4386382E2,8.2223175E1,6.2670975E0,7.2967863E0,1.9909827E2,1.6083466E1,1.1511591E1,1.799601E2,6.3795853E1,2.6769445E1,1.2201185E3,4.1680563E2,6.073404E2,7.7572975E1,1.7035219E2,3.201358E1,1.7126173E1,1.1503273E1],"tree_param":{"num_deleted":"0","num_feature":"108","num_nodes":"125","size_leaf_vector":"1"}},{"base_weights":[-1.9134171E-3,3.4789792E-1,-2.0659368E-1,7.981408E-1,2.520264E-1,-3.2607087E-1,-3.709573E-2,9.801031E-1,5.332741E-1,5.4346085E-1,1.8005168E-1,-2.735896E-1,-7.251418E-1,1.7418301E-1,-1.0627193E-1,1.5816572E0,9.130529E-1,6.871438E-1,1.338111E-1,-6.702109E-2,6.4245915E-1,4.5888948E-1,9.915692E-2,-3.27878E-1,-1.0978471E-1,-5.9122723E-1,-9.385653E-1,1.3965598E-1,7.2961646E-1,-1.7299987E-1,8.140733E-2,5.494639E-1,1.8040588E0,1.7854669E0,8.6126536E-1,5.3657585E-1,1.1043385E0,-4.920261E-2,1.828823E-1,7.90247E-1,-1.817857E-1,8.692661E-1,3.8342986E-1,6.603142E-1,2.6706377E-1,3.3334333E-1,1.0867275E-2,-4.2734393E-1,-2.1091835E-1,-1.4874284E-1,3.933439E-1,7.5530833E-1,-6.1893654E-1,-9.548967E-1,1.4726542E-2,4.0785474E-1,7.5944364E-2,1.1389248E0,9.2720434E-2,-2.766458E-1,-4.6011925E-2,1.9220483E-1,-1.5959166E-1,-1.8870616E-2,4.779736E-2,1.0337875E-1,4.3705385E-2,5.7086375E-2,1.1197733E-1,4.5000553E-2,3.301895E-4,4.816057E-2,1.8123886E-2,9.7731255E-2,4.7968104E-2,6.102885E-3,6.777968E-2,1.5710568E-2,1.0707726E-1,-2.016864E-2,3.1503167E-3,3.5983555E-2,7.171512E-2,2.4363777E-2,-1.1700144E-2,3.723317E-2,4.2430824E-3,1.5120499E-2,-2.0175707E-2,4.5480978E-2,1.4526053E-2,-6.6252374E-3,7.345886E-3,-2.4007617E-2,-5.6392746E-3,-9.180653E-3,-2.3381142E-2,4.89756E-3,-1.1162452E-2,4.527312E-2,1.1697657E-3,7.4823834E-2,-1.1827598E-2,-3.2694858E-2,-9.926329E-3,-3.309585E-2,-5.0520983E-2,7.325735E-2,1.7925365E-2,2.4928588E-2,1.0971472E-3,4.5338567E-2,1.02426745E-1,-1.0256719E-2,5.940142E-2,-1.6582565E-2,-1.8131003E-3,5.863353E-3,-6.5614805E-3,4.634853E-3,2.3712179E-2,5.537151E-2,-9.067454E-3],"categories":[],"categories_nodes":[],"categories_segments":[],"categories_sizes":[],"default_left":[0,0,0,0,0,0,0,0,0,0,0,0,0,0,0,0,0,0,0,0,0,0,0,0,0,0,0,0,0,0,0,0,0,0,0,0,0,0,0,0,0,0,0,0,0,0,0,0,0,0,0,0,0,0,0,0,0,0,0,0,0,0,0,0,0,0,0,0,0,0,0,0,0,0,0,0,0,0,0,0,0,0,0,0,0,0,0,0,0,0,0,0,0,0,0,0,0,0,0,0,0,0,0,0,0,0,0,0,0,0,0,0,0,0,0,0,0,0,0,0,0,0,0],"id":4,"left_children":[1,3,5,7,9,11,13,15,17,19,21,23,25,27,29,31,33,35,37,39,41,43,45,47,49,51,53,55,57,59,61,63,65,67,69,71,73,-1,75,77,79,81,83,85,87,89,91,93,95,97,99,101,103,105,-1,107,109,111,113,115,117,119,121,-1,-1,-1,-1,-1,-1,-1,-1,-1,-1,-1,-1,-1,-1,-1,-1,-1,-1,-1,-1,-1,-1,-1,-1,-1,-1,-1,-1,-1,-1,-1,-1,-1,-1,-1,-1,-1,-1,-1,-1,-1,-1,-1,-1,-1,-1,-1,-1,-1,-1,-1,-1,-1,-1,-1,-1,-1,-1,-1,-1],"loss_changes":[2.0027614E3,4.4549316E2,3.5734924E2,8.681555E1,1.7849286E2,2.1657751E2,1.0666888E2,4.1834473E1,4.54021E1,1.0192462E2,1.5400053E2,8.132361E1,3.3809204E1,3.4422497E1,6.886595E1,2.3397034E1,4.2185852E1,3.295723E1,1.1538421E1,2.3375072E1,8.489044E1,5.9151794E1,1.0947427E2,7.984509E1,4.4727226E1,2.8133942E1,9.582336E0,2.8951542E1,2.7298367E1,5.337329E1,3.855366E1,7.9980326E0,1.9504822E1,1.3022064E1,3.0309082E1,2.8945526E1,1.5468414E1,0E0,1.404339E1,1.738106E1,1.1365614E1,6.427551E1,4.364975E1,3.6259277E1,1.8803146E1,3.5508926E1,7.5043465E1,6.1611816E1,2.2062683E1,3.8911747E1,3.1059788E1,1.1676125E1,1.0556854E1,6.7499695E0,0E0,1.644986E1,3.1296585E1,1.1637505E1,1.4016289E1,2.951535E1,2.5395157E1,2.7706074E1,1.2741675E1,0E0,0E0,0E0,0E0,0E0,0E0,0E0,0E0,0E0,0E0,0E0,0E0,0E0,0E0,0E0,0E0,0E0,0E0,0E0,0E0,0E0,0E0,0E0,0E0,0E0,0E0,0E0,0E0,0E0,0E0,0E0,0E0,0E0,0E0,0E0,0E0,0E0,0E0,0E0,0E0,0E0,0E0,0E0,0E0,0E0,0E0,0E0,0E0,0E0,0E0,0E0,0E0,0E0,0E0,0E0,0E0,0E0,0E0,0E0,0E0],"parents":[2147483647,0,0,1,1,2,2,3,3,4,4,5,5,6,6,7,7,8,8,9,9,10,10,11,11,12,12,13,13,14,14,15,15,16,16,17,17,18,18,19,19,20,20,21,21,22,22,23,23,24,24,25,25,26,26,27,27,28,28,29,29,30,30,31,31,32,32,33,33,34,34,35,35,36,36,38,38,39,39,40,40,41,41,42,42,43,43,44,44,45,45,46,46,47,47,48,48,49,49,50,50,51,51,52,52,53,53,55,55,56,56,57,57,58,58,59,59,60,60,61,61,62,62],"right_children":[2,4,6,8,10,12,14,16,18,20,22,24,26,28,30,32,34,36,38,40,42,44,46,48,50,52,54,56,58,60,62,64,66,68,70,72,74,-1,76,78,80,82,84,86,88,90,92,94,96,98,100,102,104,106,-1,108,110,112,114,116,118,120,122,-1,-1,-1,-1,-1,-1,-1,-1,-1,-1,-1,-1,-1,-1,-1,-1,-1,-1,-1,-1,-1,-1,-1,-1,-1,-1,-1,-1,-1,-1,-1,-1,-1,-1,-1,-1,-1,-1,-1,-1,-1,-1,-1,-1,-1,-1,-1,-1,-1,-1,-1,-1,-1,-1,-1,-1,-1,-1,-1,-1],"split_conditions":[1.08E1,4.7E0,1E0,2.85E1,2.8E1,1E0,1.3775E2,1E0,7.2E1,1.1734615E2,9.9666664E1,1.9E1,1.13E1,4.5E0,1E0,3.3E0,3.3E1,3.2E1,1.9E1,9.8E1,6.7E1,6.7E1,9E0,1E0,4E0,2.4E1,1.16E2,9.5666664E1,1E0,1E0,7.3E1,9.9E1,7.2E1,3.5E0,3.6861904E1,2.6E1,3.2333332E1,-4.920261E-2,5E0,3.37E2,1E0,3.7E0,1.1747619E2,2.4E1,2.32E0,8.3E1,1E0,1E0,7.9E1,9.975E1,6.4E1,4E0,1E0,8E-1,1.4726542E-2,1.0166667E1,5E-1,1.73E1,1.03E2,1.28E2,5.2E1,9E0,2.33E1,-1.8870616E-2,4.779736E-2,1.0337875E-1,4.3705385E-2,5.7086375E-2,1.1197733E-1,4.5000553E-2,3.301895E-4,4.816057E-2,1.8123886E-2,9.7731255E-2,4.7968104E-2,6.102885E-3,6.777968E-2,1.5710568E-2,1.0707726E-1,-2.016864E-2,3.1503167E-3,3.5983555E-2,7.171512E-2,2.4363777E-2,-1.1700144E-2,3.723317E-2,4.2430824E-3,1.5120499E-2,-2.0175707E-2,4.5480978E-2,1.4526053E-2,-6.6252374E-3,7.345886E-3,-2.4007617E-2,-5.6392746E-3,-9.180653E-3,-2.3381142E-2,4.89756E-3,-1.1162452E-2,4.527312E-2,1.1697657E-3,7.4823834E-2,-1.1827598E-2,-3.2694858E-2,-9.926329E-3,-3.309585E-2,-5.0520983E-2,7.325735E-2,1.7925365E-2,2.4928588E-2,1.0971472E-3,4.5338567E-2,1.02426745E-1,-1.0256719E-2,5.940142E-2,-1.6582565E-2,-1.8131003E-3,5.863353E-3,-6.5614805E-3,4.634853E-3,2.3712179E-2,5.537151E-2,-9.067454E-3],"split_indices":[76,63,97,52,67,101,62,63,1,11,49,24,76,23,89,18,1,19,68,26,1,1,30,91,18,68,51,49,100,91,1,51,1,80,13,67,44,0,82,35,91,18,11,2,55,35,97,89,1,49,1,36,104,73,0,43,23,23,49,28,1,25,61,0,0,0,0,0,0,0,0,0,0,0,0,0,0,0,0,0,0,0,0,0,0,0,0,0,0,0,0,0,0,0,0,0,0,0,0,0,0,0,0,0,0,0,0,0,0,0,0,0,0,0,0,0,0,0,0,0,0,0,0],"split_type":[0,0,0,0,0,0,0,0,0,0,0,0,0,0,0,0,0,0,0,0,0,0,0,0,0,0,0,0,0,0,0,0,0,0,0,0,0,0,0,0,0,0,0,0,0,0,0,0,0,0,0,0,0,0,0,0,0,0,0,0,0,0,0,0,0,0,0,0,0,0,0,0,0,0,0,0,0,0,0,0,0,0,0,0,0,0,0,0,0,0,0,0,0,0,0,0,0,0,0,0,0,0,0,0,0,0,0,0,0,0,0,0,0,0,0,0,0,0,0,0,0,0,0],"sum_hessian":[2.796973E4,1.0324247E4,1.7645482E4,1.811157E3,8.51309E3,1.034939E4,7.296093E3,1.0719985E3,7.391585E2,1.6847559E3,6.8283345E3,9.14803E3,1.2013594E3,1.7992585E3,5.4968345E3,1.0523875E2,9.6675977E2,5.330948E2,2.0606369E2,2.3512988E2,1.449626E3,1.5344691E3,5.293865E3,6.8701245E3,2.2779058E3,7.4049744E2,4.6086194E2,1.6951364E3,1.0412217E2,4.0551384E3,1.4416958E3,1.927087E1,8.596788E1,5.229638E1,9.144634E2,3.9340045E2,1.3969437E2,7.8640313E0,1.9819966E2,2.7066074E1,2.0806381E2,7.716292E2,6.7799677E2,7.473155E2,7.871536E2,1.4486299E3,3.8452354E3,3.711285E3,3.1588398E3,2.1148533E3,1.6305244E2,1.4401422E1,7.26096E2,4.5506064E2,5.8013077E0,3.2435184E2,1.3707845E3,6.2906406E1,4.121576E1,2.2321267E3,1.8230116E3,9.877757E2,4.5392014E2,5.8966517E0,1.3374218E1,6.603305E1,1.9934826E1,2.3084429E1,2.921195E1,8.747538E2,3.9709602E1,1.12697464E2,2.8070297E2,1.8530514E1,1.2116385E2,1.8947624E2,8.723416E0,2.0926579E1,6.1394954E0,1.0886805E2,9.919576E1,6.119004E2,1.5972878E2,5.80563E2,9.743377E1,6.515221E2,9.579338E1,7.482617E2,3.8891895E1,9.8799835E1,1.3498301E3,1.8722528E3,1.9729824E3,3.1773428E3,5.33942E2,2.8566929E3,3.02147E2,4.9049228E2,1.6243611E3,6.777886E1,9.5273575E1,7.951157E0,6.450265E0,6.69838E2,5.6257973E1,7.455815E1,3.8050247E2,1.3184176E1,3.1116766E2,1.5437535E2,1.2164092E3,5.1706573E1,1.1199834E1,3.304289E1,8.172871E0,1.8161654E3,4.1596136E2,6.2504175E2,1.1979698E3,7.311448E2,2.5663092E2,6.8207645E0,4.4709937E2],"tree_param":{"num_deleted":"0","num_feature":"108","num_nodes":"123","size_leaf_vector":"1"}},{"base_weights":[-1.0727808E-3,3.163715E-1,-2.0017353E-1,7.193347E-1,2.293679E-1,-3.1323E-1,-3.9873935E-2,9.113935E-1,4.6093524E-1,5.67589E-1,1.8309869E-1,-2.629387E-1,-7.032098E-1,3.304524E-1,-7.953816E-2,7.941649E-1,1.2513664E0,8.2458246E-1,3.250005E-1,1.4674194E-1,7.283683E-1,4.040348E-1,9.4276406E-2,-1.009396E-3,-3.0295104E-1,-5.635605E-1,-8.988403E-1,2.917495E-1,1.387032E0,-1.4095987E-1,1.3991883E-1,1.1306316E0,6.195371E-1,1.327433E0,-4.0171638E-2,1.0090244E0,3.629588E-1,2.0357718E-1,7.785437E-1,2.968799E-1,-3.5116526E-1,-1.8114692E-1,8.060827E-1,2.1885698E-1,5.2776057E-1,1.1692201E-2,2.9434207E-1,4.743396E-1,-6.638544E-2,-3.4702405E-1,-7.870669E-2,-6.220908E-1,7.2896436E-2,-5.112105E-1,-9.5617145E-1,2.693631E-1,8.4670685E-2,3.8999084E-1,2.1706238E0,-1.5592225E-1,8.448327E-1,1.9765154E-1,-1.24571174E-1,3.5108104E-2,6.833875E-2,4.241129E-2,1.8730246E-2,7.171293E-2,3.5776936E-2,-4.1260276E-2,2.7650183E-2,5.925482E-2,1.4380244E-2,3.0921006E-3,4.8077565E-2,6.094251E-3,4.750502E-2,-1.5380298E-3,4.5354206E-2,2.7441358E-2,-1.3160175E-3,-2.2628402E-2,3.9034296E-2,2.2601398E-2,-2.1403385E-2,4.4401012E-2,7.4499543E-3,2.557592E-3,2.0073617E-2,2.9717863E-2,3.3988E-3,2.0714263E-3,-2.5822131E-2,2.6175637E-2,9.281007E-3,1.7693665E-2,8.788262E-2,-5.567105E-3,1.630067E-2,-2.1971447E-2,-1.1308602E-2,-5.6780796E-3,3.2443084E-2,4.7145467E-2,-3.2136098E-2,3.656934E-2,-1.3238991E-2,6.878993E-3,-2.9955983E-2,-1.8880155E-2,-4.8227496E-2,-1.4031417E-2,1.5704691E-2,-2.5491423E-3,3.6588468E-2,1.5080757E-1,5.764672E-2,-1.2483024E-2,-1.8956366E-3,5.139807E-2,-2.4736246E-2,7.626667E-3,2.758348E-2,-3.9879348E-2,-2.6063295E-3],"categories":[],"categories_nodes":[],"categories_segments":[],"categories_sizes":[],"default_left":[0,0,0,0,0,0,0,0,0,0,0,0,0,0,0,0,0,0,0,0,0,0,0,0,0,0,0,0,0,0,0,0,0,0,0,0,0,0,0,0,0,0,0,0,0,0,0,0,0,0,0,0,0,0,0,0,0,0,0,0,0,0,0,0,0,0,0,0,0,0,0,0,0,0,0,0,0,0,0,0,0,0,0,0,0,0,0,0,0,0,0,0,0,0,0,0,0,0,0,0,0,0,0,0,0,0,0,0,0,0,0,0,0,0,0,0,0,0,0,0,0,0,0,0,0],"id":5,"left_children":[1,3,5,7,9,11,13,15,17,19,21,23,25,27,29,31,33,35,37,39,41,43,45,47,49,51,53,55,57,59,61,63,65,67,69,71,73,75,77,79,81,83,85,87,89,91,93,95,97,99,101,103,105,107,109,111,-1,113,115,117,119,121,123,-1,-1,-1,-1,-1,-1,-1,-1,-1,-1,-1,-1,-1,-1,-1,-1,-1,-1,-1,-1,-1,-1,-1,-1,-1,-1,-1,-1,-1,-1,-1,-1,-1,-1,-1,-1,-1,-1,-1,-1,-1,-1,-1,-1,-1,-1,-1,-1,-1,-1,-1,-1,-1,-1,-1,-1,-1,-1,-1,-1,-1,-1],"loss_changes":[1.7671614E3,3.776709E2,3.1139062E2,9.452899E1,1.3862408E2,1.974336E2,1.0442987E2,4.2705505E1,4.0155273E1,7.204346E1,1.5302036E2,9.355536E1,3.0921326E1,2.772245E1,8.656999E1,4.736621E1,2.7502716E1,1.8523254E1,3.2712833E1,2.2232656E1,5.46633E1,5.111841E1,9.1932144E1,3.682424E1,7.650549E1,2.514975E1,1.0122101E1,2.0403732E1,1.7934277E1,7.4135994E1,2.147261E1,2.7198822E1,2.9972351E1,1.6223297E1,8.144955E0,1.9723282E1,1.1638252E1,2.8680948E1,1.3104233E1,1.8578342E1,8.276993E0,9.8138E0,3.813513E1,2.746201E1,4.0984863E1,6.189206E1,4.0409576E1,2.152649E1,1.841246E1,7.2170105E1,3.2362785E1,2.0535873E1,1.3012528E1,3.7137375E0,1.6465454E0,1.62151E1,0E0,1.8153831E0,7.916363E0,5.4671562E1,1.8948624E1,1.833762E1,1.2258549E1,0E0,0E0,0E0,0E0,0E0,0E0,0E0,0E0,0E0,0E0,0E0,0E0,0E0,0E0,0E0,0E0,0E0,0E0,0E0,0E0,0E0,0E0,0E0,0E0,0E0,0E0,0E0,0E0,0E0,0E0,0E0,0E0,0E0,0E0,0E0,0E0,0E0,0E0,0E0,0E0,0E0,0E0,0E0,0E0,0E0,0E0,0E0,0E0,0E0,0E0,0E0,0E0,0E0,0E0,0E0,0E0,0E0,0E0,0E0,0E0,0E0,0E0],"parents":[2147483647,0,0,1,1,2,2,3,3,4,4,5,5,6,6,7,7,8,8,9,9,10,10,11,11,12,12,13,13,14,14,15,15,16,16,17,17,18,18,19,19,20,20,21,21,22,22,23,23,24,24,25,25,26,26,27,27,28,28,29,29,30,30,31,31,32,32,33,33,34,34,35,35,36,36,37,37,38,38,39,39,40,40,41,41,42,42,43,43,44,44,45,45,46,46,47,47,48,48,49,49,50,50,51,51,52,52,53,53,54,54,55,55,57,57,58,58,59,59,60,60,61,61,62,62],"right_children":[2,4,6,8,10,12,14,16,18,20,22,24,26,28,30,32,34,36,38,40,42,44,46,48,50,52,54,56,58,60,62,64,66,68,70,72,74,76,78,80,82,84,86,88,90,92,94,96,98,100,102,104,106,108,110,112,-1,114,116,118,120,122,124,-1,-1,-1,-1,-1,-1,-1,-1,-1,-1,-1,-1,-1,-1,-1,-1,-1,-1,-1,-1,-1,-1,-1,-1,-1,-1,-1,-1,-1,-1,-1,-1,-1,-1,-1,-1,-1,-1,-1,-1,-1,-1,-1,-1,-1,-1,-1,-1,-1,-1,-1,-1,-1,-1,-1,-1,-1,-1,-1,-1,-1,-1],"split_conditions":[1.096E1,4.7E0,1E0,2.89E1,4E-1,1E0,5E-1,2.7E1,6E-1,8.2E0,1.366E2,1E2,1.1125E1,3.3E1,1E0,2.7E1,3.6861904E1,3.23E1,2.8E1,3.18E1,3.65E1,1E0,4E0,2.3E1,1E0,1E0,6.6E-1,1.05E1,8.2E-1,6.6E0,7.9E1,1.01E2,1.25E2,3.5E1,3.2333333E0,1.2666667E0,1.19333336E2,3E0,2.3E0,6.6E1,5.2E0,6.2E1,8.3E1,1E0,8.4E1,1E0,2.83E1,3.4E1,2.7E0,1E0,4.2E0,1.07333336E2,2.9E1,5E-1,1.385E2,9.3E1,8.4670685E-2,3.7E0,3.6E1,1E0,1.4E0,4.4E0,3.7055557E1,3.5108104E-2,6.833875E-2,4.241129E-2,1.8730246E-2,7.171293E-2,3.5776936E-2,-4.1260276E-2,2.7650183E-2,5.925482E-2,1.4380244E-2,3.0921006E-3,4.8077565E-2,6.094251E-3,4.750502E-2,-1.5380298E-3,4.5354206E-2,2.7441358E-2,-1.3160175E-3,-2.2628402E-2,3.9034296E-2,2.2601398E-2,-2.1403385E-2,4.4401012E-2,7.4499543E-3,2.557592E-3,2.0073617E-2,2.9717863E-2,3.3988E-3,2.0714263E-3,-2.5822131E-2,2.6175637E-2,9.281007E-3,1.7693665E-2,8.788262E-2,-5.567105E-3,1.630067E-2,-2.1971447E-2,-1.1308602E-2,-5.6780796E-3,3.2443084E-2,4.7145467E-2,-3.2136098E-2,3.656934E-2,-1.3238991E-2,6.878993E-3,-2.9955983E-2,-1.8880155E-2,-4.8227496E-2,-1.4031417E-2,1.5704691E-2,-2.5491423E-3,3.6588468E-2,1.5080757E-1,5.764672E-2,-1.2483024E-2,-1.8956366E-3,5.139807E-2,-2.4736246E-2,7.626667E-3,2.758348E-2,-3.9879348E-2,-2.6063295E-3],"split_indices":[53,63,97,29,69,101,69,19,69,71,62,72,53,22,87,44,13,29,19,29,17,97,34,67,89,104,50,25,50,23,1,51,81,70,41,50,51,27,80,1,80,1,1,0,1,101,29,19,73,91,18,51,1,73,62,15,0,34,52,104,73,34,9,0,0,0,0,0,0,0,0,0,0,0,0,0,0,0,0,0,0,0,0,0,0,0,0,0,0,0,0,0,0,0,0,0,0,0,0,0,0,0,0,0,0,0,0,0,0,0,0,0,0,0,0,0,0,0,0,0,0,0,0,0,0],"split_type":[0,0,0,0,0,0,0,0,0,0,0,0,0,0,0,0,0,0,0,0,0,0,0,0,0,0,0,0,0,0,0,0,0,0,0,0,0,0,0,0,0,0,0,0,0,0,0,0,0,0,0,0,0,0,0,0,0,0,0,0,0,0,0,0,0,0,0,0,0,0,0,0,0,0,0,0,0,0,0,0,0,0,0,0,0,0,0,0,0,0,0,0,0,0,0,0,0,0,0,0,0,0,0,0,0,0,0,0,0,0,0,0,0,0,0,0,0,0,0,0,0,0,0,0,0],"sum_hessian":[2.7957908E4,1.0776065E4,1.7181844E4,1.9122198E3,8.863846E3,1.0075099E4,7.1067446E3,1.0954701E3,8.1674976E2,1.0653113E3,7.798534E3,8.925724E3,1.1493756E3,6.8682733E2,6.419917E3,8.17067E2,2.7840314E2,2.2085672E2,5.95893E2,2.9501328E2,7.7029803E2,2.2351885E3,5.5633457E3,1.1829437E3,7.74278E3,6.7290686E2,4.7646878E2,6.6378864E2,2.3038698E1,5.0163086E3,1.4036088E3,2.773002E2,5.3976685E2,2.62892E2,1.5511118E1,1.5695819E2,6.3898525E1,4.7119327E2,1.2469976E2,2.2697534E2,6.803794E1,6.0532887E1,7.0976514E2,8.963736E2,1.3388148E3,3.9386052E3,1.6247407E3,1.422668E2,1.0406769E3,6.4705156E3,1.2722637E3,6.162568E2,5.6650085E1,6.2668518E1,4.1380026E2,6.5452716E2,9.261475E0,1.0797575E1,1.2241123E1,4.9421387E3,7.4170006E1,1.1523313E3,2.5127739E2,9.993929E1,1.773609E2,2.778657E2,2.6190112E2,2.2267331E2,4.02187E1,6.507562E0,9.003555E0,1.25649124E2,3.1309067E1,4.3246872E1,2.0651655E1,4.25765E2,4.542826E1,1.719553E1,1.07504234E2,1.2715495E2,9.982038E1,6.2994415E1,5.0435286E0,1.6750135E1,4.3782753E1,6.3075885E2,7.900628E1,4.6792966E2,4.2844394E2,1.1691752E3,1.6963968E2,3.7295374E3,2.0906787E2,5.2155676E2,1.103184E3,1.3122433E2,1.1042458E1,9.3434625E2,1.0633065E2,3.665327E3,2.805189E3,1.2149064E3,5.7357395E1,7.436656E0,6.0882007E2,1.8807775E1,3.7842308E1,7.4107122E0,5.525781E1,6.564465E0,4.072358E2,4.883216E1,6.05695E2,5.086124E0,5.711451E0,5.6135163E0,6.627607E0,2.7536902E3,2.1884482E3,6.5454445E1,8.715558E0,1.0233414E3,1.2898994E2,2.3446646E1,2.2783075E2],"tree_param":{"num_deleted":"0","num_feature":"108","num_nodes":"125","size_leaf_vector":"1"}},{"base_weights":[-1.8994835E-4,-1.3148664E-1,4.7061646E-1,1.3900615E-1,-2.821494E-1,1.0332582E0,2.9196057E-1,-4.950866E-2,2.8824425E-1,-4.0416783E-1,-1.3204062E-1,1.1011899E0,-1.5477075E-1,6.7204356E-1,1.7886026E-1,-2.4152537E-1,1.608836E-1,1.9599687E-1,5.310869E-1,-5.0609833E-1,-1.517981E-1,-2.2956744E-1,-8.146754E-3,9.070235E-1,1.4880787E0,3.760983E-2,-2.6585037E-1,9.0906954E-1,4.7738454E-1,9.601723E-2,5.1540244E-1,-3.215857E-1,5.3524775E-3,3.2108314E-2,2.9811364E-1,9.251085E-2,4.2083362E-1,8.5379675E-2,6.078483E-1,-6.064364E-1,-3.1737807E-1,-2.0601654E-1,4.0246874E-1,-1.6376786E-1,-3.406107E-1,-3.41905E-2,3.8208997E-1,-2.9567108E-1,9.480515E-1,1.064887E0,1.6575606E0,1.9055538E-1,-4.668102E-1,1.1977637E0,7.258003E-1,-3.5058594E-1,5.320526E-1,-4.406305E-2,2.5709113E-1,1.9588526E-2,6.2416726E-1,-1.9201024E-2,-1.0508333E-3,3.815354E-3,-2.1898441E-2,2.678088E-2,-4.651574E-4,2.8271843E-2,9.591158E-3,2.3720134E-3,2.297278E-2,2.3915045E-2,-5.320192E-3,4.297699E-4,6.8278685E-2,4.690916E-2,2.4311405E-2,-3.5897415E-2,-2.4857206E-2,-1.8632244E-2,-5.153784E-4,-1.2833384E-2,2.7067026E-3,9.457417E-3,5.2224934E-2,-1.2179869E-2,-2.4098603E-3,5.484933E-3,-1.8304173E-2,-6.706246E-3,3.379852E-3,6.4564645E-3,3.2982685E-2,-2.4121258E-2,2.580367E-2,3.4930397E-2,5.7266254E-2,7.099294E-2,6.9521638E-3,9.622505E-2,6.682693E-2,-2.6867354E-2,4.1843634E-2,-4.7731407E-2,-1.0899683E-2,-1.6069113E-3,6.268641E-2,-2.1509236E-2,3.840382E-2,4.9275782E-2,-3.0476013E-2,3.886534E-2,1.9201983E-2,-5.319757E-3,2.128964E-2,1.4340565E-2,-2.2104176E-2,-1.2268788E-2,1.8645179E-2,3.8406536E-2,1.4675793E-2],"categories":[],"categories_nodes":[],"categories_segments":[],"categories_sizes":[],"default_left":[0,0,0,0,0,0,0,0,0,0,0,0,0,0,0,0,0,0,0,0,0,0,0,0,0,0,0,0,0,0,0,0,0,0,0,0,0,0,0,0,0,0,0,0,0,0,0,0,0,0,0,0,0,0,0,0,0,0,0,0,0,0,0,0,0,0,0,0,0,0,0,0,0,0,0,0,0,0,0,0,0,0,0,0,0,0,0,0,0,0,0,0,0,0,0,0,0,0,0,0,0,0,0,0,0,0,0,0,0,0,0,0,0,0,0,0,0,0,0,0,0],"id":6,"left_children":[1,3,5,7,9,11,13,15,17,19,21,23,25,27,29,31,33,35,37,39,41,43,45,47,49,-1,51,53,55,57,59,61,63,65,67,69,71,73,75,77,79,81,83,85,87,89,91,93,95,97,99,101,103,105,107,109,111,113,115,117,119,-1,-1,-1,-1,-1,-1,-1,-1,-1,-1,-1,-1,-1,-1,-1,-1,-1,-1,-1,-1,-1,-1,-1,-1,-1,-1,-1,-1,-1,-1,-1,-1,-1,-1,-1,-1,-1,-1,-1,-1,-1,-1,-1,-1,-1,-1,-1,-1,-1,-1,-1,-1,-1,-1,-1,-1,-1,-1,-1,-1],"loss_changes":[1.727634E3,8.906515E2,6.123137E2,2.1997887E2,2.5703467E2,1.186781E2,1.987872E2,1.3963849E2,9.765735E1,1.9908167E2,7.60623E1,1.0300122E2,8.289761E0,4.8508514E1,9.9408615E1,3.571859E1,2.9139633E1,7.358493E1,4.1031097E1,1.042251E2,6.706128E1,2.568068E1,2.820378E1,4.6046265E1,3.1416016E1,0E0,6.718103E0,2.437973E1,2.6644745E1,6.463023E1,3.797641E1,2.559938E1,1.3983895E1,1.7771545E1,2.2577255E1,3.5836246E1,3.0261154E1,1.7444672E1,4.0691956E1,4.3506348E1,3.2515945E1,2.6774307E1,2.7047821E1,2.0411617E1,1.5062881E1,2.6468447E1,1.2105083E1,5.002756E0,4.334613E1,4.4199677E1,2.558136E1,1.1178636E1,5.917942E0,1.2689545E1,1.472023E1,1.3334639E1,1.9620789E1,4.493141E1,2.7810875E1,1.2052163E1,2.7273163E1,0E0,0E0,0E0,0E0,0E0,0E0,0E0,0E0,0E0,0E0,0E0,0E0,0E0,0E0,0E0,0E0,0E0,0E0,0E0,0E0,0E0,0E0,0E0,0E0,0E0,0E0,0E0,0E0,0E0,0E0,0E0,0E0,0E0,0E0,0E0,0E0,0E0,0E0,0E0,0E0,0E0,0E0,0E0,0E0,0E0,0E0,0E0,0E0,0E0,0E0,0E0,0E0,0E0,0E0,0E0,0E0,0E0,0E0,0E0,0E0],"parents":[2147483647,0,0,1,1,2,2,3,3,4,4,5,5,6,6,7,7,8,8,9,9,10,10,11,11,12,12,13,13,14,14,15,15,16,16,17,17,18,18,19,19,20,20,21,21,22,22,23,23,24,24,26,26,27,27,28,28,29,29,30,30,31,31,32,32,33,33,34,34,35,35,36,36,37,37,38,38,39,39,40,40,41,41,42,42,43,43,44,44,45,45,46,46,47,47,48,48,49,49,50,50,51,51,52,52,53,53,54,54,55,55,56,56,57,57,58,58,59,59,60,60],"right_children":[2,4,6,8,10,12,14,16,18,20,22,24,26,28,30,32,34,36,38,40,42,44,46,48,50,-1,52,54,56,58,60,62,64,66,68,70,72,74,76,78,80,82,84,86,88,90,92,94,96,98,100,102,104,106,108,110,112,114,116,118,120,-1,-1,-1,-1,-1,-1,-1,-1,-1,-1,-1,-1,-1,-1,-1,-1,-1,-1,-1,-1,-1,-1,-1,-1,-1,-1,-1,-1,-1,-1,-1,-1,-1,-1,-1,-1,-1,-1,-1,-1,-1,-1,-1,-1,-1,-1,-1,-1,-1,-1,-1,-1,-1,-1,-1,-1,-1,-1,-1,-1],"split_conditions":[1E0,1.1033334E1,6E-1,1E0,1E0,2.4E1,2.7725E1,1.025E0,3.23E1,1E0,1E0,3.6E0,1E0,6E0,7E-1,1E0,1.8142858E0,3.8E0,1.4E2,1E0,2.925E0,1.22E1,3.44E2,9.3E1,8.725E0,3.760983E-2,1.55E1,5.95E1,9.1E1,1E0,8E0,3.2833332E1,3.690972E1,9.6E1,1.9E0,1.8E0,2.4E1,3.89E2,1.36E2,1E0,1.34E1,3.12E1,1.47E2,1E0,1.6166667E0,1E0,3.5E0,1.63E2,1.08E2,3.34E1,6.4E0,1E0,2.4E1,9.3E1,9.2E1,1.9E1,1.65E1,3.25E2,2.4E1,2.3E1,2.02E0,-1.9201024E-2,-1.0508333E-3,3.815354E-3,-2.1898441E-2,2.678088E-2,-4.651574E-4,2.8271843E-2,9.591158E-3,2.3720134E-3,2.297278E-2,2.3915045E-2,-5.320192E-3,4.297699E-4,6.8278685E-2,4.690916E-2,2.4311405E-2,-3.5897415E-2,-2.4857206E-2,-1.8632244E-2,-5.153784E-4,-1.2833384E-2,2.7067026E-3,9.457417E-3,5.2224934E-2,-1.2179869E-2,-2.4098603E-3,5.484933E-3,-1.8304173E-2,-6.706246E-3,3.379852E-3,6.4564645E-3,3.2982685E-2,-2.4121258E-2,2.580367E-2,3.4930397E-2,5.7266254E-2,7.099294E-2,6.9521638E-3,9.622505E-2,6.682693E-2,-2.6867354E-2,4.1843634E-2,-4.7731407E-2,-1.0899683E-2,-1.6069113E-3,6.268641E-2,-2.1509236E-2,3.840382E-2,4.9275782E-2,-3.0476013E-2,3.886534E-2,1.9201983E-2,-5.319757E-3,2.128964E-2,1.4340565E-2,-2.2104176E-2,-1.2268788E-2,1.8645179E-2,3.8406536E-2,1.4675793E-2],"split_indices":[88,53,69,97,91,2,52,50,84,100,97,18,95,40,23,87,50,80,7,97,50,53,35,16,48,0,47,58,16,104,71,61,13,72,79,73,4,35,39,95,60,47,74,104,56,92,80,7,28,75,86,97,24,16,6,4,47,81,3,68,56,0,0,0,0,0,0,0,0,0,0,0,0,0,0,0,0,0,0,0,0,0,0,0,0,0,0,0,0,0,0,0,0,0,0,0,0,0,0,0,0,0,0,0,0,0,0,0,0,0,0,0,0,0,0,0,0,0,0,0,0],"split_type":[0,0,0,0,0,0,0,0,0,0,0,0,0,0,0,0,0,0,0,0,0,0,0,0,0,0,0,0,0,0,0,0,0,0,0,0,0,0,0,0,0,0,0,0,0,0,0,0,0,0,0,0,0,0,0,0,0,0,0,0,0,0,0,0,0,0,0,0,0,0,0,0,0,0,0,0,0,0,0,0,0,0,0,0,0,0,0,0,0,0,0,0,0,0,0,0,0,0,0,0,0,0,0,0,0,0,0,0,0,0,0,0,0,0,0,0,0,0,0,0,0],"sum_hessian":[2.794631E4,2.1852805E4,6.093506E3,7.8175757E3,1.4035229E4,1.4674081E3,4.6260977E3,3.4545369E3,4.363039E3,7.7410747E3,6.294154E3,1.3881089E3,7.929919E1,1.0597562E3,3.5663416E3,1.8060648E3,1.6484719E3,3.1632417E3,1.1997974E3,5.5132876E3,2.227787E3,3.5213574E3,2.7727961E3,9.2648303E2,4.616259E2,8.022622E0,7.1276566E1,4.7621933E2,5.835369E2,2.8628975E3,7.0344403E2,1.3635687E3,4.4249612E2,8.510702E2,7.974017E2,2.1671672E3,9.9607446E2,1.7658524E2,1.0232121E3,3.5980676E3,1.91522E3,2.0298547E3,1.979323E2,2.2126873E3,1.3086703E3,2.6001772E3,1.7261906E2,3.0358158E1,8.961249E2,1.3409E2,3.275359E2,2.180542E1,4.947115E1,1.8277237E2,2.9344696E2,3.5807297E1,5.477296E2,1.5316244E3,1.3312732E3,1.2676319E2,5.7668085E2,1.128812E3,2.3475664E2,3.8215863E2,6.03375E1,6.3770485E1,7.8729974E2,2.2562633E2,5.717754E2,1.9311052E3,2.3606186E2,8.982597E2,9.781478E1,1.6754295E2,9.042283E0,2.735376E2,7.496745E2,1.7781926E3,1.8198751E3,1.6229131E3,2.923069E2,1.699062E3,3.3079272E2,1.4954065E2,4.839166E1,1.3080526E3,9.046346E2,6.988742E1,1.2387828E3,1.3118715E3,1.2883057E3,9.107871E1,8.154035E1,2.5009937E1,5.3482203E0,3.9774072E2,4.9838416E2,9.654191E1,3.754808E1,1.7610432E2,1.5143156E2,1.0334729E1,1.147069E1,1.5751948E1,3.37192E1,7.973311E0,1.7479906E2,1.0029457E1,2.8341748E2,5.3573446E0,3.0449951E1,2.0454742E2,3.4318222E2,1.352917E3,1.7870732E2,1.2775573E3,5.3715977E1,7.2613266E1,5.4149925E1,4.0083624E2,1.7584459E2],"tree_param":{"num_deleted":"0","num_feature":"108","num_nodes":"121","size_leaf_vector":"1"}},{"base_weights":[-1.3744315E-3,-1.2888858E-1,4.4751775E-1,1.8760279E-1,-2.4632776E-1,9.377269E-1,2.8746018E-1,1.4549359E-2,3.1443325E-1,-3.58016E-1,-9.107179E-2,9.9839246E-1,-1.3367262E-1,6.757332E-1,1.7821199E-1,-1.6565944E-1,1.863769E-1,5.8362985E-1,2.4395217E-1,-3.1055295E-1,-7.0469403E-1,1.276707E-1,-1.5770978E-1,8.821976E-1,1.4341763E0,-3.7588942E-1,1.7419147E-1,8.5781604E-1,5.089619E-1,1.0337395E-1,4.74953E-1,-2.3800234E-1,1.9814241E-1,3.3503312E-1,3.917601E-2,3.846808E-1,8.961376E-1,-1.5521003E-1,2.8758004E-1,-3.623948E-1,-7.904854E-2,4.9821982E-1,-7.255701E-1,6.979517E-2,6.3957393E-1,-2.7921686E-1,-2.740659E-2,1.0483454E0,5.8011097E-1,-7.9365104E-2,1.4895816E0,-6.9002634E-1,-5.662918E-2,8.214166E-1,-1.5193343E-1,7.320672E-1,1.2704182E0,5.699111E-1,-2.5755348E-2,-2.4505163E-2,2.4885811E-1,-3.023712E-1,5.6007636E-1,3.6164884E-2,-1.3329871E-2,-1.7632456E-2,1.43943345E-2,3.6744412E-2,1.3749284E-2,2.904675E-2,-2.8011613E-4,3.33963E-3,2.7325278E-2,5.4345436E-2,2.1463032E-3,1.5601575E-2,-1.2532914E-2,8.633825E-3,2.1396909E-2,-2.4009826E-2,-1.1656589E-2,9.370117E-3,-8.056708E-3,-2.9082924E-2,4.9545914E-2,-3.0918384E-2,-4.661372E-2,1.4696188E-2,-1.3577872E-3,-1.2831238E-2,3.6511518E-2,-1.6526349E-2,-1.7586239E-3,-4.1735726E-3,6.586738E-3,3.9534062E-2,6.779479E-2,6.891727E-2,2.4062088E-2,2.4406498E-2,-3.1347837E-2,4.952952E-2,8.0519274E-2,-1.677305E-2,-5.625236E-2,3.9864134E-2,-1.7375838E-2,6.683575E-2,7.184606E-3,4.3455686E-2,-2.4446316E-2,5.651453E-2,3.1173408E-2,7.663559E-2,2.4592785E-2,2.9711252E-2,-2.9086461E-2,-8.397726E-3,4.0330075E-2,-6.3414336E-3,9.000498E-3,5.700378E-3,1.9577993E-2,-2.9398879E-2,6.317088E-3,3.5435837E-2,1.4368616E-2],"categories":[],"categories_nodes":[],"categories_segments":[],"categories_sizes":[],"default_left":[0,0,0,0,0,0,0,0,0,0,0,0,0,0,0,0,0,0,0,0,0,0,0,0,0,0,0,0,0,0,0,0,0,0,0,0,0,0,0,0,0,0,0,0,0,0,0,0,0,0,0,0,0,0,0,0,0,0,0,0,0,0,0,0,0,0,0,0,0,0,0,0,0,0,0,0,0,0,0,0,0,0,0,0,0,0,0,0,0,0,0,0,0,0,0,0,0,0,0,0,0,0,0,0,0,0,0,0,0,0,0,0,0,0,0,0,0,0,0,0,0,0,0,0,0,0,0],"id":7,"left_children":[1,3,5,7,9,11,13,15,17,19,21,23,25,27,29,31,33,35,37,39,41,43,45,47,49,51,53,55,57,59,61,63,65,67,69,71,73,75,77,79,81,83,85,87,89,91,93,95,97,99,101,103,105,107,109,111,113,115,117,119,121,123,125,-1,-1,-1,-1,-1,-1,-1,-1,-1,-1,-1,-1,-1,-1,-1,-1,-1,-1,-1,-1,-1,-1,-1,-1,-1,-1,-1,-1,-1,-1,-1,-1,-1,-1,-1,-1,-1,-1,-1,-1,-1,-1,-1,-1,-1,-1,-1,-1,-1,-1,-1,-1,-1,-1,-1,-1,-1,-1,-1,-1,-1,-1,-1,-1],"loss_changes":[1.5993921E3,8.088486E2,4.847306E2,1.2926785E2,2.751855E2,9.8996826E1,1.9760388E2,7.7196556E1,6.43436E1,1.5166614E2,9.683696E1,7.163306E1,6.209466E0,3.0634003E1,8.076669E1,3.2073742E1,2.7912163E1,4.345677E1,4.698172E1,9.743512E1,2.8255493E1,4.592076E1,8.060431E1,5.6569397E1,2.539795E1,4.6173816E0,7.92684E0,2.4373108E1,1.7499924E1,5.4097565E1,4.8648346E1,2.8107243E1,1.0105705E1,1.5039825E1,1.5586057E1,2.2197708E1,4.44364E1,1.1950627E1,3.9117233E1,1.0091858E2,3.2555702E1,1.0973345E1,2.3626648E1,3.0320953E1,1.2981262E1,3.2978073E1,2.1941107E1,5.70719E1,3.141565E1,3.9092429E0,1.5937988E1,3.2184649E0,6.267365E0,4.1875324E0,9.172412E0,1.5561691E1,2.2231064E1,1.383255E1,6.7462816E0,3.242285E1,2.6130165E1,9.008079E0,2.657759E1,0E0,0E0,0E0,0E0,0E0,0E0,0E0,0E0,0E0,0E0,0E0,0E0,0E0,0E0,0E0,0E0,0E0,0E0,0E0,0E0,0E0,0E0,0E0,0E0,0E0,0E0,0E0,0E0,0E0,0E0,0E0,0E0,0E0,0E0,0E0,0E0,0E0,0E0,0E0,0E0,0E0,0E0,0E0,0E0,0E0,0E0,0E0,0E0,0E0,0E0,0E0,0E0,0E0,0E0,0E0,0E0,0E0,0E0,0E0,0E0,0E0,0E0,0E0,0E0],"parents":[2147483647,0,0,1,1,2,2,3,3,4,4,5,5,6,6,7,7,8,8,9,9,10,10,11,11,12,12,13,13,14,14,15,15,16,16,17,17,18,18,19,19,20,20,21,21,22,22,23,23,24,24,25,25,26,26,27,27,28,28,29,29,30,30,31,31,32,32,33,33,34,34,35,35,36,36,37,37,38,38,39,39,40,40,41,41,42,42,43,43,44,44,45,45,46,46,47,47,48,48,49,49,50,50,51,51,52,52,53,53,54,54,55,55,56,56,57,57,58,58,59,59,60,60,61,61,62,62],"right_children":[2,4,6,8,10,12,14,16,18,20,22,24,26,28,30,32,34,36,38,40,42,44,46,48,50,52,54,56,58,60,62,64,66,68,70,72,74,76,78,80,82,84,86,88,90,92,94,96,98,100,102,104,106,108,110,112,114,116,118,120,122,124,126,-1,-1,-1,-1,-1,-1,-1,-1,-1,-1,-1,-1,-1,-1,-1,-1,-1,-1,-1,-1,-1,-1,-1,-1,-1,-1,-1,-1,-1,-1,-1,-1,-1,-1,-1,-1,-1,-1,-1,-1,-1,-1,-1,-1,-1,-1,-1,-1,-1,-1,-1,-1,-1,-1,-1,-1,-1,-1,-1,-1,-1,-1,-1,-1],"split_conditions":[1E0,1.06E1,6E-1,1E0,1E0,2.4E1,2.8E1,1.05E0,1.36E2,1E0,1.01E2,3.9E0,1E0,1E0,7E-1,3.56E2,1.03E2,2.9E1,8.070588E1,2.3E1,7E0,3.1E0,1E0,1.8E1,2.3E1,1E0,2.804E1,2.65E1,2.4E1,1E0,3.65E1,8.3E1,8.175E0,8E0,4E0,9E-1,1.5E0,1.02E2,3.56E0,1E0,1E2,8.5E0,3.44E1,1.15E1,1.8E1,1E0,1E0,1.16E2,6.8E1,1.3E1,8.725E0,3.095E1,1.31E2,1E0,1.6E0,5.5E1,9.3E0,9.6E1,9.914286E1,4.114286E0,1E0,1.2E0,1E0,3.6164884E-2,-1.3329871E-2,-1.7632456E-2,1.43943345E-2,3.6744412E-2,1.3749284E-2,2.904675E-2,-2.8011613E-4,3.33963E-3,2.7325278E-2,5.4345436E-2,2.1463032E-3,1.5601575E-2,-1.2532914E-2,8.633825E-3,2.1396909E-2,-2.4009826E-2,-1.1656589E-2,9.370117E-3,-8.056708E-3,-2.9082924E-2,4.9545914E-2,-3.0918384E-2,-4.661372E-2,1.4696188E-2,-1.3577872E-3,-1.2831238E-2,3.6511518E-2,-1.6526349E-2,-1.7586239E-3,-4.1735726E-3,6.586738E-3,3.9534062E-2,6.779479E-2,6.891727E-2,2.4062088E-2,2.4406498E-2,-3.1347837E-2,4.952952E-2,8.0519274E-2,-1.677305E-2,-5.625236E-2,3.9864134E-2,-1.7375838E-2,6.683575E-2,7.184606E-3,4.3455686E-2,-2.4446316E-2,5.651453E-2,3.1173408E-2,7.663559E-2,2.4592785E-2,2.9711252E-2,-2.9086461E-2,-8.397726E-3,4.0330075E-2,-6.3414336E-3,9.000498E-3,5.700378E-3,1.9577993E-2,-2.9398879E-2,6.317088E-3,3.5435837E-2,1.4368616E-2],"split_indices":[88,30,69,97,97,2,29,50,39,101,72,18,105,100,23,81,72,67,10,24,24,73,91,70,3,97,61,42,2,104,17,35,48,30,40,50,78,26,57,91,26,71,29,30,45,87,87,28,35,4,48,61,7,107,79,81,40,70,12,59,0,73,107,0,0,0,0,0,0,0,0,0,0,0,0,0,0,0,0,0,0,0,0,0,0,0,0,0,0,0,0,0,0,0,0,0,0,0,0,0,0,0,0,0,0,0,0,0,0,0,0,0,0,0,0,0,0,0,0,0,0,0,0,0,0,0,0],"split_type":[0,0,0,0,0,0,0,0,0,0,0,0,0,0,0,0,0,0,0,0,0,0,0,0,0,0,0,0,0,0,0,0,0,0,0,0,0,0,0,0,0,0,0,0,0,0,0,0,0,0,0,0,0,0,0,0,0,0,0,0,0,0,0,0,0,0,0,0,0,0,0,0,0,0,0,0,0,0,0,0,0,0,0,0,0,0,0,0,0,0,0,0,0,0,0,0,0,0,0,0,0,0,0,0,0,0,0,0,0,0,0,0,0,0,0,0,0,0,0,0,0,0,0,0,0,0,0],"sum_hessian":[2.7939799E4,2.1759438E4,6.180362E3,5.8888228E3,1.5870614E4,1.520047E3,4.660315E3,2.4910425E3,3.3977803E3,9.22966E3,6.6409536E3,1.4386547E3,8.13924E1,1.0221965E3,3.6381182E3,1.2158855E3,1.275157E3,7.035084E2,2.6942717E3,8.119878E3,1.1097825E3,1.5504868E3,5.090467E3,1.1381968E3,3.0045782E2,4.5429268E1,3.5963135E1,4.866847E2,5.355118E2,2.9064583E3,7.3166003E2,1.01449615E3,2.0138931E2,6.338074E2,6.413497E2,4.312173E2,2.722911E2,2.652133E2,2.4290586E3,6.6337793E3,1.4860985E3,1.8541176E1,1.0912413E3,1.3940164E3,1.564705E2,2.6335508E3,2.456916E3,7.3272644E2,4.0547034E2,1.0594987E1,2.8986282E2,2.2313004E1,2.3116266E1,1.1540742E1,2.4422392E1,3.751304E2,1.11554306E2,4.806586E2,5.48532E1,1.547262E3,1.3591962E3,7.196277E1,6.5969727E2,2.860393E1,9.858922E2,2.7805836E1,1.7358348E2,8.128605E1,5.525213E2,4.804879E1,5.9330084E2,1.4594199E2,2.852753E2,2.2231044E2,4.9980686E1,4.460283E1,2.2061046E2,1.3368677E3,1.0921908E3,3.4693396E3,3.1644397E3,3.4969653E2,1.136402E3,5.7525005E0,1.2788676E1,7.211995E2,3.7004175E2,4.203139E2,9.7370245E2,1.4205819E1,1.422647E2,2.1757473E3,4.578035E2,1.8171993E3,6.397166E2,4.0064175E2,3.3208472E2,4.3260376E1,3.6220996E2,5.256262E0,5.3387246E0,5.829014E1,2.315727E2,1.3269108E1,9.043896E0,5.431379E0,1.7684887E1,6.0036173E0,5.5371246E0,5.668501E0,1.8753891E1,7.8364944E1,2.9676544E2,8.271831E1,2.8836002E1,4.7119455E2,9.464038E0,4.7531223E1,7.3219776E0,1.0315394E3,5.1572253E2,6.9974695E2,6.594493E2,4.2966927E1,2.8995846E1,4.259368E2,2.3376045E2],"tree_param":{"num_deleted":"0","num_feature":"108","num_nodes":"127","size_leaf_vector":"1"}},{"base_weights":[3.9374272E-4,-1.21813975E-1,4.2522052E-1,1.5973927E-1,-2.4571455E-1,9.2864007E-1,2.9925305E-1,5.1502576E-3,2.8970212E-1,-3.555115E-1,-9.137271E-2,7.435735E-1,1.293595E0,5.700864E-1,1.7989938E-1,-1.7739245E-1,1.3604072E-1,5.4576296E-1,1.524137E-1,-3.972516E-1,-4.2331204E-2,-1.0988199E-1,6.4210373E-1,8.499383E-1,1.8976912E-1,1.4731188E0,8.2589096E-1,9.4978076E-1,4.7331983E-1,3.3929986E-1,6.926078E-2,-2.4031563E-1,2.2076847E-1,4.7324058E-2,3.947525E-1,3.062225E-1,7.075735E-1,1.9586319E-1,-2.947863E-1,-3.5498372E-1,-6.630956E-1,-1.023475E-1,2.783504E-1,-1.693992E-1,9.3130834E-2,9.5250654E-1,3.7303403E-1,-4.7141936E-2,9.3085784E-1,9.411094E-1,3.5518393E-2,2.0364778E0,1.3099023E0,9.204086E-1,-4.0720325E-2,1.008502E0,-2.3837014E-1,7.203165E-1,3.282533E-1,-1.5695877E-1,3.8041267E-1,-6.391236E-2,2.3178923E-1,-1.4883228E-2,2.7504147E-3,2.9907234E-3,4.0628087E-2,1.797417E-2,-2.0844527E-3,-1.2612854E-2,2.5550826E-2,4.0763345E-2,1.2206423E-2,1.8070998E-2,4.0641982E-2,1.6565638E-2,3.3947441E-3,-2.2375377E-2,1.2941966E-3,-1.791357E-2,5.8593452E-2,-2.6471106E-2,-4.3644663E-2,-2.2247094E-3,-1.9376788E-2,9.032938E-3,4.725727E-2,-9.711915E-3,1.4726574E-2,1.0837624E-2,-2.8024353E-3,9.859263E-2,3.4517046E-2,2.7071342E-2,-2.0273104E-2,1.1443053E-2,-2.650243E-2,3.709172E-2,5.9361976E-2,1.5294641E-3,6.067766E-2,-9.913324E-3,2.076283E-2,6.1792195E-2,1.0923248E-1,6.866711E-2,8.096404E-3,3.192611E-2,6.692555E-2,5.2469432E-2,-2.2887595E-2,2.0903034E-2,-3.292706E-2,6.523406E-2,2.9702133E-2,2.8500432E-2,1.1950516E-2,1.8237596E-2,-1.5882378E-2,2.17283E-2,1.4492001E-3,-4.921557E-3,3.420765E-2,5.9592504E-2,9.9241715E-3],"categories":[],"categories_nodes":[],"categories_segments":[],"categories_sizes":[],"default_left":[0,0,0,0,0,0,0,0,0,0,0,0,0,0,0,0,0,0,0,0,0,0,0,0,0,0,0,0,0,0,0,0,0,0,0,0,0,0,0,0,0,0,0,0,0,0,0,0,0,0,0,0,0,0,0,0,0,0,0,0,0,0,0,0,0,0,0,0,0,0,0,0,0,0,0,0,0,0,0,0,0,0,0,0,0,0,0,0,0,0,0,0,0,0,0,0,0,0,0,0,0,0,0,0,0,0,0,0,0,0,0,0,0,0,0,0,0,0,0,0,0,0,0,0,0],"id":8,"left_children":[1,3,5,7,9,11,13,15,17,19,21,23,25,27,29,31,33,35,37,39,41,43,45,47,49,51,53,55,57,59,61,63,65,67,69,71,73,75,77,79,81,83,85,87,89,91,93,95,97,99,101,103,105,107,-1,109,111,113,115,117,119,121,123,-1,-1,-1,-1,-1,-1,-1,-1,-1,-1,-1,-1,-1,-1,-1,-1,-1,-1,-1,-1,-1,-1,-1,-1,-1,-1,-1,-1,-1,-1,-1,-1,-1,-1,-1,-1,-1,-1,-1,-1,-1,-1,-1,-1,-1,-1,-1,-1,-1,-1,-1,-1,-1,-1,-1,-1,-1,-1,-1,-1,-1,-1],"loss_changes":[1.4461464E3,7.546671E2,3.9433752E2,1.3282004E2,2.5453522E2,8.3125E1,1.6083765E2,7.219257E1,1.26175934E2,1.1472241E2,8.486293E1,4.8637512E1,3.3842224E1,5.5489807E1,6.094925E1,3.1665386E1,4.0369606E1,4.835605E1,4.5514107E1,8.679236E1,1.9916916E1,7.363388E1,1.2496487E1,5.047061E1,1.5584749E1,2.4959045E1,1.9058273E1,2.174469E1,4.330835E1,2.895494E1,4.421416E1,1.847845E1,1.6402767E1,3.6456097E1,3.3919685E1,1.5826324E1,2.6931702E1,3.6946793E1,1.0176777E1,3.397577E1,2.9302307E1,1.4356678E1,1.0458726E1,5.4355286E1,2.5497393E1,1.7560974E1,1.1240548E1,7.908858E0,3.000122E1,5.6472874E0,1.0100532E1,5.093048E0,1.6947601E1,1.2360413E1,0E0,1.8099365E1,4.5019603E0,3.2343933E1,1.6421616E1,9.258822E0,2.4883636E1,2.9070385E1,2.9177399E1,0E0,0E0,0E0,0E0,0E0,0E0,0E0,0E0,0E0,0E0,0E0,0E0,0E0,0E0,0E0,0E0,0E0,0E0,0E0,0E0,0E0,0E0,0E0,0E0,0E0,0E0,0E0,0E0,0E0,0E0,0E0,0E0,0E0,0E0,0E0,0E0,0E0,0E0,0E0,0E0,0E0,0E0,0E0,0E0,0E0,0E0,0E0,0E0,0E0,0E0,0E0,0E0,0E0,0E0,0E0,0E0,0E0,0E0,0E0,0E0,0E0,0E0],"parents":[2147483647,0,0,1,1,2,2,3,3,4,4,5,5,6,6,7,7,8,8,9,9,10,10,11,11,12,12,13,13,14,14,15,15,16,16,17,17,18,18,19,19,20,20,21,21,22,22,23,23,24,24,25,25,26,26,27,27,28,28,29,29,30,30,31,31,32,32,33,33,34,34,35,35,36,36,37,37,38,38,39,39,40,40,41,41,42,42,43,43,44,44,45,45,46,46,47,47,48,48,49,49,50,50,51,51,52,52,53,53,55,55,56,56,57,57,58,58,59,59,60,60,61,61,62,62],"right_children":[2,4,6,8,10,12,14,16,18,20,22,24,26,28,30,32,34,36,38,40,42,44,46,48,50,52,54,56,58,60,62,64,66,68,70,72,74,76,78,80,82,84,86,88,90,92,94,96,98,100,102,104,106,108,-1,110,112,114,116,118,120,122,124,-1,-1,-1,-1,-1,-1,-1,-1,-1,-1,-1,-1,-1,-1,-1,-1,-1,-1,-1,-1,-1,-1,-1,-1,-1,-1,-1,-1,-1,-1,-1,-1,-1,-1,-1,-1,-1,-1,-1,-1,-1,-1,-1,-1,-1,-1,-1,-1,-1,-1,-1,-1,-1,-1,-1,-1,-1,-1,-1,-1,-1,-1],"split_conditions":[1E0,1.062E1,5E-1,1E0,1E0,3.6E0,6.2E0,1E0,6.3E1,2.6E1,4.0333333E0,7.8E1,1E0,6.1E1,1.04E2,3.72E2,2.9E1,1E0,2.5E1,1E0,4E0,1E0,4.5E1,1.8E0,2.73E1,4.7E1,3.73E1,8.5E1,6.2E1,1.44E2,1E0,3.47E1,1.46E1,4.6E1,1.161579E2,7.6666665E0,8E0,1.03E2,2.1E0,3.4E0,1.12E1,1.072E2,1.7666667E0,3.56E2,6.3E1,1.8E1,6.333333E-1,2.7333334E1,1.15333336E2,3.2E0,2.6E1,1.5E1,4.35E1,1.23333336E2,-4.0720325E-2,1.925E1,4E0,2.6E1,1.366E2,1.7E1,8.3E1,6.3E1,6.6E1,-1.4883228E-2,2.7504147E-3,2.9907234E-3,4.0628087E-2,1.797417E-2,-2.0844527E-3,-1.2612854E-2,2.5550826E-2,4.0763345E-2,1.2206423E-2,1.8070998E-2,4.0641982E-2,1.6565638E-2,3.3947441E-3,-2.2375377E-2,1.2941966E-3,-1.791357E-2,5.8593452E-2,-2.6471106E-2,-4.3644663E-2,-2.2247094E-3,-1.9376788E-2,9.032938E-3,4.725727E-2,-9.711915E-3,1.4726574E-2,1.0837624E-2,-2.8024353E-3,9.859263E-2,3.4517046E-2,2.7071342E-2,-2.0273104E-2,1.1443053E-2,-2.650243E-2,3.709172E-2,5.9361976E-2,1.5294641E-3,6.067766E-2,-9.913324E-3,2.076283E-2,6.1792195E-2,1.0923248E-1,6.866711E-2,8.096404E-3,3.192611E-2,6.692555E-2,5.2469432E-2,-2.2887595E-2,2.0903034E-2,-3.292706E-2,6.523406E-2,2.9702133E-2,2.8500432E-2,1.1950516E-2,1.8237596E-2,-1.5882378E-2,2.17283E-2,1.4492001E-3,-4.921557E-3,3.420765E-2,5.9592504E-2,9.9241715E-3],"split_indices":[88,53,69,50,97,18,86,97,1,24,50,1,96,81,26,81,44,97,3,101,27,87,70,32,38,1,9,1,1,7,0,38,37,1,11,53,71,72,73,27,53,49,54,81,1,65,46,44,51,18,68,42,38,51,0,43,82,44,62,2,1,42,81,0,0,0,0,0,0,0,0,0,0,0,0,0,0,0,0,0,0,0,0,0,0,0,0,0,0,0,0,0,0,0,0,0,0,0,0,0,0,0,0,0,0,0,0,0,0,0,0,0,0,0,0,0,0,0,0,0,0,0,0,0,0],"split_type":[0,0,0,0,0,0,0,0,0,0,0,0,0,0,0,0,0,0,0,0,0,0,0,0,0,0,0,0,0,0,0,0,0,0,0,0,0,0,0,0,0,0,0,0,0,0,0,0,0,0,0,0,0,0,0,0,0,0,0,0,0,0,0,0,0,0,0,0,0,0,0,0,0,0,0,0,0,0,0,0,0,0,0,0,0,0,0,0,0,0,0,0,0,0,0,0,0,0,0,0,0,0,0,0,0,0,0,0,0,0,0,0,0,0,0,0,0,0,0,0,0,0,0,0,0],"sum_hessian":[2.7852908E4,2.1631111E4,6.2217964E3,6.6100527E3,1.5021059E4,1.2439745E3,4.977822E3,3.019472E3,3.5905808E3,8.776358E3,6.2447E3,8.27428E2,4.165465E2,1.5215026E3,3.4563193E3,1.2607905E3,1.7586814E3,1.2521613E3,2.3384197E3,7.743985E3,1.0323733E3,6.091823E3,1.5287695E2,6.9366626E2,1.3376169E2,2.9945416E2,1.17092354E2,3.0721838E2,1.2142842E3,1.4152532E3,2.0410662E3,1.0890754E3,1.7171512E2,1.3104788E3,4.4820255E2,5.0599313E2,7.461681E2,2.131853E3,2.0656665E2,6.6836523E3,1.0603329E3,8.701952E2,1.6217816E2,4.710897E3,1.3809265E3,6.980681E1,8.3070145E1,5.742838E1,6.362379E2,2.1914946E1,1.1184674E2,6.469058E1,2.3476358E2,1.1112779E2,5.9645567E0,2.9289407E2,1.4324324E1,4.478276E2,7.6645654E2,1.08061516E2,1.3071917E3,1.1221783E3,9.188878E2,9.1197174E2,1.7710364E2,1.3586427E2,3.585085E1,2.90098E2,1.0203808E3,6.809332E1,3.8010922E2,5.3692726E1,4.523004E2,1.7503215E2,5.711359E2,1.0348815E3,1.0969716E3,1.3965807E2,6.6908585E1,6.670055E3,1.3597012E1,6.4982043E2,4.1051236E2,7.243995E2,1.4579572E2,1.425624E2,1.9615776E1,4.4720425E3,2.3885417E2,7.5490295E2,6.260236E2,1.29466305E1,5.686018E1,6.8547485E1,1.4522662E1,3.6877373E1,2.055101E1,3.68469E2,2.677689E2,5.303309E0,1.6611635E1,6.952298E1,4.2323765E1,1.15611925E1,5.312939E1,2.2228337E2,1.2480216E1,6.788597E1,4.3241825E1,2.8522485E2,7.6692147E0,5.592388E0,8.7319355E0,7.791657E1,3.6991104E2,2.0519771E2,5.6125885E2,2.5146868E1,8.291465E1,1.1324504E3,1.747413E2,1.0735106E3,4.8667725E1,2.9642382E1,8.892454E2],"tree_param":{"num_deleted":"0","num_feature":"108","num_nodes":"125","size_leaf_vector":"1"}},{"base_weights":[1.4122165E-3,2.5683755E-1,-1.7811897E-1,4.96551E-1,1.6095853E-1,-1.452252E-1,-6.1614096E-1,6.1285985E-1,2.5793323E-1,2.8549922E-1,5.4240577E-2,-2.3391548E-1,-3.5140686E-2,7.460437E-1,-6.4901555E-1,8.6989504E-1,4.947318E-1,4.273532E-1,1.1680253E-1,3.7311605E-1,6.2087417E-2,-7.615762E-2,1.7277847E-1,2.8698754E-2,-2.6237512E-1,1.3963374E-1,-9.279784E-2,8.816399E-2,7.476072E-2,-5.2396476E-1,-8.549407E-1,1.084179E0,6.2705284E-1,8.0737495E-1,3.83436E-1,1.4118564E-1,5.602468E-1,3.3060884E-1,-4.4103447E-2,-6.9611506E-3,4.265345E-1,-3.7427004E-3,3.6373758E-1,1.5895113E-1,-1.7731239E-1,-2.215632E-1,2.2820514E-1,-1.1769315E-1,1.3934757E-1,-2.9722172E-1,-6.2996894E-2,1.8849039E-1,-1.4988188E-1,-1.3894106E-1,8.758472E-2,4.2470526E-2,-3.228345E-2,-5.595526E-1,-1.3234931E-1,-4.274828E-1,-4.6821576E-2,4.0131994E-2,6.271652E-2,5.131599E-2,2.2639683E-2,2.1010902E-2,5.6283038E-2,9.714275E-3,3.1975683E-2,8.98619E-4,5.197245E-2,-3.248906E-2,2.9469896E-2,1.9537533E-2,-1.9147279E-2,2.6313966E-2,-7.5170994E-3,3.7729486E-3,-2.4807254E-2,3.5332184E-2,1.7967168E-2,-1.6311225E-2,2.1094868E-3,2.239984E-2,-1.0457943E-2,1.1101803E-2,-2.170387E-2,-6.1327927E-3,-3.1788614E-2,4.5775753E-2,-1.3333629E-2,8.987754E-3,3.0115545E-2,-1.0598644E-2,8.497454E-3,-6.3825487E-3,1.191182E-2,-1.5732057E-2,9.338627E-4,1.3564988E-3,-1.5334378E-2,-3.104572E-3,1.3415301E-2,-4.5926332E-2,-4.5155766E-3,8.360431E-3,-8.363828E-3,7.3281373E-3,-9.421504E-3,-4.2835187E-2,-2.5986625E-2,1.827079E-2,-1.7247517E-2,-2.8036044E-3,-3.261589E-2],"categories":[],"categories_nodes":[],"categories_segments":[],"categories_sizes":[],"default_left":[0,0,0,0,0,0,0,0,0,0,0,0,0,0,0,0,0,0,0,0,0,0,0,0,0,0,0,0,0,0,0,0,0,0,0,0,0,0,0,0,0,0,0,0,0,0,0,0,0,0,0,0,0,0,0,0,0,0,0,0,0,0,0,0,0,0,0,0,0,0,0,0,0,0,0,0,0,0,0,0,0,0,0,0,0,0,0,0,0,0,0,0,0,0,0,0,0,0,0,0,0,0,0,0,0,0,0,0,0,0,0,0,0,0,0],"id":9,"left_children":[1,3,5,7,9,11,13,15,17,19,21,23,25,27,29,31,33,35,37,39,41,43,45,47,49,51,53,-1,55,57,59,61,63,65,67,69,71,73,75,77,79,81,83,85,87,89,91,93,95,97,99,101,103,105,107,-1,-1,109,111,113,-1,-1,-1,-1,-1,-1,-1,-1,-1,-1,-1,-1,-1,-1,-1,-1,-1,-1,-1,-1,-1,-1,-1,-1,-1,-1,-1,-1,-1,-1,-1,-1,-1,-1,-1,-1,-1,-1,-1,-1,-1,-1,-1,-1,-1,-1,-1,-1,-1,-1,-1,-1,-1,-1,-1],"loss_changes":[1.2764132E3,2.6397693E2,2.354237E2,9.092651E1,1.0907547E2,1.4844785E2,5.1599976E1,6.6542114E1,2.5706558E1,7.411575E1,6.8357605E1,6.2943542E1,6.839104E1,1.8553518E1,2.8266846E1,3.5392273E1,5.2354736E1,1.852378E1,2.0279312E1,5.5234833E1,2.1212109E1,5.0117165E1,5.0680443E1,1.3367491E1,5.2766235E1,2.3842812E1,4.2486073E1,0E0,1.0331201E1,9.630997E0,1.4220367E1,1.656839E1,2.2308746E1,4.837854E1,5.4032654E1,1.729822E1,1.2153915E1,1.1009584E1,2.0499222E1,1.3592805E1,4.463672E1,1.3015815E1,9.330795E0,2.381864E1,3.6833275E1,1.4912243E1,3.671254E1,9.6728E0,1.2436862E1,3.5592102E1,2.4861391E1,2.883672E1,1.1073483E1,3.5281494E1,1.6958858E1,0E0,0E0,7.1045074E0,6.4036126E0,5.7290735E0,0E0,0E0,0E0,0E0,0E0,0E0,0E0,0E0,0E0,0E0,0E0,0E0,0E0,0E0,0E0,0E0,0E0,0E0,0E0,0E0,0E0,0E0,0E0,0E0,0E0,0E0,0E0,0E0,0E0,0E0,0E0,0E0,0E0,0E0,0E0,0E0,0E0,0E0,0E0,0E0,0E0,0E0,0E0,0E0,0E0,0E0,0E0,0E0,0E0,0E0,0E0,0E0,0E0,0E0,0E0],"parents":[2147483647,0,0,1,1,2,2,3,3,4,4,5,5,6,6,7,7,8,8,9,9,10,10,11,11,12,12,13,13,14,14,15,15,16,16,17,17,18,18,19,19,20,20,21,21,22,22,23,23,24,24,25,25,26,26,28,28,29,29,30,30,31,31,32,32,33,33,34,34,35,35,36,36,37,37,38,38,39,39,40,40,41,41,42,42,43,43,44,44,45,45,46,46,47,47,48,48,49,49,50,50,51,51,52,52,53,53,54,54,57,57,58,58,59,59],"right_children":[2,4,6,8,10,12,14,16,18,20,22,24,26,28,30,32,34,36,38,40,42,44,46,48,50,52,54,-1,56,58,60,62,64,66,68,70,72,74,76,78,80,82,84,86,88,90,92,94,96,98,100,102,104,106,108,-1,-1,110,112,114,-1,-1,-1,-1,-1,-1,-1,-1,-1,-1,-1,-1,-1,-1,-1,-1,-1,-1,-1,-1,-1,-1,-1,-1,-1,-1,-1,-1,-1,-1,-1,-1,-1,-1,-1,-1,-1,-1,-1,-1,-1,-1,-1,-1,-1,-1,-1,-1,-1,-1,-1,-1,-1,-1,-1],"split_conditions":[1.1E1,5.8E0,1E0,7.1E1,1.03E2,1E0,4E0,2.65E1,9.125E0,7.7E1,1E0,9.9E1,1.38E2,1.11E1,1.1333333E1,1.11E2,2.85E1,9.5333336E1,1.03E2,1.45E2,1E0,2.87E1,8.070588E1,1.65E1,1E0,8.1E1,1E0,8.816399E-2,7E0,1E0,8E-1,8.225E0,2.7E1,1.08E2,2.9E1,5.4E0,2.5E0,3.38E1,5E-1,1.42E2,5E-1,1E0,4.11E2,3.688889E1,1E0,1.3466667E2,3.85E2,2.94E2,3.8E0,3.285E2,3.84E1,1E0,7.692E1,5E-1,7.9E1,4.2470526E-2,-3.228345E-2,3.37E1,3E1,2.02E2,-4.6821576E-2,4.0131994E-2,6.271652E-2,5.131599E-2,2.2639683E-2,2.1010902E-2,5.6283038E-2,9.714275E-3,3.1975683E-2,8.98619E-4,5.197245E-2,-3.248906E-2,2.9469896E-2,1.9537533E-2,-1.9147279E-2,2.6313966E-2,-7.5170994E-3,3.7729486E-3,-2.4807254E-2,3.5332184E-2,1.7967168E-2,-1.6311225E-2,2.1094868E-3,2.239984E-2,-1.0457943E-2,1.1101803E-2,-2.170387E-2,-6.1327927E-3,-3.1788614E-2,4.5775753E-2,-1.3333629E-2,8.987754E-3,3.0115545E-2,-1.0598644E-2,8.497454E-3,-6.3825487E-3,1.191182E-2,-1.5732057E-2,9.338627E-4,1.3564988E-3,-1.5334378E-2,-3.104572E-3,1.3415301E-2,-4.5926332E-2,-4.5155766E-3,8.360431E-3,-8.363828E-3,7.3281373E-3,-9.421504E-3,-4.2835187E-2,-2.5986625E-2,1.827079E-2,-1.7247517E-2,-2.8036044E-3,-3.261589E-2],"split_indices":[76,63,101,1,72,97,36,29,53,1,97,72,62,76,53,35,44,51,72,7,98,29,10,47,87,1,87,0,24,100,27,48,44,28,44,86,18,75,23,21,69,90,35,13,101,62,81,81,82,58,75,90,10,69,1,0,0,29,1,35,0,0,0,0,0,0,0,0,0,0,0,0,0,0,0,0,0,0,0,0,0,0,0,0,0,0,0,0,0,0,0,0,0,0,0,0,0,0,0,0,0,0,0,0,0,0,0,0,0,0,0,0,0,0,0],"split_type":[0,0,0,0,0,0,0,0,0,0,0,0,0,0,0,0,0,0,0,0,0,0,0,0,0,0,0,0,0,0,0,0,0,0,0,0,0,0,0,0,0,0,0,0,0,0,0,0,0,0,0,0,0,0,0,0,0,0,0,0,0,0,0,0,0,0,0,0,0,0,0,0,0,0,0,0,0,0,0,0,0,0,0,0,0,0,0,0,0,0,0,0,0,0,0,0,0,0,0,0,0,0,0,0,0,0,0,0,0,0,0,0,0,0,0],"sum_hessian":[2.783276E4,1.1487979E4,1.6344781E4,3.28093E3,8.207049E3,1.5204326E4,1.1404552E3,2.2047202E3,1.0762097E3,3.7864988E3,4.4205493E3,8.419765E3,6.7845615E3,2.6363632E1,1.1140916E3,6.9219885E2,1.5125215E3,4.8816513E2,5.8804456E2,2.71936E3,1.0671389E3,2.1051387E3,2.315411E3,8.232385E2,7.596526E3,1.6826307E3,5.101931E3,9.834333E0,1.6529297E1,6.9536584E2,4.187257E2,3.658809E2,3.2631796E2,3.9543713E2,1.1170842E3,1.5546202E2,3.327031E2,2.5206053E2,3.3598404E2,3.352063E2,2.3841538E3,8.7678314E2,1.9035571E2,6.3309576E2,1.4720428E3,2.8496753E2,2.0304434E3,3.543537E2,4.6888486E2,6.465942E3,1.1305842E3,1.4399788E3,2.4265187E2,4.0628523E3,1.0390789E3,7.8786554E0,8.650642E0,6.3704584E2,5.832002E1,6.804465E1,3.5068106E2,1.3998059E2,2.259003E2,9.766224E1,2.2865573E2,1.7946252E2,2.1597462E2,6.4351434E2,4.7356995E2,1.3760675E2,1.7855276E1,7.3258524E0,3.2537726E2,2.3288432E2,1.9176218E1,5.213317E1,2.8385086E2,2.8759637E2,4.7609913E1,4.5941388E2,1.9247399E3,1.0855307E2,7.682301E2,1.6613873E2,2.4216991E1,5.727894E2,6.0306343E1,1.3163751E3,1.5566772E2,1.0137393E1,2.7483014E2,1.7989443E3,2.3149898E2,2.6707748E2,8.727619E1,1.2664745E2,3.422374E2,6.128031E3,3.3791077E2,8.259883E2,3.045959E2,3.4791586E2,1.092063E3,1.6415903E1,2.2623598E2,3.4376428E2,3.719088E3,8.565275E2,1.8255127E2,7.2855965E1,5.641898E2,1.723911E1,4.108091E1,2.6129705E1,4.1914944E1],"tree_param":{"num_deleted":"0","num_feature":"108","num_nodes":"115","size_leaf_vector":"1"}},{"base_weights":[-1.6737514E-3,-1.14535965E-1,3.8088292E-1,1.8954329E-1,-2.0903002E-1,8.11244E-1,2.4200456E-1,1.07788295E-1,4.3781498E-1,-2.9166517E-1,-3.8595967E-2,8.9009804E-1,6.684264E-2,5.2083474E-1,1.2881702E-1,-4.0306174E-3,2.5910708E-1,7.228538E-1,3.2703632E-1,-4.220734E-1,-1.3120341E-1,-7.557789E-2,4.002105E-1,-3.0330658E-1,9.366349E-1,-5.0808404E-2,7.5870305E-1,1.0924392E0,4.6878454E-1,5.4185826E-2,4.50422E-1,-1.5946725E-1,1.395746E-1,6.902839E-1,1.7482628E-1,2.740105E-1,8.9633846E-1,4.8514652E-1,1.8501863E-1,-5.2275485E-1,-2.5102115E-1,-5.9000418E-2,-2.5935495E-1,1.4442713E-2,-1.9388713E-1,8.4496903E-1,2.0739812E-1,3.383712E-2,-4.2125556E-1,7.552072E-1,1.2208446E0,7.184779E-1,-2.0671721E-1,-1.6086566E-3,1.2000126E0,7.891062E-1,1.5599389E0,4.9776277E-1,-2.1551904E-1,-6.477788E-2,1.87944E-1,-3.6886823E-1,5.4312426E-1,-9.672136E-5,-1.5978463E-2,1.5558146E-2,-3.96019E-4,2.238517E-2,5.1761992E-2,1.1661695E-2,-1.079524E-2,-4.6645235E-3,3.1808197E-2,5.2304942E-2,9.910428E-3,2.6594816E-2,-3.4871615E-2,4.6879393E-3,2.5725473E-2,-3.1419408E-2,-2.0455865E-2,-1.4909227E-2,3.1697445E-3,-4.018938E-3,3.8215116E-2,-1.3328388E-2,9.302646E-2,-1.9333031E-3,1.6870927E-2,-2.1778818E-3,-1.1911337E-2,5.7150643E-2,1.0166161E-2,4.6972767E-2,6.560221E-3,-3.680347E-2,1.2866461E-3,4.0425844E-2,2.974429E-3,6.807092E-2,3.1938408E-2,5.411314E-2,-1.1858864E-2,-2.3867859E-2,1.6188357E-3,9.959226E-2,2.0412246E-2,1.5026048E-2,6.861695E-2,8.6592846E-2,3.2072313E-2,2.6951715E-2,1.3421247E-3,-6.240113E-3,-4.4640157E-2,1.0268661E-2,-6.1615757E-3,1.4682065E-2,7.321813E-4,-4.2791665E-2,-4.694283E-3,1.4232441E-3,3.1060312E-2],"categories":[],"categories_nodes":[],"categories_segments":[],"categories_sizes":[],"default_left":[0,0,0,0,0,0,0,0,0,0,0,0,0,0,0,0,0,0,0,0,0,0,0,0,0,0,0,0,0,0,0,0,0,0,0,0,0,0,0,0,0,0,0,0,0,0,0,0,0,0,0,0,0,0,0,0,0,0,0,0,0,0,0,0,0,0,0,0,0,0,0,0,0,0,0,0,0,0,0,0,0,0,0,0,0,0,0,0,0,0,0,0,0,0,0,0,0,0,0,0,0,0,0,0,0,0,0,0,0,0,0,0,0,0,0,0,0,0,0,0,0,0,0],"id":10,"left_children":[1,3,5,7,9,11,13,15,17,19,21,23,25,27,29,31,33,35,37,39,41,43,45,47,49,51,53,55,57,59,61,63,65,67,69,71,73,75,77,79,81,83,85,87,89,91,93,-1,95,97,99,101,103,-1,105,107,109,111,113,115,117,119,121,-1,-1,-1,-1,-1,-1,-1,-1,-1,-1,-1,-1,-1,-1,-1,-1,-1,-1,-1,-1,-1,-1,-1,-1,-1,-1,-1,-1,-1,-1,-1,-1,-1,-1,-1,-1,-1,-1,-1,-1,-1,-1,-1,-1,-1,-1,-1,-1,-1,-1,-1,-1,-1,-1,-1,-1,-1,-1,-1,-1],"loss_changes":[1.2013663E3,6.174094E2,3.7866028E2,1.0335666E2,2.3085822E2,9.069293E1,1.5122379E2,6.4869225E1,3.960254E1,2.3095575E2,8.691167E1,7.7919556E1,1.2180544E1,4.065802E1,8.184482E1,4.9254642E1,5.908236E1,2.718576E1,2.0352615E1,1.0474451E2,4.57956E1,5.2599457E1,3.552449E1,6.437148E0,6.846582E1,1.5551723E1,7.6271057E0,1.5039795E1,2.5291931E1,4.408383E1,4.8984604E1,2.6724813E1,2.9030369E1,2.17984E1,3.1181587E1,1.3314096E1,2.631102E1,2.4153214E1,1.4421705E1,4.5747437E1,3.350641E1,5.582179E1,2.7772697E1,4.813521E1,1.4214157E1,2.3781586E1,1.6148823E1,0E0,6.7902727E0,3.0512024E1,4.1899963E1,7.8581343E0,6.975538E0,0E0,7.9523926E0,1.999368E1,5.857033E0,2.3672394E1,3.1016371E0,2.3185413E1,2.388179E1,8.742256E0,2.318686E1,0E0,0E0,0E0,0E0,0E0,0E0,0E0,0E0,0E0,0E0,0E0,0E0,0E0,0E0,0E0,0E0,0E0,0E0,0E0,0E0,0E0,0E0,0E0,0E0,0E0,0E0,0E0,0E0,0E0,0E0,0E0,0E0,0E0,0E0,0E0,0E0,0E0,0E0,0E0,0E0,0E0,0E0,0E0,0E0,0E0,0E0,0E0,0E0,0E0,0E0,0E0,0E0,0E0,0E0,0E0,0E0,0E0,0E0,0E0,0E0],"parents":[2147483647,0,0,1,1,2,2,3,3,4,4,5,5,6,6,7,7,8,8,9,9,10,10,11,11,12,12,13,13,14,14,15,15,16,16,17,17,18,18,19,19,20,20,21,21,22,22,23,23,24,24,25,25,26,26,27,27,28,28,29,29,30,30,31,31,32,32,33,33,34,34,35,35,36,36,37,37,38,38,39,39,40,40,41,41,42,42,43,43,44,44,45,45,46,46,48,48,49,49,50,50,51,51,52,52,54,54,55,55,56,56,57,57,58,58,59,59,60,60,61,61,62,62],"right_children":[2,4,6,8,10,12,14,16,18,20,22,24,26,28,30,32,34,36,38,40,42,44,46,48,50,52,54,56,58,60,62,64,66,68,70,72,74,76,78,80,82,84,86,88,90,92,94,-1,96,98,100,102,104,-1,106,108,110,112,114,116,118,120,122,-1,-1,-1,-1,-1,-1,-1,-1,-1,-1,-1,-1,-1,-1,-1,-1,-1,-1,-1,-1,-1,-1,-1,-1,-1,-1,-1,-1,-1,-1,-1,-1,-1,-1,-1,-1,-1,-1,-1,-1,-1,-1,-1,-1,-1,-1,-1,-1,-1,-1,-1,-1,-1,-1,-1,-1,-1,-1,-1,-1],"split_conditions":[1E0,1.03E1,2.8E1,3.3E1,1E0,8.2E1,2.94E1,1E0,1.17E2,1E0,4.0333333E0,3.65E1,3.8E0,4.3E1,3.2E1,1.825E1,4.8E1,1.5E1,1.39E2,1E0,5.9E1,7.3E1,4E1,6.475E1,1.27E2,2.54E1,1.3E1,3.6E1,9.1E1,1E0,1.161579E2,1.975E0,1.03E2,3.8E0,2.4E1,8.125E0,1.6E0,3E1,1E0,1E0,1.4E1,1.9E1,7.2E0,1.47E1,1.002E2,6.8E1,1.7E0,3.383712E-2,4.4E0,1.69E1,1.25E0,2.2E1,8.7E0,-1.6086566E-3,1.13E2,1E0,4.3E0,2.4E1,3.97E2,1.01E2,7.2E1,6.9E1,8.075E0,-9.672136E-5,-1.5978463E-2,1.5558146E-2,-3.96019E-4,2.238517E-2,5.1761992E-2,1.1661695E-2,-1.079524E-2,-4.6645235E-3,3.1808197E-2,5.2304942E-2,9.910428E-3,2.6594816E-2,-3.4871615E-2,4.6879393E-3,2.5725473E-2,-3.1419408E-2,-2.0455865E-2,-1.4909227E-2,3.1697445E-3,-4.018938E-3,3.8215116E-2,-1.3328388E-2,9.302646E-2,-1.9333031E-3,1.6870927E-2,-2.1778818E-3,-1.1911337E-2,5.7150643E-2,1.0166161E-2,4.6972767E-2,6.560221E-3,-3.680347E-2,1.2866461E-3,4.0425844E-2,2.974429E-3,6.807092E-2,3.1938408E-2,5.411314E-2,-1.1858864E-2,-2.3867859E-2,1.6188357E-3,9.959226E-2,2.0412246E-2,1.5026048E-2,6.861695E-2,8.6592846E-2,3.2072313E-2,2.6951715E-2,1.3421247E-3,-6.240113E-3,-4.4640157E-2,1.0268661E-2,-6.1615757E-3,1.4682065E-2,7.321813E-4,-4.2791665E-2,-4.694283E-3,1.4232441E-3,3.1060312E-2],"split_indices":[88,30,67,84,100,1,29,92,58,91,50,17,18,1,42,47,1,70,39,97,1,1,47,58,28,29,42,65,1,104,11,56,72,80,2,48,78,3,98,90,83,37,69,83,49,1,79,0,36,37,54,21,48,0,28,97,82,2,58,72,1,14,48,0,0,0,0,0,0,0,0,0,0,0,0,0,0,0,0,0,0,0,0,0,0,0,0,0,0,0,0,0,0,0,0,0,0,0,0,0,0,0,0,0,0,0,0,0,0,0,0,0,0,0,0,0,0,0,0,0,0,0,0],"split_type":[0,0,0,0,0,0,0,0,0,0,0,0,0,0,0,0,0,0,0,0,0,0,0,0,0,0,0,0,0,0,0,0,0,0,0,0,0,0,0,0,0,0,0,0,0,0,0,0,0,0,0,0,0,0,0,0,0,0,0,0,0,0,0,0,0,0,0,0,0,0,0,0,0,0,0,0,0,0,0,0,0,0,0,0,0,0,0,0,0,0,0,0,0,0,0,0,0,0,0,0,0,0,0,0,0,0,0,0,0,0,0,0,0,0,0,0,0,0,0,0,0,0,0],"sum_hessian":[2.7822732E4,2.148493E4,6.3378022E3,5.0934243E3,1.6391506E4,1.5450637E3,4.792739E3,3.8327478E3,1.2606763E3,1.1038678E4,5.3528276E3,1.3968958E3,1.4816805E2,1.3827709E3,3.4099678E3,2.2046028E3,1.6281453E3,3.5128305E2,9.0939325E2,6.088714E3,4.949964E3,4.9375283E3,4.152994E2,5.222052E1,1.3446752E3,1.2742581E2,2.0742228E1,1.1373783E2,1.2690331E3,2.768648E3,6.4132E2,1.0586365E3,1.1459663E3,2.6503714E2,1.363108E3,9.8645294E1,2.5263776E2,4.2917307E2,4.8022018E2,3.8314587E3,2.2572551E3,3.167049E3,1.7829148E3,2.8044907E3,2.1330376E3,1.24570786E2,2.907286E2,5.100705E0,4.7119816E1,8.2297766E2,5.216976E2,2.0865046E1,1.0656077E2,7.7609076E0,1.2981321E1,7.0610664E1,4.312717E1,1.2177379E3,5.1295044E1,1.4656359E3,1.303012E3,6.488613E1,5.7643384E2,5.3410974E2,5.245267E2,5.292054E2,6.1676086E2,1.5695842E2,1.08078705E2,1.1861952E3,1.7691286E2,4.9343174E1,4.9302124E1,2.076047E2,4.503305E1,4.1338147E2,1.5791607E1,3.7706747E2,1.031527E2,1.9833129E3,1.8481458E3,1.9628701E3,2.9438504E2,3.0877727E3,7.927649E1,1.7777404E3,5.17445E0,2.4092104E3,3.952801E2,4.8629166E2,1.6467461E3,8.4526794E1,4.004399E1,2.6338884E1,2.643897E2,2.726814E1,1.9851675E1,7.642543E2,5.8723385E1,4.1913577E2,1.0256182E2,1.50163555E1,5.84869E0,4.951558E1,5.704519E1,5.7325788E0,7.248742E0,3.9247524E1,3.1363138E1,3.5581665E1,7.545504E0,1.1194818E3,9.825622E1,4.6280422E1,5.014623E0,2.6026654E2,1.2053694E3,8.08939E2,4.9407294E2,2.2654713E1,4.223142E1,7.611353E1,5.003203E2],"tree_param":{"num_deleted":"0","num_feature":"108","num_nodes":"123","size_leaf_vector":"1"}},{"base_weights":[-9.134481E-5,2.2582118E-1,-1.624868E-1,4.3814442E-1,1.3819565E-1,-1.303154E-1,-6.040315E-1,7.5192565E-1,3.3132643E-1,3.3720857E-1,7.439098E-2,-1.878622E-1,6.911067E-2,6.550333E-2,-6.231925E-1,8.088255E-1,-1.5533947E-2,4.2885277E-1,7.622321E-2,5.8079046E-1,2.602233E-1,2.4472873E-1,5.692001E-3,3.137667E-3,-2.3143618E-1,1.5213579E-1,-7.42937E-2,-4.8625427E-1,-8.1839764E-1,9.152384E-1,5.2869856E-1,-1.4526793E-1,5.601212E-2,5.68447E-1,2.8745478E-1,5.7975467E-2,1.0257264E0,2.1564974E-1,8.82927E-1,1.3856362E-1,4.7988707E-1,3.7271836E-1,1.282094E-1,2.3065308E-1,-4.4782743E-2,-3.234087E-2,7.049823E-1,-3.2585984E-1,-1.1558403E-1,-2.7278098E-1,1.8805115E-1,-9.65959E-2,4.1659325E-1,-5.5988145E-1,2.1215586E-1,-4.7552526E-1,-8.9896786E-1,-1.7586416E-2,4.745544E-2,3.488069E-2,6.9391667E-3,-3.616567E-2,1.5199243E-3,3.0540312E-2,-8.116664E-3,5.6258533E-3,2.3273973E-2,4.909753E-3,-1.8590532E-2,9.286686E-2,5.9145666E-3,2.8652258E-3,3.2905817E-2,2.7564252E-2,5.9274185E-2,2.0006077E-2,-4.5798137E-5,-3.8710204E-3,2.7692094E-2,2.0600636E-2,-1.3250555E-2,1.4353938E-3,1.5653435E-2,2.213681E-2,2.9948312E-3,-5.7811174E-3,3.9596264E-3,-3.452453E-3,1.7669972E-2,9.242633E-2,2.888732E-2,-1.8299941E-2,-3.9755837E-3,-4.1345633E-3,-1.715594E-2,-2.324653E-2,6.053472E-3,2.2972303E-2,6.6482374E-3,-1.9653719E-2,-3.0548042E-3,2.6776982E-3,5.45406E-2,-2.8995797E-2,1.0849505E-3,4.7066446E-2,-6.424263E-3,-3.325409E-2,-1.2898802E-2,-7.873321E-3,-4.5455348E-2],"categories":[],"categories_nodes":[],"categories_segments":[],"categories_sizes":[],"default_left":[0,0,0,0,0,0,0,0,0,0,0,0,0,0,0,0,0,0,0,0,0,0,0,0,0,0,0,0,0,0,0,0,0,0,0,0,0,0,0,0,0,0,0,0,0,0,0,0,0,0,0,0,0,0,0,0,0,0,0,0,0,0,0,0,0,0,0,0,0,0,0,0,0,0,0,0,0,0,0,0,0,0,0,0,0,0,0,0,0,0,0,0,0,0,0,0,0,0,0,0,0,0,0,0,0,0,0,0,0,0,0],"id":11,"left_children":[1,3,5,7,9,11,13,15,17,19,21,23,25,-1,27,29,31,33,35,37,39,41,43,45,47,49,51,53,55,57,59,61,-1,63,65,67,69,71,73,75,77,79,81,83,85,87,89,91,93,95,97,99,101,103,105,107,109,-1,-1,-1,-1,-1,-1,-1,-1,-1,-1,-1,-1,-1,-1,-1,-1,-1,-1,-1,-1,-1,-1,-1,-1,-1,-1,-1,-1,-1,-1,-1,-1,-1,-1,-1,-1,-1,-1,-1,-1,-1,-1,-1,-1,-1,-1,-1,-1,-1,-1,-1,-1,-1,-1],"loss_changes":[1.0190973E3,2.160755E2,2.2948874E2,1.13486145E2,1.0441333E2,1.7289978E2,4.1059418E1,3.761093E1,6.2994293E1,3.7287155E1,7.289467E1,9.730316E1,4.018657E1,0E0,2.866034E1,2.3410767E1,9.064069E0,3.6006348E1,1.2101012E1,5.2615128E1,4.052288E1,2.6651253E1,5.0426617E1,5.4125008E1,1.0409866E2,3.2670025E1,1.3593014E1,3.3097977E1,1.1913147E1,2.5203674E1,1.4593315E1,5.6172423E0,0E0,2.8611725E1,2.8361824E1,1.1958147E1,9.721888E0,1.5239409E1,2.559526E1,3.5711395E1,2.23387E1,2.1475288E1,1.725653E1,2.9445713E1,3.1864897E1,2.9323221E1,1.4150143E1,5.182727E1,3.197639E1,1.2693577E1,2.9411652E1,1.2447523E1,1.3155767E1,6.7758484E0,1.5493206E1,3.421133E0,2.5679016E0,0E0,0E0,0E0,0E0,0E0,0E0,0E0,0E0,0E0,0E0,0E0,0E0,0E0,0E0,0E0,0E0,0E0,0E0,0E0,0E0,0E0,0E0,0E0,0E0,0E0,0E0,0E0,0E0,0E0,0E0,0E0,0E0,0E0,0E0,0E0,0E0,0E0,0E0,0E0,0E0,0E0,0E0,0E0,0E0,0E0,0E0,0E0,0E0,0E0,0E0,0E0,0E0,0E0,0E0],"parents":[2147483647,0,0,1,1,2,2,3,3,4,4,5,5,6,6,7,7,8,8,9,9,10,10,11,11,12,12,14,14,15,15,16,16,17,17,18,18,19,19,20,20,21,21,22,22,23,23,24,24,25,25,26,26,27,27,28,28,29,29,30,30,31,31,33,33,34,34,35,35,36,36,37,37,38,38,39,39,40,40,41,41,42,42,43,43,44,44,45,45,46,46,47,47,48,48,49,49,50,50,51,51,52,52,53,53,54,54,55,55,56,56],"right_children":[2,4,6,8,10,12,14,16,18,20,22,24,26,-1,28,30,32,34,36,38,40,42,44,46,48,50,52,54,56,58,60,62,-1,64,66,68,70,72,74,76,78,80,82,84,86,88,90,92,94,96,98,100,102,104,106,108,110,-1,-1,-1,-1,-1,-1,-1,-1,-1,-1,-1,-1,-1,-1,-1,-1,-1,-1,-1,-1,-1,-1,-1,-1,-1,-1,-1,-1,-1,-1,-1,-1,-1,-1,-1,-1,-1,-1,-1,-1,-1,-1,-1,-1,-1,-1,-1,-1,-1,-1,-1,-1,-1,-1],"split_conditions":[1.11E1,2.76E1,1E0,1.09E2,5.5E0,1E0,5E0,2.4E1,7.6E1,2.85E1,1.00666664E2,1.01E2,7E1,6.550333E-2,1.1125E1,7.1E1,5.0333333E0,1.96E0,7.3E0,1.1E2,2.9E1,6.7E1,2.85E1,2.9E0,1E0,8.291304E1,3.7E0,1E0,8E-1,7.1E0,1E0,9.1E1,5.601212E-2,2.5E1,3.525E0,2.5E1,4.766667E0,2E1,1.78E2,1.025E2,7.6E0,3.702778E1,1.6E0,1.7E1,1.1E0,6E1,2.4E1,1.42E2,7.9E1,2.5E1,2.85E1,3.65E1,2.7E1,1E0,2.9E1,3.57E1,1.39E2,-1.7586416E-2,4.745544E-2,3.488069E-2,6.9391667E-3,-3.616567E-2,1.5199243E-3,3.0540312E-2,-8.116664E-3,5.6258533E-3,2.3273973E-2,4.909753E-3,-1.8590532E-2,9.286686E-2,5.9145666E-3,2.8652258E-3,3.2905817E-2,2.7564252E-2,5.9274185E-2,2.0006077E-2,-4.5798137E-5,-3.8710204E-3,2.7692094E-2,2.0600636E-2,-1.3250555E-2,1.4353938E-3,1.5653435E-2,2.213681E-2,2.9948312E-3,-5.7811174E-3,3.9596264E-3,-3.452453E-3,1.7669972E-2,9.242633E-2,2.888732E-2,-1.8299941E-2,-3.9755837E-3,-4.1345633E-3,-1.715594E-2,-2.324653E-2,6.053472E-3,2.2972303E-2,6.6482374E-3,-1.9653719E-2,-3.0548042E-3,2.6776982E-3,5.45406E-2,-2.8995797E-2,1.0849505E-3,4.7066446E-2,-6.424263E-3,-3.325409E-2,-1.2898802E-2,-7.873321E-3,-4.5455348E-2],"split_indices":[53,29,101,35,86,89,70,3,1,44,49,72,1,0,53,1,59,56,27,28,44,1,44,73,91,10,73,104,27,71,91,16,0,3,57,4,59,19,35,49,71,13,27,24,50,19,70,28,1,68,44,17,68,99,1,75,39,0,0,0,0,0,0,0,0,0,0,0,0,0,0,0,0,0,0,0,0,0,0,0,0,0,0,0,0,0,0,0,0,0,0,0,0,0,0,0,0,0,0,0,0,0,0,0,0,0,0,0,0,0,0],"split_type":[0,0,0,0,0,0,0,0,0,0,0,0,0,0,0,0,0,0,0,0,0,0,0,0,0,0,0,0,0,0,0,0,0,0,0,0,0,0,0,0,0,0,0,0,0,0,0,0,0,0,0,0,0,0,0,0,0,0,0,0,0,0,0,0,0,0,0,0,0,0,0,0,0,0,0,0,0,0,0,0,0,0,0,0,0,0,0,0,0,0,0,0,0,0,0,0,0,0,0,0,0,0,0,0,0,0,0,0,0,0,0],"sum_hessian":[2.7776031E4,1.1616135E4,1.61598955E4,3.392311E3,8.223823E3,1.5063638E4,1.0962577E3,8.5999854E2,2.5323125E3,1.9954711E3,6.2283525E3,1.1690314E4,3.3733242E3,1.0197529E1,1.0860602E3,8.005886E2,5.940995E1,1.8314612E3,7.008513E2,4.776475E2,1.5178236E3,1.7892875E3,4.439065E3,2.1717424E3,9.518571E3,2.1363855E3,1.2369386E3,6.40344E2,4.4571616E2,5.7854663E2,2.2204198E2,5.4102226E1,5.3077254E0,9.2008905E2,9.1137213E2,6.8867725E2,1.217408E1,2.1705002E2,2.6059744E2,9.7786743E2,5.399562E2,8.516267E2,9.3766077E2,8.128227E2,3.6262424E3,2.0681506E3,1.0359195E2,5.2432896E3,4.275282E3,1.659871E2,1.9703984E3,1.183952E3,5.29866E1,5.794555E2,6.0888508E1,8.612157E1,3.595946E2,1.4819488E1,5.637272E2,1.5437572E2,6.766627E1,1.1882919E1,4.2219307E1,8.6983386E2,5.0255234E1,4.604945E2,4.5087762E2,6.3045087E2,5.8226364E1,5.8062215E0,6.3678584E0,1.6067786E2,5.637216E1,1.2566938E2,1.3492809E2,3.394493E2,6.3841815E2,6.3252483E1,4.7670367E2,8.0253186E2,4.9094856E1,6.103122E2,3.2734857E2,3.6182974E2,4.5099298E2,2.3076921E3,1.3185503E3,1.8891906E3,1.7895999E2,9.017552E0,9.4574394E1,4.5082485E3,7.350409E2,3.7364924E3,5.387897E2,1.11438576E2,5.4548527E1,3.3122205E2,1.6391764E3,1.2552779E2,1.0584242E3,3.514297E1,1.7843626E1,5.6016174E2,1.9293756E1,1.8826113E1,4.2062397E1,4.492235E1,4.119922E1,5.073676E0,3.545209E2],"tree_param":{"num_deleted":"0","num_feature":"108","num_nodes":"111","size_leaf_vector":"1"}},{"base_weights":[-3.1210068E-3,-1.0697628E-1,3.4328407E-1,8.985135E-2,-2.245365E-1,7.116629E-1,2.2162177E-1,3.221733E-2,3.649801E-1,-3.3529633E-1,-9.358489E-2,7.80734E-1,-4.574091E-2,1.2421192E-1,4.686869E-1,-3.9374076E-2,2.5714707E-1,7.7077616E-3,4.3934244E-1,-5.0577116E-1,-2.3658605E-1,-1.15926966E-1,2.0199691E-1,5.754569E-1,1.0216565E0,4.4916734E-2,-1.2812558E-1,3.8037407E-3,2.6063904E-1,-9.103641E-2,5.4058194E-1,-8.284874E-2,3.0771434E-1,3.5380036E-1,8.296949E-2,3.2708797E-1,-4.1145185E-1,7.059465E-1,3.416811E-1,-5.229057E-1,4.145089E-1,-2.8463677E-1,6.691215E-2,-5.381701E-2,-2.1436855E-1,-3.5122988E-1,2.6954442E-1,6.111473E-1,-2.3329934E-1,1.1340688E0,5.0154334E-1,-5.7121854E-2,-5.3570203E-2,1.9442636E-1,-7.961235E-2,5.251799E-1,1.8044463E-1,9.636622E-2,-4.959751E-1,7.8949505E-1,4.3388453E-1,-9.283478E-3,1.9943817E-3,7.816546E-3,2.8456971E-2,1.8469248E-2,-3.3439737E-2,1.1003118E-2,-8.204947E-3,9.549799E-3,5.3108115E-2,-1.0839256E-2,-4.935011E-2,2.174724E-2,4.870896E-2,2.2792127E-2,7.135011E-3,-2.709408E-2,4.209869E-4,-1.1634418E-2,3.96667E-2,-1.640182E-2,-2.0190168E-3,9.053546E-3,-1.3916666E-2,-6.944106E-3,2.3326755E-3,-1.3536035E-2,-1.4893644E-3,-2.6150027E-2,2.8418005E-2,9.43715E-3,3.8099468E-2,2.3044152E-2,4.270875E-2,2.3976292E-2,-2.267495E-2,4.2420812E-2,7.179748E-2,-1.3533046E-2,3.1694267E-2,6.5990672E-3,-2.055248E-2,3.478295E-4,2.0728035E-2,-7.5455136E-3,6.6398713E-3,-1.8493265E-2,2.855309E-2,8.248345E-3,6.965226E-2,1.1613195E-2,-3.6250304E-2,-5.00556E-3,-3.7574474E-2,3.58021E-2,7.556539E-2,-1.336941E-2,2.3635488E-2],"categories":[],"categories_nodes":[],"categories_segments":[],"categories_sizes":[],"default_left":[0,0,0,0,0,0,0,0,0,0,0,0,0,0,0,0,0,0,0,0,0,0,0,0,0,0,0,0,0,0,0,0,0,0,0,0,0,0,0,0,0,0,0,0,0,0,0,0,0,0,0,0,0,0,0,0,0,0,0,0,0,0,0,0,0,0,0,0,0,0,0,0,0,0,0,0,0,0,0,0,0,0,0,0,0,0,0,0,0,0,0,0,0,0,0,0,0,0,0,0,0,0,0,0,0,0,0,0,0,0,0,0,0,0,0,0,0,0,0],"id":12,"left_children":[1,3,5,7,9,11,13,15,17,19,21,23,25,27,29,31,33,35,37,39,41,43,45,47,49,-1,51,53,55,57,59,61,63,65,67,69,71,73,75,77,79,81,83,85,87,89,91,93,95,97,99,-1,101,103,105,107,109,111,113,115,117,-1,-1,-1,-1,-1,-1,-1,-1,-1,-1,-1,-1,-1,-1,-1,-1,-1,-1,-1,-1,-1,-1,-1,-1,-1,-1,-1,-1,-1,-1,-1,-1,-1,-1,-1,-1,-1,-1,-1,-1,-1,-1,-1,-1,-1,-1,-1,-1,-1,-1,-1,-1,-1,-1,-1,-1,-1,-1],"loss_changes":[1.0005237E3,4.9510663E2,2.873371E2,1.2686523E2,1.9426172E2,8.332782E1,1.1602966E2,1.06559044E2,3.6812424E1,1.2199774E2,4.056949E1,7.1574646E1,1.05376005E1,5.6852036E1,5.4924225E1,7.577572E1,2.6866882E1,3.223078E1,2.9622757E1,4.21651E1,6.706888E1,3.489367E1,1.6231838E1,2.2949738E1,3.860376E1,0E0,9.325364E0,2.9264204E1,3.432685E1,1.1891831E1,3.1755219E1,5.6317665E1,2.2033978E1,1.6616913E1,1.9392626E1,1.3465289E1,1.1452154E1,2.1861664E1,1.90484E1,2.6340393E1,1.2243075E1,4.2065674E1,2.485041E1,2.9933964E1,2.296025E1,7.788053E0,1.5191717E1,2.7251434E1,5.5728693E0,4.6220947E1,1.2523266E1,0E0,7.7933717E0,2.3115896E1,1.9408226E1,1.5689964E1,2.3167046E1,1.2171648E1,4.935811E0,1.8079056E1,2.321968E1,0E0,0E0,0E0,0E0,0E0,0E0,0E0,0E0,0E0,0E0,0E0,0E0,0E0,0E0,0E0,0E0,0E0,0E0,0E0,0E0,0E0,0E0,0E0,0E0,0E0,0E0,0E0,0E0,0E0,0E0,0E0,0E0,0E0,0E0,0E0,0E0,0E0,0E0,0E0,0E0,0E0,0E0,0E0,0E0,0E0,0E0,0E0,0E0,0E0,0E0,0E0,0E0,0E0,0E0,0E0,0E0,0E0,0E0],"parents":[2147483647,0,0,1,1,2,2,3,3,4,4,5,5,6,6,7,7,8,8,9,9,10,10,11,11,12,12,13,13,14,14,15,15,16,16,17,17,18,18,19,19,20,20,21,21,22,22,23,23,24,24,26,26,27,27,28,28,29,29,30,30,31,31,32,32,33,33,34,34,35,35,36,36,37,37,38,38,39,39,40,40,41,41,42,42,43,43,44,44,45,45,46,46,47,47,48,48,49,49,50,50,52,52,53,53,54,54,55,55,56,56,57,57,58,58,59,59,60,60],"right_children":[2,4,6,8,10,12,14,16,18,20,22,24,26,28,30,32,34,36,38,40,42,44,46,48,50,-1,52,54,56,58,60,62,64,66,68,70,72,74,76,78,80,82,84,86,88,90,92,94,96,98,100,-1,102,104,106,108,110,112,114,116,118,-1,-1,-1,-1,-1,-1,-1,-1,-1,-1,-1,-1,-1,-1,-1,-1,-1,-1,-1,-1,-1,-1,-1,-1,-1,-1,-1,-1,-1,-1,-1,-1,-1,-1,-1,-1,-1,-1,-1,-1,-1,-1,-1,-1,-1,-1,-1,-1,-1,-1,-1,-1,-1,-1,-1,-1,-1,-1],"split_conditions":[1E0,1.1033334E1,2.8E1,1.66E1,1E0,1.65E1,2.9E1,1.7E0,1.161579E2,1E0,1.54E1,1.8E1,1.33E2,1E0,1.1734615E2,3.825E2,1E0,4.2E1,1.36E2,4.05E2,2.9166666E1,1.2133333E1,9.2E1,1.46E2,3.63E1,4.4916734E-2,2.4333334E0,2E0,2.87E1,1.18E2,4.8E0,1E0,1E0,1.2E1,1.03E2,3E1,2.7E0,3.2E1,9.8E0,1.2E0,3.6033333E1,1.4E1,1.06E2,1E0,1E0,3.1E1,3.1E0,1.23E2,1.01E2,8.9E0,1.23E1,-5.7121854E-2,1E0,1E0,1.4E1,7.5954544E1,1.035E1,4.9E0,1.8166667E0,4.58E1,1.86E1,-9.283478E-3,1.9943817E-3,7.816546E-3,2.8456971E-2,1.8469248E-2,-3.3439737E-2,1.1003118E-2,-8.204947E-3,9.549799E-3,5.3108115E-2,-1.0839256E-2,-4.935011E-2,2.174724E-2,4.870896E-2,2.2792127E-2,7.135011E-3,-2.709408E-2,4.209869E-4,-1.1634418E-2,3.96667E-2,-1.640182E-2,-2.0190168E-3,9.053546E-3,-1.3916666E-2,-6.944106E-3,2.3326755E-3,-1.3536035E-2,-1.4893644E-3,-2.6150027E-2,2.8418005E-2,9.43715E-3,3.8099468E-2,2.3044152E-2,4.270875E-2,2.3976292E-2,-2.267495E-2,4.2420812E-2,7.179748E-2,-1.3533046E-2,3.1694267E-2,6.5990672E-3,-2.055248E-2,3.478295E-4,2.0728035E-2,-7.5455136E-3,6.6398713E-3,-1.8493265E-2,2.855309E-2,8.248345E-3,6.965226E-2,1.1613195E-2,-3.6250304E-2,-5.00556E-3,-3.7574474E-2,3.58021E-2,7.556539E-2,-1.336941E-2,2.3635488E-2],"split_indices":[88,53,67,83,91,37,67,50,11,95,83,19,39,0,11,58,107,21,39,58,47,53,16,7,75,0,41,33,29,6,86,91,100,5,72,67,78,21,76,23,52,83,26,104,87,4,23,28,26,25,30,0,99,89,66,10,48,80,55,38,45,0,0,0,0,0,0,0,0,0,0,0,0,0,0,0,0,0,0,0,0,0,0,0,0,0,0,0,0,0,0,0,0,0,0,0,0,0,0,0,0,0,0,0,0,0,0,0,0,0,0,0,0,0,0,0,0,0,0],"split_type":[0,0,0,0,0,0,0,0,0,0,0,0,0,0,0,0,0,0,0,0,0,0,0,0,0,0,0,0,0,0,0,0,0,0,0,0,0,0,0,0,0,0,0,0,0,0,0,0,0,0,0,0,0,0,0,0,0,0,0,0,0,0,0,0,0,0,0,0,0,0,0,0,0,0,0,0,0,0,0,0,0,0,0,0,0,0,0,0,0,0,0,0,0,0,0,0,0,0,0,0,0,0,0,0,0,0,0,0,0,0,0,0,0,0,0,0,0,0,0],"sum_hessian":[2.7808848E4,2.13951E4,6.413747E3,8.0004375E3,1.3394663E4,1.5911343E3,4.822613E3,6.6156973E3,1.3847404E3,7.2559585E3,6.138704E3,1.4581299E3,1.3300432E2,3.4599634E3,1.3626495E3,5.019044E3,1.5966534E3,2.3875421E2,1.1459861E3,2.6592507E3,4.5967075E3,5.707872E3,4.308319E2,7.891372E2,6.6899274E2,9.880135E0,1.23124176E2,1.8384274E3,1.621536E3,1.5507553E2,1.2075741E3,4.4610366E3,5.5800714E2,1.0261814E3,5.7047205E2,1.3563005E2,1.0312416E2,3.0557455E2,8.4041156E2,2.6110676E3,4.8183224E1,3.96847E3,6.282377E2,3.5007092E3,2.207163E3,4.642257E1,3.8440933E2,7.560185E2,3.3118717E1,5.491288E2,1.1986398E2,7.4496593E0,1.15674515E2,5.5920355E2,1.2792238E3,3.7592065E2,1.2456154E3,1.0653428E2,4.8541252E1,3.6040048E2,8.471736E2,2.4271826E3,2.0338539E3,3.5438904E2,2.0361812E2,1.0114062E3,1.4775269E1,3.669621E2,2.0350993E2,1.155052E2,2.0124853E1,7.8089E1,2.503516E1,1.5330675E2,1.522678E2,5.332048E2,3.0720676E2,2.5210117E3,9.005578E1,1.7932505E1,3.025072E1,3.3694424E3,5.9902747E2,4.7248236E2,1.5575534E2,1.8954833E3,1.605226E3,1.6905702E3,5.165929E2,